{
  {0.0449354, -0.049946565, -0.041073497, 0.003387085, 0.028656537, 0.02882895, 0.008486133, 0.0053946064, 0.027667202, -0.015903624, -0.0008787229, -0.02357313, -0.026882151, -0.036549233, -0.036220945, 0.041256327, 0.05172782, -0.030691866, -0.02871601, 0.022607608, 0.005351191, -0.02455288, 0.03553564, 0.047264863, 0.039179455, -0.042598564, 0.012354624, 0.03318216, 0.02057311, 0.02408843, 0.034040686, 0.023178479, -0.04296576, 0.010069765, 0.006332742, -0.046128877, 0.052174803, -0.029668441, -0.031002989, -0.022936933, 0.024417425, -0.044273272, 0.004564662, -0.045344263, 0.048598517, -0.022411548, -0.0071430267, -0.03317149, -0.008599267, -0.05246559, -0.0011308006, 0.051557645, -0.015710836, 0.024126036, -0.03037474, 0.011603247, 0.011161753, -0.0053886576, 0.01930548, 0.049669888, 0.025551425, -0.02548162, -0.04205698, -0.043539096}, 
  {0.043716587, -0.0006628918, 0.039983712, 0.05064812, 0.009773873, -0.023971722, -0.002126438, -0.00049496454, -0.021495277, -0.003643155, 0.0029460026, -0.036047917, 0.007125096, 0.023615144, -0.032092206, 0.042837657, -0.0499162, -0.0151976645, 0.03705249, -0.036024094, -0.039718974, -0.04849459, 0.04906559, -0.03492948, 0.039106585, 0.012783629, -0.0044733393, -0.0125191845, 0.042356744, 0.012483102, -0.05416191, 0.047020786, -0.04641921, 0.007812876, -0.020863026, -0.030287039, -0.023146925, -0.039414875, 0.028893039, -0.0034451932, -0.016269289, -0.034716666, -0.051102296, 0.03953679, -0.04684002, -0.0147524215, -0.007176472, -0.019122697, -0.022771535, 0.022661593, 0.014444386, 0.04169674, 0.037862226, -0.02864482, 0.029389016, -0.042384863, -0.028284093, 0.029740116, 0.00868968, 0.022550013, 0.043219548, 0.04581332, -0.0110327, -0.028939396}, 
  {-0.016690694, -0.02830126, -0.028714193, 0.039680414, -0.039731808, -0.025795888, 0.033057194, 0.023825292, 0.025673008, 0.043967135, -0.027275879, -0.014006915, -0.01733628, -0.0074857227, 0.00044282337, -0.023660414, -0.03595657, -0.022525677, -0.011467365, -0.035934262, -0.0038993962, 0.040861424, 0.020546174, -0.026424188, 0.03580714, -0.028723873, 0.012912167, -0.025058731, 0.042520486, -0.03980138, -0.012073345, 0.027579006, -0.0020194834, 0.025919242, -0.042826686, 0.014862191, -0.0044816816, 0.046184395, 0.025886727, -0.0310992, -0.017249936, -0.023658533, -0.017574355, 0.025747498, -0.03776122, 0.01637981, -0.05329215, -0.050602354, 0.015600316, -0.022780836, -0.006299737, -0.0076661184, -0.027682934, 0.021297684, 0.021761341, 0.035528023, 0.014543242, -0.0052171363, -0.044818062, 0.0051600235, -0.008927177, -0.002211257, -0.04010667, -0.03437719}, 
  {0.042797484, 0.04099835, -0.015441908, 0.03155005, -0.013028598, 0.052537777, 0.04973461, -0.04664747, -0.04934045, 0.012548365, -0.041587956, 0.051315166, -0.025896514, 0.053325426, 0.03178244, 0.027150093, 0.0041331877, -0.04370223, 0.036830224, 0.03444199, -0.034514934, 0.02573642, -0.020155948, 0.0060878084, 0.051090773, -0.048928674, 0.036597233, 0.011104866, -0.043586068, 0.041320495, 0.017468898, -0.026728244, 0.017407289, 0.043221425, -0.020737723, 0.012696507, 0.041343585, 0.006452323, -0.01722688, 0.026106443, 0.012179369, 0.03791638, -0.019537, 0.020488925, -0.016639506, 0.029126385, 0.025080621, -0.027552564, -0.0072563947, 0.044560745, 0.039236125, 0.048891883, 0.0061125895, 0.015621451, -0.029554546, -0.020307552, -0.017824758, 0.03803945, -0.032215115, -0.014549434, 0.033912275, -0.004580044, 0.016918851, 0.049518492}, 
  {0.010758787, -0.040239166, -0.011982558, 0.05094045, 0.042562436, 0.024860747, 0.016181108, 0.04737818, -0.027024636, 0.038623415, 0.051941328, 0.0011574758, -0.030391809, 0.017319286, -0.009309861, 0.02445383, -0.0059722173, 0.0076532923, 0.01807815, -0.0038655293, 0.037549336, -0.0012873805, -0.03786817, -0.05241181, 0.039122254, 0.009842251, -0.019339325, 0.0432869, 0.007518544, -0.034980007, 0.023677891, 0.03404279, 0.016026141, -0.027539322, 0.039294086, -0.003161334, 0.03205071, -0.043971516, -0.009632957, 0.0067125424, 0.03520601, -0.043294318, 0.0048488122, -0.026190622, -0.045913465, 0.014042862, -0.0039330176, 0.036898825, 0.017718459, -0.045850646, -0.012114009, -0.042707164, 0.014920974, -0.00069681095, -0.037533607, 0.00173212, -0.026014155, 0.017327104, -0.015821321, -0.029065836, -0.03541468, 0.013316903, 0.005633854, 0.047050435}, 
  {-0.038411073, 0.011525203, 0.024593435, -0.051288955, -0.024806894, -0.048333347, -0.037264023, 0.03654133, 0.055160664, -0.026721379, -0.02207343, -0.045491792, 0.039823245, 0.0096953465, -0.00393978, 0.0041877883, -0.03535744, 0.007134761, -0.010806027, 0.03429211, 0.013383574, -0.04696544, -0.0067743966, -0.03693087, -0.010713822, -0.010213514, 0.0048063863, 0.009654764, 0.0028000178, 0.04557002, -0.037087105, -0.03599509, -0.053040754, -0.040208276, -0.045982428, -0.0141413575, 0.013198214, -0.039137665, -0.0013141151, 0.05386892, 0.03447943, 0.021671005, 0.04158963, 0.048391175, 0.024340201, -0.023591354, -0.015499519, 0.00075113785, -0.031133905, 0.012899095, -0.027577301, -0.0027485846, -0.025743928, 0.025321342, 0.0047180536, -0.018092273, 0.048338912, 0.035327066, -0.054877434, -0.041451216, 0.0028153476, -0.027598813, 0.042660404, 0.05038403}, 
  {-0.020391392, 0.04035748, 0.013651026, 0.03794437, -0.0056573558, -0.015574976, -0.029413123, 0.012277963, 0.053677972, -0.029276218, -0.039421756, 0.018860152, -0.03214531, -0.040470827, 0.020410756, 0.017527236, -0.014940274, 0.009723391, -0.053814236, -0.015023984, -0.01037548, -0.044499487, 0.04397851, 0.0021432217, 0.013531356, 0.035679046, -0.012417819, 0.010766054, 0.03630287, 0.03413626, 0.037839253, 0.05269317, 0.0014853748, -0.012453414, 0.01186536, 0.02357336, 0.042113658, -0.012309935, 0.013355733, 0.016638875, -0.028999798, 0.03990501, 0.02299304, 0.034514297, 0.041524924, -0.053985037, -0.049420666, 0.050602324, 0.003372974, -0.015921036, -0.052329775, 0.033187367, -0.0069585196, -0.0152018, -0.03763038, 0.052576095, -0.024779562, 0.028854396, -0.004852279, -0.022177467, 0.035330474, -0.0017658446, 0.05159053, 0.033002768}, 
  {-0.0046404125, -0.04266556, -0.021748928, -0.010493079, -0.03455399, 0.049716216, -0.013741637, -0.023935515, -0.033907127, -0.02822429, 0.027233075, 0.01833347, -0.0004923484, 0.0025547675, 0.013782486, 0.05048149, 0.0016961511, -0.033379413, 0.03006643, -0.00024374925, -0.030766312, 0.050178066, -0.033825114, -0.04364289, -0.017692167, -0.035950627, -0.025638057, 0.024311777, -0.00707775, 0.04464757, -0.008374782, -0.034654994, -0.04329244, 0.006659211, 0.049469, 0.0055941762, 0.04466971, 0.034379024, 0.010323942, 0.033620227, 0.0074485596, 0.026925918, -0.0046494543, 0.038368974, -0.00032384656, 0.017805107, 0.007773663, 0.042822696, -0.046495102, 0.022551255, 0.009894564, -0.026596164, 0.0037450725, 0.023924341, -0.031171184, 0.05049197, 0.0076662744, -0.03230576, -0.0286798, 0.019646885, 0.0016889538, -0.053385068, -0.0499893, 0.01630591}, 
  {0.032595847, 0.023151428, 0.0029320228, 0.03468386, 0.02560172, 0.0199802, -0.020692302, -0.04415096, -0.041262005, 0.02042616, 0.04702353, 0.0140309725, -0.051623605, 0.014991649, 0.023775913, -0.042278823, -0.048546493, 0.042264942, -0.046204176, -0.009397457, -0.008120799, 0.011628514, 0.027122399, 0.047789272, 0.0497796, 0.010577398, 0.042210568, 0.027329972, 0.04102512, -0.036549322, -0.040813264, 0.022358805, 0.040280398, -0.0041625146, 0.043758575, -0.018310338, 0.00489797, 0.02102794, -0.05110278, -0.0410327, -0.035112437, -0.015412624, -0.011961058, -0.017552145, -0.038669605, 0.02813955, 0.053331718, 0.02833366, 0.0476459, -0.02003935, -0.04304414, -0.050470922, -0.037650276, -0.011182398, 0.02229409, -0.038752224, -0.042600226, 0.03017984, 0.029100675, 0.026525136, 0.00030244072, 0.033237375, 0.018822769, -0.02506212}, 
  {0.03554516, 0.027680345, -0.025888097, 0.050020862, -0.016771398, 0.004296609, 0.015686678, 0.036785435, 0.019659003, -0.020196946, -0.029579664, 0.019318845, 0.045753088, 0.011974833, 0.037573133, 0.02864484, -0.033561938, 0.047929022, 0.045057096, 0.024305457, 0.0061327796, 0.012852645, 0.008146043, -0.043252025, 0.028954156, 0.019732276, -0.041365296, 0.032465532, 0.027580692, 0.028318105, 0.009385326, -0.01187315, 0.05260961, 0.034064762, 0.025435343, -0.035314873, 0.04771038, 0.03834568, -0.032214344, 0.019230608, -0.04449074, 0.048900183, 0.010480129, -0.005076834, -0.02965509, 0.035774026, -0.049460236, 0.003931851, 0.0114334095, -0.023549894, 0.02846631, -0.032456797, -0.0027967705, 0.04497321, 0.031392116, -0.036258698, 0.011042831, 0.023701932, 0.004231257, 0.03904137, -0.043969627, 0.040899348, 0.04040442, -0.016354144}, 
  {0.017422741, 0.035683934, -0.02844674, -0.023114374, 0.05067938, -0.00037094337, -0.0135627035, -0.043909363, -0.015745897, 0.0002543331, 0.0027262955, -0.00025251848, 0.035120916, -0.012880637, 0.038122807, -0.008697373, 0.053309727, -0.03713545, 0.03576413, 0.023382962, 0.03060403, -0.011100645, -0.05001702, 0.017560052, 0.0371053, 0.019935938, -0.019522438, -0.0048044524, -0.026235037, 0.01803163, 0.018288478, 0.006904492, -0.03573944, 0.010071694, 0.03591459, -0.0050097993, 0.026341915, 0.029402731, -0.047822207, -0.032103434, 0.028684566, -0.018480316, 0.05210663, 0.047688756, 0.0068614404, 0.019446667, -0.04612837, -0.014968863, -0.013425935, 0.033222865, 0.03988331, -0.015908198, -0.019522585, -0.02294896, 0.020870313, 0.047224745, -0.0338669, 0.032095265, -0.030693414, 0.030270118, -0.019268462, 0.05039308, -0.01904025, 0.036543682}, 
  {-0.035205908, 0.0358454, 0.03551286, -0.03776847, 0.0047894423, -0.035881706, -0.039487537, -0.01901932, 0.022690024, -0.019217731, -0.021854723, 0.022782985, 0.020234834, 0.042104576, -0.03801099, 0.024586776, -0.04699836, 0.00061131024, 0.032337487, -0.021116793, -0.03316889, 0.035779957, 0.04648449, 0.0046957606, -0.04937575, -0.047594633, 0.0014503058, -0.043524846, -0.03962029, -0.006845829, -0.041296214, 0.042476624, 0.018153515, -0.052354142, 0.0005033871, 0.026445052, -0.024894314, -0.023020936, 0.030884473, 0.033077043, 0.0015465578, 0.03210669, -0.0095875, -0.047392882, 0.046315484, -0.038441963, -0.04507275, -0.028238053, -0.04080996, 0.04802938, 0.0017290007, -0.017234795, -0.02250321, 0.043228053, 0.04094139, -0.04337718, 0.041377753, 0.009234628, 0.008368561, 0.021326985, 0.010623224, 0.045775577, -0.003249307, 0.03998777}, 
  {-0.04845679, 0.05058396, -0.0356223, 0.03139766, -0.013991768, -0.017211784, 0.0045160446, 0.013121377, -0.05104387, -0.014835595, -0.012783486, -0.047097202, -0.024575315, 0.043055654, -0.01797261, 0.022744628, -0.016184498, -0.018143144, -0.018335344, 0.036888916, 0.020835042, 0.019229282, 0.0397274, -0.021202618, 0.049051803, 0.019208226, 0.049442727, -0.025640272, -0.022373712, 0.005678069, -0.0308724, 0.02509258, 0.032570936, 0.013438745, 0.0461965, -0.023120595, -0.044706162, 0.0099892095, 0.049681444, 0.034812406, -0.05295358, -0.041735586, 0.004975665, -0.005825266, -0.03029746, 0.03941126, 0.00047050798, -0.054016717, -0.03862173, -0.05443637, -0.017257895, 0.014570455, -0.047318846, 0.0010064675, 0.0035923258, -0.043740354, 0.027270915, 0.03582791, 0.00831079, 0.014106804, 0.017815772, -0.02347951, 0.0018429828, -0.037000548}, 
  {-0.034007773, 0.04817497, -0.014699139, -0.04887273, -0.015182214, -0.033886828, -0.0031747045, -0.01684937, -0.030834597, 0.01371928, -0.017445143, 0.04741661, -0.011918208, 0.048435755, 0.018313495, -0.0021986156, -0.0514986, -0.047562603, 0.0025652586, 0.011398858, 0.038348943, -0.011183398, -0.0029716718, -0.018074322, -0.03483141, 0.04780737, -0.018187078, -0.013083674, -0.0040784664, -0.0364805, -0.026853722, -0.030905655, 0.045804277, -0.016907511, -0.032687925, 0.018942164, -0.008405946, 0.039549373, -0.041017648, 0.029235087, 0.00034752343, 0.038769547, 0.04065654, 0.020298492, -0.013225421, 0.028515, -0.0004718792, 0.0096822865, 0.048853412, -0.014277223, 0.046448756, 0.045777604, 0.034618165, 0.048221145, 0.024462841, -0.015606785, 0.04107208, 0.013289789, 0.0032632628, -0.020195963, 0.03172111, -0.04912202, 0.052626796, -0.049779765}, 
  {-0.040687643, 0.052909095, 0.01046185, -0.042395372, -0.03613377, 0.03551952, 0.052771837, 0.0054533547, 0.02563443, -0.027691945, 0.04232661, -0.043978803, 0.0196144, -0.02170854, 0.01850115, -0.017592493, 0.046425767, -0.036768265, 0.022107778, -0.051067077, -0.02586444, -0.03741745, -0.030480528, 0.017059753, 0.030084884, 0.052077163, 0.04257075, 0.051587686, -0.04660321, 0.012652674, 0.04063556, 0.05295406, -0.034796026, 0.04903782, -0.011320677, -0.051583428, -0.015885826, 0.039919484, 0.004791995, 0.010301319, -0.004506404, -0.024775287, 0.03926788, 0.022156296, -0.034386963, -0.008404786, -0.004834924, 0.040788166, 0.038016796, 0.035624884, 0.026186367, -0.026531994, 0.05390306, 0.015376227, 0.02166849, 0.0031553567, -0.03639108, -0.037006974, -0.02952655, -0.053727254, -0.02510509, -0.027125925, -0.036227733, -0.025169155}, 
  {0.028304074, 0.020416465, 0.035549425, 0.02169806, -0.043574657, 0.047686066, 0.016156083, 0.042388614, -0.0073689683, -0.04461763, 0.04875255, -0.033680998, 0.03725531, -0.033223428, 0.04875545, -0.030136531, -0.04921562, 0.007329536, 0.016137151, 0.019354427, 0.0037172264, 0.04000202, 0.00096379605, 0.047189362, -0.012034456, 0.04133854, 0.038731977, -0.041935325, -0.029779138, 0.025579227, 0.020915309, -0.006448126, 0.046215996, -0.049650706, 0.05013834, -0.05126281, 0.011946112, 0.0027114884, 0.024050001, -0.027142284, -0.011810857, -0.02729873, -0.039878763, 0.051074184, 0.0064829714, -0.029570503, -0.041452866, -0.0011677357, 0.022564638, -0.041047636, 0.047594506, -0.00041423005, -0.047037598, -0.040958337, -0.0005358082, -0.030146986, 0.008782052, 0.0071170614, -0.01214582, 0.02489987, -0.042857666, -0.03331905, 0.0370197, 0.04782193}, 
  {-0.032438673, 0.04988436, -0.038735732, 0.030220896, -0.027472058, 0.043050803, -0.028367152, -0.051187303, -0.042638566, -0.032850895, -0.010727459, -0.036581714, 0.0020801434, 0.034637325, -0.0057161124, -0.021110754, 0.031976447, -0.028210314, 0.034872096, -0.02954117, 0.025512613, -0.038888775, 0.0139966365, -0.054298803, -0.039080422, 0.042724505, 0.0053119627, -0.0059721232, -0.018792434, -0.031838115, -0.048649564, -0.0036211761, -0.032347437, 0.021943755, -0.04694107, -0.038957216, -0.030025033, -0.033715308, -0.022502646, 0.043629896, 0.0310546, -0.012508794, -0.03666854, -0.0087677175, 0.0065121916, -0.03265762, -0.008864798, 0.041832954, -0.03015653, -0.027467592, -0.00097270444, -0.008185617, 0.022056576, -0.0011334909, -0.03992983, 0.0044746, 0.03398079, -0.0348715, -0.050262712, 0.02291685, 0.01817436, -0.01290713, -0.03324605, -0.0019044402}, 
  {-0.029076174, -0.026434729, 0.04089098, -0.0027105003, -0.0026283707, 0.009459649, -0.05226842, -0.02475861, -0.04703649, 0.04394636, -0.0202937, 0.013336338, 0.05085626, -0.050784014, 0.05407279, -0.014853244, 0.041696314, -0.010794323, 0.018751593, 0.008329029, 0.04786338, 0.0413619, -0.0016760099, 0.001730778, 0.01030504, 0.012065851, 0.017542344, -0.042757485, 0.05066308, 0.022005238, -0.032041736, 0.048956327, 0.0069352705, -0.0006286305, 0.010722847, -0.0012092909, 0.0034706083, 0.026992295, 0.036172837, -0.00477122, -0.0024045503, -0.030456755, 0.051419336, 0.0483519, 0.0008573483, -0.041075062, -0.04399047, 0.031154154, 0.02099339, 0.044227727, -0.011236845, 0.042218585, -0.0009035465, 0.030011073, 0.0062970505, 0.007116136, -0.01879424, -0.038692467, 0.03854591, 0.024187382, -0.017312108, 0.02966538, 0.009883476, 0.0065112263}, 
  {-0.017275691, 0.0056791645, 0.010379907, -0.016143784, -0.020420328, 0.02086334, 0.03582845, 0.052777782, -0.04119005, 0.029375952, -0.031836614, -0.050680798, -0.019860754, -0.008968336, 0.0047095628, 0.024702128, 0.002622541, 0.0077255745, 0.033662308, -0.032707755, -0.04431639, -0.04449993, -0.0017278738, -0.0006813355, 0.010653306, 0.03827817, -0.03874673, -0.040885534, -0.010760937, -0.043600705, -0.038530752, 0.036513194, -0.051711887, -0.011580441, -0.015623068, -0.026027052, 0.034390014, 0.00818765, 0.03412659, -0.022013465, 0.03213936, 0.03016583, 0.041414402, -0.0058589214, -0.020091513, -0.027582044, -0.047902804, -0.00459387, 0.034926645, 0.05067226, -0.009675831, 0.037175488, -0.035796095, -0.035739545, -0.023595642, 0.020824926, 0.032227002, -0.006944212, 0.03634893, 0.0336045, -0.045707654, 0.035020005, 0.030434141, -0.0011704819}, 
  {0.0022426532, -0.047796793, -0.019481651, -0.015510132, -0.002225884, 0.006769328, 0.02717431, 0.027741497, -0.04661947, -0.010642269, -0.023728613, 0.025879746, -0.023910167, 0.009764509, 0.011657198, 0.050173745, 0.046302192, 0.026515707, 0.043876424, 0.008396241, -0.002024053, -0.04970842, -0.0513499, 0.016383031, -0.012926894, 0.041713737, -0.04764367, -0.0045578782, 0.04144422, 0.027532516, 0.008675753, 0.046331394, 0.028511375, -0.052348737, -0.053644728, -0.01937589, -0.045356125, 0.019099591, 0.016641797, 0.018488802, 0.045009743, -0.034530055, -0.024773078, 0.048641644, 0.028962957, -0.020133704, -0.029065754, -0.012193906, -0.026237894, 0.022984834, -0.02042694, 0.019567031, 0.021007443, -0.019378139, 0.04189273, 0.048658166, -0.015153506, -0.02880293, -0.020314481, 0.004702854, 0.024268342, 0.008327547, -0.045969788, -0.006303942}, 
  {-0.0039147134, 0.0353994, -0.019604348, 0.0023411093, -0.043716602, -0.020171884, 0.048875954, -0.015830027, 0.035431154, -0.037082803, -0.026649032, -0.025629383, -0.05074757, 0.042073864, 0.0010721625, 0.00962132, -0.012933004, -0.04692031, -0.03678094, -0.05216447, -0.013086435, 0.04952726, -0.031040344, -0.055563793, -0.035495725, 0.023519596, -0.013871117, -0.040308274, -0.004838901, -0.04982561, 0.033914085, 0.024900751, 0.037682712, 0.049155917, -0.03961269, -0.050179195, 0.0049203145, -0.023587728, -0.0074450886, -0.008850939, -0.037696965, -0.046303354, -0.009101801, -0.004186549, -0.024347655, -0.031395283, -0.021568496, -0.011475979, -0.032263245, -0.013905438, 0.029033056, 0.0031657575, 0.03551676, -0.007746317, -0.012505851, -0.018807849, 0.051009804, 0.04390017, 0.03743002, 0.04321802, 0.044372406, -0.032254394, 0.019606864, 0.038918216}, 
  {-0.009224485, 0.014472468, 0.005863809, -0.029460352, -0.052305665, -0.038937464, 0.03373514, -0.017596876, 0.010146975, 0.041231968, -0.034496065, 0.015813893, -0.0003013166, 0.032529976, 0.0076378933, 0.045558147, 0.03792789, 0.0387979, 0.046737686, -0.04688412, -0.03244701, 0.03139944, -0.049610704, -0.0017706427, -0.054574404, -0.029292285, 0.027015854, -0.040320367, -0.053290125, 0.041721456, -0.017616762, -0.054882333, 0.038253073, -0.04054524, 0.01959981, 0.023550661, 0.047258697, 0.0073397974, -0.011331283, -0.05101695, 0.043247905, 0.032029737, 0.045129538, -0.0099749835, 0.043637086, 0.006451738, -0.016723422, 0.034858778, -0.039254982, 0.053188723, 0.022137852, 0.045230813, -0.02928487, -0.004449317, -0.031070929, 0.00063556904, 0.041137252, 0.03183543, 0.0443823, 0.021501906, -0.006820924, 0.04641265, -0.026662212, 0.019765858}, 
  {-0.014970214, 0.0012838752, 0.025099684, -0.03363457, 0.016273916, 0.012874236, 0.013600662, 0.028667934, 0.0520457, 0.0016351213, -0.03526924, 0.02470737, -0.04183293, -0.0050349715, -0.044431902, -0.05171682, -0.015161869, 0.007145233, -0.008103027, -0.04736404, -0.026567265, -0.044090122, -0.045657013, 0.01769212, 0.035430577, -0.035761893, 0.021337358, -0.0018527712, -0.044412415, -0.043584008, 0.039505746, 0.028985597, -0.04524571, 0.020725079, 0.023439962, 0.01287497, 0.015952319, 0.047845684, -0.046486758, 0.013296576, 0.043947816, 0.00796739, -0.036446307, 0.043555282, -0.052205037, 0.0017534222, -0.0053238412, -0.031945057, -0.010132694, 0.0030197392, -0.027746977, -0.030128505, 0.03365698, -0.007833434, 0.04050689, -0.0054397904, -0.02784891, -0.013565879, 0.00894086, 0.0036537377, 0.037284177, -0.0397043, 0.04561094, -0.029056504}, 
  {0.010949537, 0.021552894, 0.010089111, -0.0050050532, -0.010603904, 0.028926102, 7.4652686e-05, 0.019695163, 0.03356663, -0.051063392, 0.0058493307, 0.00048616523, -0.052012138, 0.01858928, -0.04559824, 0.0122322105, 0.027463473, 0.032114852, -0.013036784, -0.015931329, 0.03819739, -0.015791783, 0.00095016416, -0.010174427, 0.005125573, -0.03135411, 0.040105153, -0.030399265, 0.007490626, -0.030337233, -0.02758346, -0.0056349337, 0.04171292, 0.048750784, -0.0036210173, -0.0077766087, -0.04558713, 0.006969242, -0.013656692, -0.030702833, 0.0027222491, -0.030255202, 0.018829398, 0.026751513, 0.0057901544, -0.026023325, -0.00083926565, 0.019131616, -0.01224257, 0.038212642, 0.011082289, 0.044414878, -0.0295928, -0.04947266, -0.040165182, -0.013302975, -0.030203342, -0.015533278, 0.03012944, -0.0010537003, 0.003728811, -0.02696972, 0.0112772295, -0.038886268}, 
  {-0.049693443, 0.00422835, -0.025142169, -0.02318666, 0.0513787, 0.004564078, -0.050632343, -0.046261776, -0.03463781, 0.03594175, 0.036720373, 0.004625758, 0.0127431275, 0.007864467, 0.052123543, -0.005761363, -0.035030346, 0.0070367227, -0.030317781, -0.03335632, -0.047177274, -0.04060772, -0.00503958, 0.015463777, -0.025959583, -0.031737134, 0.027687844, 0.01302959, -0.017833307, 0.039004665, -0.030949833, 0.006930241, -0.042159252, -0.013805649, -0.00012164203, 0.02810932, -0.044266026, 0.014462099, 0.018222693, -0.050684396, -0.02053918, 0.040556364, -0.02917183, 0.006215594, -0.034590483, -0.0004535578, 0.024355773, 0.040229008, -0.034923185, -0.014227106, -0.010169497, -0.026591917, 0.017285848, 0.027961893, -0.03224986, 0.035422865, -0.029190851, 0.02822516, -0.052596413, 0.025853863, -0.019830432, 0.00016328409, -0.033230633, 0.018221544}, 
  {-0.004493748, -0.03285265, -0.003856572, 0.04406587, 0.037280656, -0.04786653, -0.002646101, 0.048442986, -0.011782392, -0.020610379, -0.043440048, 0.02637927, -0.024177864, -0.024296127, -0.0038591041, 0.0055865417, -0.02320928, 0.027860492, 0.047398552, 0.007979341, -0.052540872, -0.0055607297, -0.00600883, -0.053298343, 0.028837658, 0.0021875158, -0.04396915, 0.005224581, -0.03173808, 0.047388602, -0.041258562, -0.020239893, -0.045136858, -0.005524791, -0.008576009, -0.0085505545, 0.008875426, 0.029153243, 0.003956248, -0.014384368, -0.02004364, 0.036895122, -0.018758409, -0.049217105, 0.0021998554, -0.01033789, 0.021542227, 0.018707624, 0.024155106, 0.04447711, 0.017637646, 0.03003476, 0.019779464, -0.02450037, -0.030782223, 0.04012338, 0.03805757, 0.025096826, -0.04932848, 0.005088753, -0.012717664, -0.015594187, 0.041455902, -0.043107234}, 
  {-0.04535457, 0.031929813, 0.038318735, 0.028263403, 0.019333573, -0.0204457, -0.025663827, 0.016956287, 0.018408608, 0.018356975, -0.02205138, 0.0021648896, 0.008320569, 0.00717761, -0.018772552, -0.04966118, 0.03358232, 0.032479715, 0.041291744, -0.007967189, 0.045619484, 0.043659527, -0.04086773, 0.0005197593, 0.042098843, -0.040149342, 0.038057882, -0.010596733, -0.04091, -0.04207211, -0.0069999434, -0.0027613405, -0.042199977, 0.019412069, -0.014687291, 0.009613118, 0.019016558, 0.0169829, -0.02906187, -0.0038005952, -0.01952592, 0.03424809, -0.042030036, 0.026630724, 0.009552556, 0.0011428326, 0.017126221, 0.023300914, 0.04521545, -0.0016732637, 0.0015858283, 0.008041629, 0.013994499, -0.02313384, 0.0510629, -0.027870342, 0.023400804, -0.019847337, -0.01585285, -0.020007167, 0.052518267, 0.02714142, 0.017523251, 0.028134871}, 
  {0.035464354, 0.0038477685, 0.009328434, 0.015050661, -0.013563117, 0.04145168, 0.047489434, -0.010247396, 0.027736511, 0.026158383, -0.0076811914, 0.046691965, 0.04255247, -0.024007855, -0.014123614, 0.0051205987, 0.019462548, 0.05201036, -0.05302809, -0.050068516, -0.033975966, -0.015342707, -0.0099866185, -0.0060250424, -0.045589637, 0.031116491, 0.038472548, -0.0031001316, -0.035645947, 0.01856298, -0.04288439, -0.053657014, -0.010097621, 0.013923755, -0.027460206, -0.027688155, 0.047066487, -0.033471443, 0.0120255165, 0.04528205, -0.04045748, -0.0065649897, -0.027345592, 0.018499259, -0.020074753, -0.03070223, -0.050531738, -0.042162683, -0.049856752, 0.0032376845, 0.005834171, -0.014239307, 0.0037913471, 0.045813397, 0.015563871, 0.0528448, 0.036228202, -0.038473446, -0.040377505, -0.026986444, 0.02657587, -0.05320726, -0.037014462, -0.029828964}, 
  {0.012601777, -0.03636652, 0.031842798, -0.039515566, -0.006086508, 0.007144449, -0.006075873, -0.03530449, 0.03455528, 0.016850268, 0.027145699, -0.017644245, 0.024562819, -0.012812316, 0.036339242, -0.042346332, 0.014330324, 0.015827842, -0.002633438, 0.052520104, 0.02878069, 0.035258718, -0.008322959, 0.020851225, 0.017263249, -0.009214495, -0.035614196, -0.013927279, 0.034048893, -0.0065608253, -0.016518522, -0.03866659, -0.024526453, 0.0050149, 0.026548512, -0.024491584, -0.03088914, -0.03652379, -0.01995863, 0.008913043, -0.002601432, -0.05248461, 0.015990209, -0.033445768, -0.026979329, 0.028570132, -0.045111768, -0.048647564, 0.0027134875, 0.051005498, -0.006223386, -0.0052621663, -0.012001547, -0.045555055, -0.04462849, 0.047252886, 0.033973403, 0.051981427, 0.03563347, 0.007284536, 0.0069962544, -0.01416762, 0.042507764, 0.014369222}, 
  {-0.020217886, -0.053231005, -0.0241116, -0.03902491, 0.01817681, 0.048846755, 0.03958806, -0.014481943, 0.0344545, 0.018240929, -0.04511485, 0.019412851, 0.0060919626, 0.018492855, 0.035310127, 0.007368565, -0.020261325, 0.03066702, -0.017049646, 0.046610605, -0.043658715, 0.04729051, -0.05052576, -0.011448168, 0.0134706665, 0.02121667, 0.01969494, -0.040046457, 0.031110814, 0.020749502, -0.04525272, 0.019309368, 0.031451505, -0.0100678485, 0.04317559, -0.048806597, -0.034108445, -0.0398494, -0.032271653, -0.019845396, 0.037193973, 0.03442677, -0.022918371, 0.040822744, 0.05136176, -0.037705462, 0.047001638, -0.045445472, -0.02112261, -0.022000061, 0.034045406, 0.023626506, 0.019922568, -0.012519712, -0.052147202, -0.049221355, 0.018829806, -0.01897778, 0.022342088, 0.030646842, 0.044185888, 0.043630276, 0.003784422, -0.009593805}, 
  {0.047930337, 0.004801292, -0.052642696, 0.023213206, -0.029070493, 0.011132343, -0.027621182, 0.0149331065, -0.03143692, 0.025714925, -0.011747108, -0.021935092, 0.051538944, 0.01901125, 0.022377826, -0.008268048, -0.04158248, 0.050945815, -0.035674788, 0.033039648, -0.011970777, 0.03929578, 0.017537054, 0.046981417, 0.0190525, 0.026147394, -0.04822344, -0.022332815, 0.013849026, 0.032466937, 0.020333745, -0.010021337, -0.022290403, -0.04563022, 0.03233635, -0.052444115, 0.035264444, 0.049844, 0.043436546, 0.037363417, 0.028085329, -0.0041795294, -0.04591277, 0.03980005, -0.016210912, -0.023967851, 0.022177467, -0.04083134, -0.00821397, -0.008242612, 0.02334983, -0.029771496, 0.010983576, -0.013446381, -0.027452063, -0.035828926, -0.02130499, -0.041702095, 0.044915937, 0.042103224, -0.008363727, -0.035868872, -0.027414646, -0.037212398}, 
  {0.031768393, 0.03434698, 0.011264093, 0.028536327, -0.028980276, -0.015786475, -0.033393208, -0.013135395, -0.006365652, 0.043578986, 0.018737841, 0.041843537, -0.014589904, 0.020673696, -0.009861796, 0.0037518346, 0.049399424, -0.031370815, 0.052403767, 0.02992099, -0.0045530847, -0.0049507977, 0.05112575, -0.042503055, 0.021866987, 0.036157448, 0.043144267, -0.039329413, 0.0073489705, -0.042610183, 0.04195388, -0.0072046006, 0.021869523, 0.0021393823, 0.017452901, -0.0028053185, -0.015113842, 0.027917689, 0.03481271, 0.04294038, 0.010485367, -0.025063008, -0.008988431, -0.0051588835, -0.025649067, 0.013398119, -0.008719229, 0.014425979, 0.0105794575, -0.009413239, -0.007076259, -0.04900627, 0.00052347267, -0.02330493, 0.045468565, 0.009873918, 0.04160626, -0.043790113, -0.041094303, 0.0064174384, -0.00045275138, -0.034617253, -0.010739193, 0.01668389}, 
  {-0.046041366, -0.0009194861, -0.05055574, -0.032033637, 0.0112072835, 0.022297993, -0.026579006, -0.040456284, -0.04737936, -0.034466524, 0.017078523, -0.017293693, 0.030243166, -0.039904457, -0.0015421908, -0.032200504, -0.05080344, 0.01193068, 5.041856e-05, -0.03838848, 0.05321563, -0.049302284, 0.014597361, -0.009700377, -0.023235552, -0.03647414, -0.023473023, -0.045429286, -0.020789206, -0.043731987, -0.032912225, -0.01317729, -0.03207166, 0.049581185, -0.008216997, -0.051763695, -0.011321294, 0.035053447, -0.0045413347, -0.031859327, -0.041204512, -0.00031966958, 0.04341742, 0.025076186, 0.05097509, -0.026181156, -0.022721246, -0.0047539813, 0.029576538, -0.01522182, -0.045247193, -0.01790489, -0.016149808, 0.031812698, -0.04761441, -0.036765635, -0.041305404, 0.026826907, -0.03652166, -0.02993448, 0.030306492, 0.051655438, -0.042601388, -0.028831318}, 
  {0.032081716, -0.012766484, 0.036675546, 0.009948217, 0.03626675, -0.02181303, 0.046226166, 0.039635997, 0.032324858, 0.028345019, -0.009693132, -0.015847348, -0.048517533, 0.05086336, 0.01839869, -0.01887964, 0.050234564, 0.047691934, -0.017204946, -0.03962127, -0.045412984, 0.028646559, 0.025178477, -0.01638174, 0.05346553, 0.037657894, -0.02734479, -0.009272454, 0.013278979, 0.048251063, 0.05090515, -0.01569345, 0.04636747, -0.024041701, 0.044035196, -0.03590781, -0.014780919, 0.026010925, -0.02369107, 0.022188568, -0.011981282, -0.032254867, -0.05206131, -0.0099369595, -0.034003038, 0.027013224, -0.03340542, -0.04847017, 0.0052245418, 0.008721309, 0.050452314, -0.009060615, 0.00766675, 0.032010715, -0.0061938227, 0.0339211, -0.019415997, -0.00014691298, -0.012027219, 0.019377077, -0.0029435814, 0.006654209, -0.0051405863, 0.011866277}, 
  {-0.035318363, -0.0036916963, 0.02865678, 0.01075147, 0.027548736, -0.037771355, 0.039824154, 0.016619159, -0.03334115, 0.050742894, 0.043722875, -0.047830585, -0.021237377, 0.01621716, 0.019777821, -0.031017814, 0.04952356, -0.042960804, -0.052918985, 0.03391636, 0.043387305, 0.008536368, 0.034339517, -0.024118194, 0.011272034, 0.039688494, 0.029694859, 0.02870672, 0.016472526, -0.0056916885, -0.043030687, 0.0184839, -0.017450051, -0.030816356, 0.011932866, 0.008966388, 0.01076895, -0.010944942, -0.030233815, 0.008087775, 0.01841398, 0.0193875, -0.03305252, 0.0044754916, 0.0099698445, 0.011408278, -0.048985783, 0.016235303, -0.007386383, -0.016413625, 0.035278883, -0.016274009, -0.04741434, 0.008611087, -0.031851485, -0.04881523, 0.01912526, -0.038955152, 0.038960345, -0.028190602, 0.027799424, -0.00746439, -0.0045001195, -0.038717125}, 
  {0.03354276, 0.007282605, 0.04600315, -0.033405934, -0.031248713, 0.04176825, 0.020386633, 0.049307022, 0.008373258, 0.020708762, -0.036259174, -0.027141865, 0.0024119471, 0.011060311, -0.0046504564, -0.029124033, -0.023555147, -0.0212831, -0.044354163, -0.0324017, -0.044250354, 0.038973257, 0.010341364, 0.015576434, 0.0050257677, 0.015201434, 0.031820126, 0.01696338, -0.030974343, -0.05115964, 0.030673286, 0.00962298, -0.0019252837, -0.0019650552, -0.0031424186, 0.02685725, -0.038185276, 0.019880908, 0.00013422838, -0.045030497, 0.03717419, 0.03164306, -0.004751596, -0.036858737, 0.04824348, 0.04016626, 0.008719278, 0.026981901, -0.007855942, -0.021585707, 0.018133324, 0.030537583, 0.021140775, 0.040475667, -0.030734673, -0.0033437246, 0.052095763, -0.03912577, 0.009468809, -0.048970897, -0.022977134, -0.007627366, -0.006468931, 0.02775176}, 
  {0.02526478, 8.7194065e-05, 0.0036163016, 0.026912447, -0.00948364, -0.048551, 0.010330776, -0.022727745, -0.029282264, 0.032988854, -0.036298685, 0.01562404, -0.016978366, -0.019667283, 0.052881543, -0.0059919027, -0.04055226, 0.046210818, -0.029356988, -0.027998896, -0.03878569, -0.03788436, 0.04760283, 0.017541824, 0.024928758, 0.008346168, 0.0022871343, -0.046007756, 0.03150732, 0.005913382, 0.013072748, 0.017936254, 0.045099057, -0.015477925, -0.041849144, -0.019975059, -0.014487239, 0.027157733, 0.019148028, 0.031521305, 0.017820891, 0.00029372764, 0.008839089, -0.04552279, 0.048968505, -0.022957262, -0.026994763, 0.05195654, 0.0060286736, -0.009559579, -0.050204687, 0.053140737, -0.040338483, -0.024126882, -0.021427538, 0.03202523, 0.012762575, 0.04338641, 0.022879656, -0.03932536, 0.016174741, -0.021511598, -0.014849369, 0.019667625}, 
  {0.011558135, -0.023103219, -0.037587017, 0.023724074, -0.028989412, -0.03937914, 0.037019663, 0.050436247, 0.005153871, -0.034378517, 0.04939663, -0.04013741, -0.03757989, -0.020964146, -0.010775095, 0.013325866, 0.039355773, 0.0004098325, -0.0068571055, -0.025904976, -0.003602207, -0.022521684, 0.027034406, -0.027136015, 0.026720509, -0.018026175, -0.042294122, -0.04748517, -0.027413735, 0.046039693, 0.039047398, -0.010838876, -0.014664203, 0.025715342, 0.049235385, -0.031888798, 0.04535382, 0.022265434, 0.047062993, 0.04515094, -0.030428939, 0.02822155, 0.015091908, 0.041877273, -0.0243364, 0.003941403, 0.042471167, -0.033566732, 0.019580292, -0.0010902233, 0.034092914, -0.0006989217, 0.018187094, 0.0079875635, 0.0006990318, -0.02989236, 0.047179267, -0.023127122, -0.053104926, -0.023805978, 0.031806905, -0.041195244, -0.019050272, 0.014771077}, 
  {-0.032907926, -0.005308765, -0.03380662, -0.0035515442, 0.045553613, -0.050961506, -0.02400635, -0.029693596, 0.03925461, -0.00023861087, -0.018651787, -0.0047405376, -0.021534512, -0.028346306, 0.03385526, -0.017067244, 0.014882918, -0.004948777, 0.04433041, 0.0425278, -0.036904838, -0.048052534, -0.017658928, -0.038592245, 0.04160424, 0.0049095955, -0.0122610545, 0.041355938, 0.037732337, 0.022179166, -0.030528413, 0.012531911, -0.010115006, 0.017333213, 0.0023639826, -0.028451169, -0.029999513, -0.00968752, -0.00022760865, -0.035973147, 0.01590382, -0.018420726, -0.011472136, -0.02374021, 0.02416578, 0.040497676, 0.04901882, -0.043240838, -0.017245308, 0.049617354, -0.025865732, 0.031014921, 0.009154207, -0.05218994, -0.023693854, 0.023643848, -0.0014393716, -0.051074833, -0.010851673, 0.0437105, -0.03895031, -0.04017586, -0.03624375, 0.02817973}, 
  {0.049628507, -0.0054940227, -0.0021470028, -0.02013029, 0.051490765, 0.04050732, -0.012226955, -0.0050424607, 0.053598452, 0.032362998, 0.036666345, -0.008173354, -0.016383955, -0.0432712, 0.044102076, 0.031852085, -0.005642662, -0.03318349, -0.022101684, -0.03802214, -0.038056057, -0.016788369, 0.05474949, -0.029911485, -0.019993208, -0.036858935, 0.011305647, -0.007869519, 0.04120803, -0.017132437, -0.010073722, -0.02693925, -0.03921363, 0.009289479, -0.02921601, -0.038037017, -0.01420049, 0.01308874, 0.0068656993, -0.0071096, 0.01891847, 0.04270284, -0.04541162, 0.025228158, 0.051065452, -0.04078028, 0.040435478, -0.040798154, 0.029846916, -0.0026592256, -0.0028119553, -0.0049717748, 0.051178783, 0.017291041, -0.041921385, -0.010799366, -0.018890318, -0.041201204, 0.00996665, -0.015636392, 0.01179279, -0.032123834, -0.023085074, -0.040790733}, 
  {-0.007167021, -0.011144611, -0.043752387, 0.010426273, 0.011680051, -0.05197935, 0.028323084, 0.0525322, -0.01698693, 0.02203297, -0.030715056, 0.047788773, -0.026956555, 0.0140667735, 0.0020380795, -0.022621565, -0.024062322, 0.033069152, -0.0032667394, -0.016073374, 0.028571533, -0.014744968, -0.014379477, -0.039995115, 0.024078853, -0.026013592, -0.008283118, 0.019055136, -0.050219726, 0.004230991, -0.019483475, 0.041039996, 0.042303134, -0.051127177, 0.03206258, 0.038252823, 0.001424369, -0.039653543, 0.052350327, 0.030240767, 0.052901782, 0.0013953602, -0.031356234, -0.012313639, 0.01751682, -0.039309822, 0.018263504, 0.022297291, 0.0039805793, 0.021953143, -0.019188115, -0.03826826, 0.035915457, -0.05387474, -0.035467554, -0.03271053, 0.04608962, 0.049623594, -0.052169215, -0.01100445, 0.035898007, 0.04854143, -0.016140109, 0.010219042}, 
  {0.0509698, -0.035622455, -0.025734035, 0.008542914, 0.025669668, -0.030851627, 0.03771821, 0.004601136, 0.050621495, -0.015932415, 0.022787938, -0.024493238, -0.033953097, 0.04203354, -0.027065666, 0.013473883, 0.00092983985, -0.014584065, 0.024350977, 0.025983997, -0.047406312, 0.00058478926, -0.033567097, -0.011857625, -0.04490429, 0.010954427, 0.02863052, 0.0056597916, 0.024904741, -0.019479671, 0.0072883544, -0.051427104, -0.022448072, 0.03768138, 0.046680503, 0.027294086, -0.04450061, 0.015623057, -0.024867427, 0.008871845, -0.022727557, 0.00031156917, 0.044059608, -0.010969419, 0.013042553, -0.022629397, -0.00035723226, 0.048797157, 0.047458258, 0.015504279, -0.025277212, -0.05095568, 0.049128357, -0.0108451545, 0.0031293249, -0.006801291, 0.041931555, -0.026170006, 0.021904964, -0.006291045, 0.0062313606, 0.0028258543, -0.04427115, -0.023442289}, 
  {0.041164435, 0.052813064, 0.04960189, 0.0008811753, -0.003858024, -0.050482247, -0.037532263, -0.009411727, -0.002188548, -0.0024742105, 0.024370782, 0.016782396, 0.019009031, 0.0026104215, -0.008167216, 0.012738817, -0.053650577, 0.039102625, -0.037196048, -0.022915043, 0.010927925, -0.034712426, 0.008185443, 0.019479215, -0.050884377, 0.0013378186, -0.03602864, -0.033310965, -0.05024828, -0.029321074, 0.034216553, 0.04677037, -0.015590041, -0.024140509, 0.043880966, -0.0017548895, -0.010562309, -0.009502337, -0.024007933, -0.029322527, 0.007651253, 0.0056368965, -0.025907768, 0.013359769, 0.052231856, 0.040614814, 0.05481796, -0.0038139003, 0.028367884, -0.019148001, -0.0459358, -0.03856829, 0.002650144, -0.053762212, -0.003828798, 0.01762052, -0.048281368, -0.020748585, -0.05094777, 0.048716504, 0.039062057, 0.04709131, 0.025475027, 0.012336046}, 
  {0.045607384, 0.029619578, -0.040085465, -0.019832473, 0.033993717, -0.04487305, 0.012040381, 0.00014762528, 0.016014073, -0.03181264, -0.026125174, 0.052622866, -0.03406831, 0.02775819, 0.049171034, -0.0511199, -0.03580386, -0.03953534, 0.014356698, -0.049340777, -0.042823978, -0.042364247, -0.024659462, -0.028652089, 0.015558328, 0.026737478, -0.04102501, -0.04920522, 0.047660086, 0.0468229, 0.021711666, 0.033660527, -0.044828966, 0.011963139, 0.050525285, -0.0058184005, 0.044692896, 0.038094748, 0.031628497, 0.008957927, -0.03339592, 0.013473905, -0.03609868, -0.044125266, 0.0008604792, 0.048113246, 0.05317304, 0.045869213, -0.022379484, 0.027866421, 0.010703867, 0.008191159, -0.0362994, 0.03423899, 0.028285632, 0.019676832, 0.016418556, 0.040608622, -0.024557756, 0.03317152, 0.030892095, -0.0040295315, -0.033412416, 0.026147712}, 
  {0.041184403, -0.015544052, 0.04260016, 0.040563658, 0.028978381, 0.0061744344, -0.0064536105, 0.04603402, -0.04813911, 0.023976415, -0.023185568, 0.034416877, 0.017951308, 0.053734124, -0.007957761, -0.027569648, 0.016148107, -0.041806955, -0.027919471, 0.0049708253, 0.048594743, 0.035026405, -0.032670952, 0.04627621, 0.0022184516, -0.0380741, -0.038078826, 0.00179898, 0.023768727, 0.03151102, 0.013300299, 0.05020905, -0.04133201, 0.030340288, -0.04517541, -0.044821847, 0.045854483, -0.0033402601, -0.015350511, -0.037513595, 0.047300406, 0.022722257, 0.023885332, 0.030831458, 0.04854717, 0.012283914, 0.049992234, -0.035994273, 0.026964566, 0.010354177, 0.017141668, 0.022179581, -0.024030328, -0.004266165, -0.0108887665, 0.008709638, -0.01820168, -0.039874244, 0.0027871197, -0.0016847554, -0.019923948, 0.049123783, -0.0072044088, -0.030899173}, 
  {-0.0009487138, -0.05180335, -0.008767239, 0.034640227, 0.033289097, -0.03607512, 0.010073957, 0.010742256, -0.0354034, -0.03081824, -0.01892734, 0.04499197, -0.010186598, -0.047401004, -0.030387113, 0.04183802, -0.04729638, -0.024278348, -0.046039965, 0.039455134, 0.031954825, -0.009077273, 0.052309792, -0.036002845, -0.038303282, 0.009940511, -0.03340568, -0.038402546, -0.015936334, 0.034001127, -0.053901207, 0.025718985, 0.0063452558, -0.046939217, 0.024371969, -0.007988666, -0.03812356, -0.035964176, 0.018180573, -0.029237542, -0.023236774, 0.02934745, 0.015934637, 0.004250833, 0.039760206, -0.008188735, -0.0011390828, -0.014584419, 0.008179246, -0.03185772, -0.016369278, -0.02069855, -0.0019972827, -0.0022627176, -0.050017573, 0.028793814, -0.030595642, 0.0289503, 0.0010246887, -0.03662232, -0.025791219, 0.04438197, -0.027271423, 0.04093636}, 
  {-0.029924832, 0.049805507, -0.049505822, -0.020347808, 0.021938622, 0.042229515, -0.018604612, -0.049201414, -0.0070681977, -0.045684814, 0.041426964, -0.018743286, 0.00255426, 0.0232822, 0.010031609, 0.022056192, -0.012085167, -0.027626418, -0.030703014, -0.037953146, -0.013096651, 0.014501567, 0.0295296, 0.004375215, -0.007811822, 0.026765438, -0.00596059, -0.009041873, -0.007668611, 0.008127899, -0.016641648, -0.042083047, -0.013156115, 0.010697727, -0.011034988, 0.011397587, 0.04511827, 0.0013661083, -0.0042422633, 0.0337973, 0.034855515, -0.013520658, -0.03838558, 0.030747078, -0.02891453, 0.0076942267, 0.04432287, -0.0531343, 0.008719917, -0.025083791, -0.05065878, 0.026497046, -0.032939687, -0.03800394, 0.022346647, -0.027610086, -0.048571326, 0.031360116, 0.04127038, -0.019429823, -0.01346703, -0.046821088, -0.027408428, -0.001733011}, 
  {-0.0066682887, -0.02195297, 0.034765534, -0.034902744, -0.0054252925, -0.047874644, -0.050208483, 0.007246389, 0.0149808265, -0.012706589, -0.042706344, 0.0021327888, -0.015314474, -0.019017959, 0.022854978, -0.01607553, 0.022958802, -0.04672129, -0.043853264, 0.019296326, -0.0071476065, -0.020666277, -0.027002973, -0.04423041, -0.05172351, -0.034899015, 0.03459437, -0.023169436, -0.015116877, 0.0051427577, 0.021015745, 0.04134939, -0.0021722072, 0.049718108, 0.013649517, -0.01817173, -0.043496076, 0.026471097, 0.045614447, 0.03557323, -0.04791443, -0.023769733, -0.0031475534, -0.010326911, -0.031579144, -0.00053449534, 0.03604539, 0.025047053, 0.025701366, -0.03516867, -0.02606188, -0.036480762, -0.034826536, -0.029157065, 0.008950849, 0.030950593, -0.027608894, -0.012746576, -0.051071517, -0.04596134, -0.005768501, 0.0516713, -0.028328322, -0.046010148}, 
  {-0.02284303, -0.0021336447, -0.044412326, 0.023585575, 0.025857087, 0.043659415, 0.018707143, -0.042097446, -0.002387802, 3.0841988e-05, -0.016602473, 0.03226903, 0.043611534, 0.01994177, -0.0036681206, -0.004571958, 0.001154504, 0.008450553, 0.016776323, 0.010993812, -0.04955469, 0.028588254, -0.0069636884, 0.011601525, 0.051601116, 0.014322359, -0.041762732, 0.048747607, 0.003910861, 0.04635139, -0.034082394, 0.0053098444, 0.042488255, -0.047909595, -0.002397865, -0.017808367, 0.017327372, -0.03798836, -0.028696366, 0.014273127, -0.04144964, 0.043403883, -0.044728115, 0.0069054854, 0.04264639, -0.024922231, 0.050785404, 0.015691854, -0.0034557204, -0.03094973, -0.003665849, -0.031198211, 0.032744788, 0.04834583, -0.010250704, 0.006224961, -0.0031220012, -0.04188587, 0.03345826, 0.041086357, -0.035744812, 0.0080802245, -0.040672205, 0.012171602}, 
  {-0.024058454, -0.019458493, 0.032606717, -0.0044087553, -0.028130943, -0.03751747, 0.007104284, 0.029575966, -0.047151912, 0.043876924, 0.007319473, 0.03460889, 0.0046578497, -0.013160283, -0.04899373, 0.030535843, -0.020328533, -0.029414212, -0.041670024, 0.03661201, -0.0026582947, 0.043855023, -0.0038102537, 0.03941054, -0.03067322, -0.029745994, -0.039686184, 0.0125842, -0.01625958, -0.0016201714, -0.027475666, -0.04330082, 0.0055605643, 0.03286117, -0.041427687, -0.0049376427, -0.040757492, 0.013140275, 0.028673686, 0.038844973, -0.048809938, 0.022201637, 0.011540879, -0.009608267, 0.04097207, 0.0034560529, 0.0027219357, -0.016920827, 0.04083358, 0.0028646828, 0.009185936, 0.04518133, -0.02993011, 0.040619537, 0.017167259, -0.020804858, -0.0017970387, 0.029139591, -0.022418717, 0.007491626, 0.007345985, 0.03723269, 0.029126767, 0.005937451}, 
  {0.019366095, -0.049665626, 0.0007081656, 0.013827236, -0.03991216, 0.023871457, 0.03333026, 0.035844907, 0.039928876, -0.05251118, -0.013204259, -0.019073544, -0.007239855, 0.029955817, -0.037508, 0.032396276, -0.017485354, 0.014766464, 0.0025112766, 0.01434569, -0.043821897, 0.010977466, 0.011241914, -0.044066228, 0.0024714374, -0.05058077, -0.0065812944, -0.023140425, 0.04640704, -0.049766093, 0.019468112, 0.022384109, -0.026228808, 0.030836597, -0.048074406, 0.015962785, -0.022818947, 0.027036808, -0.012885342, -0.011086359, -0.05147024, 0.02727485, 0.00609974, -0.01738899, 0.00326764, -0.041428186, -0.02800324, 0.036393058, -0.044323992, 0.020018665, 0.038368966, -0.04137914, 0.023539068, 0.02686599, -0.04829431, 0.046108276, -0.035959676, -0.028983366, 0.020968579, 0.037475802, 0.028652165, -0.026638025, 0.0064143045, 0.010688504}, 
  {-0.030898403, 0.04564519, -0.015374297, 0.042773724, -0.011442323, 0.033567514, -0.04363685, -0.028198618, -0.02079827, -0.030463759, -0.0025323974, -0.053896997, 0.0052060583, 0.027116152, -0.04536512, 0.0011548832, 0.04854736, 0.008063879, -0.02168217, 0.03237076, -0.03525192, -0.008803016, 0.00041426893, -0.015230864, 0.048276097, 0.05332127, 0.007455282, -0.048662994, 0.01763113, 0.012733228, -0.05078162, 0.035762176, -0.031052843, -0.048813228, -0.036581125, -0.0036970945, 0.025487758, 0.038303442, 0.009450374, -0.019309565, 0.004025512, -0.0011902633, -0.000583275, 0.009825393, -0.036526434, -0.010755211, 0.0030130502, 0.048599765, 0.038550515, -0.02179049, -0.021963723, 0.0015153162, 0.050867252, -0.03456639, -0.024794396, 0.03464263, -0.024537291, 0.050298415, 0.007920258, 0.0053095794, 0.007419176, 0.00023051717, 0.01184053, -0.024349086}, 
  {-0.03646456, 0.04051769, -0.035435714, 0.017500293, 0.053472802, 0.028845388, -0.040046636, 0.024473954, -0.04321224, -0.041419577, 0.009928035, 0.04538246, 0.027187802, -0.049002416, -0.031045318, -0.043102257, -0.020055514, 0.027667599, 0.034989282, -0.0040688147, 0.0027905495, -0.03594767, -0.008432204, 0.026552767, -0.008893273, 6.562303e-05, 0.04743897, 0.023676103, -0.018048981, 0.016994495, -0.015952107, 0.05195824, 0.02182478, 0.0446245, 0.0032554304, 0.022591375, 0.001973553, -0.02130478, 0.0010017673, -0.028566808, -0.032885764, 0.015739128, -0.030657208, 0.04733527, 0.025663832, -0.030154478, 0.051057596, -0.020294344, -0.041124266, -0.040520728, 0.051823236, 0.040012963, -0.038540624, 0.038988814, -0.030765533, 0.003901742, -0.0139759015, -0.051989254, 0.03509776, 0.01657046, 0.016965479, -0.014708921, -0.013169006, 0.023612369}, 
  {0.025773678, -0.042749282, 0.03238572, 0.024023198, 0.027445914, 0.0011177878, 0.04411559, -0.048306715, -0.04736261, 0.01836779, 0.005191214, -0.022195995, -0.04542638, 0.002627745, -0.0063626603, -0.010240636, 0.011990866, -0.031327672, 0.049936626, -0.04887111, 0.028908923, 0.020914696, 0.025840012, -0.01089535, 0.015067229, -0.03643697, -0.03682868, -0.043035556, 0.0098116, 0.04244081, -0.017491667, -0.0033324475, -0.03156849, -0.013979716, 0.013912642, -0.034320965, -0.04074007, -0.021738628, -0.011570065, -0.026441272, 0.012985664, -0.018676996, -0.040484034, -0.026941068, 0.04989349, -0.015822632, -0.025454078, 0.038102854, -0.041491237, -0.049688105, 0.014398243, -0.019969085, -0.0101471245, 0.03312964, 0.015935939, 0.049668074, -0.04925575, -0.026749881, 0.046558455, -0.009396741, 0.004739225, 0.034012582, -0.0042822757, 0.020586789}, 
  {0.0050752796, 0.019131819, -0.014068098, -0.023813399, -0.022616206, -0.017019892, 0.04296766, -0.039357327, 0.04293305, -0.0032403313, 0.004899395, 0.013630762, 0.010467812, -0.014139255, 0.028368002, 0.030459585, -0.041209657, -0.0039154426, 0.017031282, 0.014069247, -0.023911603, 0.03597238, 0.050884686, 0.032410216, 0.024959983, -0.01283848, -0.026691014, -0.023421373, 0.0042857784, -0.0027213146, 0.00096275064, -0.034290295, -0.012359492, 0.03387438, 0.0025706175, -0.0496291, 0.0013400444, 0.04347483, 0.043251477, 0.036559884, -0.037036005, 0.007393078, -0.017541984, -0.053461142, 0.024021141, -0.027493797, -0.02535702, -0.04329137, 0.024947517, 0.052496426, -0.006542397, 0.039304785, -0.049085874, -0.022776242, -0.007712291, 0.024608476, -0.036111206, 0.04774108, 0.0036487482, 0.023370383, 0.034495354, 0.051328804, -0.029388633, 0.032799248}, 
  {-0.03307552, 0.00069678604, 0.023112277, 0.021029407, -0.03493828, -0.0102425385, -0.036669556, 0.01714238, -0.011739397, -0.018320499, -0.029604962, 0.026993936, -0.00568795, -0.046898242, 0.003184192, 0.025843203, -0.03474063, 0.0471005, -0.04374711, 0.0063773254, -0.016556075, 0.024358403, -0.032188557, -0.018717939, -0.013576131, -0.038786627, -0.006567371, 0.03599317, -0.0045852493, 0.012751066, 0.049558286, 0.021529216, -0.014826451, -0.011571395, 0.0016393989, -0.04219112, 0.006987795, 0.024565252, -0.029340805, 0.017396491, -0.036738735, 0.040513743, 0.018798321, -0.034913585, 0.006085678, 0.011142769, 0.03483561, -0.032463178, -0.024221884, -0.01163431, -0.019823179, -0.049799982, 0.003850527, 0.028813792, 0.03213709, -0.019969251, 0.017117184, -0.006561502, 0.042814072, 0.024987662, -0.051444598, -0.0052466486, 0.023038594, 0.008818575}, 
  {-0.013176878, 0.028923064, 0.039206047, 0.017301008, 0.012985492, 0.001154201, -0.049371492, 0.0025638205, 0.037203204, -0.03313771, 0.012656125, 0.021939911, -0.011529435, -0.02065898, 0.0046082963, 0.042188384, -0.013419559, -0.02129509, -0.02123736, -0.0061515686, 0.051142808, -0.04066308, -0.017658088, 0.017490596, -0.036774963, 0.020981807, 0.010195806, -0.003726435, -0.017768718, 0.04648578, -0.025737874, 0.04558913, 0.050519187, 0.02164291, -0.02981913, 0.052644446, -0.015400315, -0.023794156, -0.04952924, 0.003013073, 0.0043179686, -0.023515252, -0.00038568102, 0.00988108, 0.052501578, -0.03964276, -0.023469782, -0.0030882938, -0.027862076, 0.049750615, 0.048543848, 0.029771531, 0.037309363, -0.016347384, -0.030066455, -0.0073410613, -0.036933437, 0.026806964, 0.03268244, -0.015626509, -0.024084566, 0.01598598, 0.008551626, -0.0031305582}, 
  {0.05029754, 0.015758619, -0.0066719796, 0.03981937, -0.013732579, -0.017258225, 0.0111453505, -0.037326857, -0.041948147, -0.048640937, 0.037430048, 0.04342183, 0.017513346, 0.01563392, -0.030196492, 0.044085268, 0.009491208, 0.019289011, -0.018593203, -0.033139423, 0.011100353, -0.022693781, -0.00020750804, -0.0025720557, 0.006425637, -0.029242931, -0.040639322, -0.013950658, 0.041899025, -0.050098415, 0.017228357, 0.042169772, -0.046535473, 0.010947457, -0.015245965, 0.018456543, 0.006815666, 0.02233339, -0.0046562017, 0.025407135, -0.033598345, 0.006792435, 0.048985273, 0.009408419, 0.018940952, -0.043167524, 0.03513101, 0.019733427, -0.0010164878, -0.0041449703, -0.0071339607, -0.009443056, 0.028080737, 0.045436352, -0.01092571, 0.0056236405, -0.020907907, -0.02664596, 0.009226395, 0.015418678, -0.03671611, -0.023999074, -0.04963211, 0.010826614}, 
  {-0.030459594, -0.037858646, -0.051221706, -0.04529741, 0.021675212, -0.0055166744, -0.0040894314, -0.012178092, 0.041381508, -0.011849044, -0.040246543, 0.03385407, 0.0527992, 0.020326206, 0.02722294, 0.022136921, -0.003120891, 0.042040437, -0.014733274, -0.04659203, -0.046748273, -0.011473749, -0.05060315, 0.0044968314, -0.053161018, 0.030498505, -0.048216615, -0.024761187, 0.03609032, -0.011927851, -0.051101953, -0.030655239, -0.007963663, -0.047350366, 0.032253955, 0.0031798205, -0.02732559, 0.031546686, 0.038626198, -0.014769077, -0.0048519624, 0.02937101, -0.020873917, -0.042695962, -0.029620068, -0.026717784, 0.042073835, 0.044865694, -0.0166261, -0.028534776, 0.03507511, 0.03637431, 0.053319905, 0.002996434, -0.024543598, 0.032145344, -0.006438322, -0.025038434, -0.051376563, 0.03480236, -0.042256333, 0.051796403, -0.014388061, -0.024698745}, 
  {-0.008293938, 0.04904016, 0.02725693, 0.020744503, -0.0003950041, -0.030402977, -0.001080182, -0.052967846, 0.03082803, -0.016366169, -0.05062842, -0.050800554, -0.025196053, 0.040755782, -0.033775263, 0.04095068, -0.038993087, 0.04546954, 0.0044578705, -0.011567883, 0.029616667, 0.012999621, 0.032510545, -0.0154303145, 0.048489723, -0.03895318, 0.015652983, 0.021045664, 0.032470345, -0.043456413, 0.04836195, -0.0048353537, -0.040351298, 0.00096602883, -0.0029980582, 0.03265126, 0.0036620887, 0.049890205, 0.03792099, -0.039529156, -0.0032738226, 0.012590009, -0.049788628, 0.03875482, 0.03584525, 0.032512985, 0.013032079, -0.009629478, 0.0006164555, 0.029933637, -0.033651203, -0.0036879103, -0.0018003734, 0.03514545, -0.0016799516, -0.01972374, -0.03286856, 0.027324319, -0.027978161, -0.0060425643, -0.016466903, 0.021624919, 0.025611376, -0.032313667}, 
  {-0.039842628, -0.019170342, 0.034470532, 0.030014962, -0.04048099, -0.052773997, 0.0050133, 0.0040982007, 0.009536601, 0.01321483, -0.050046224, 0.02287352, 0.02589287, -0.036249723, -0.024584072, 0.015776549, -0.0036026274, -0.035892352, 0.023228351, -0.032269772, 0.02017114, 0.034002107, 0.0043364884, -0.03523217, 0.033562683, -0.034489688, 0.050536267, -0.0007765149, -0.0017002263, -0.03407038, 0.03229302, -0.032864787, 0.02860647, -0.02381839, -0.025288252, 0.024362592, -0.0056463443, -0.02628443, 0.009765682, -0.03747811, -0.028042024, -0.026656825, 0.03758901, -0.03909322, -0.031128705, -0.00568816, 0.033768967, -0.01599253, 0.032574803, -0.008715222, -0.0073798145, -0.009654482, -0.018607387, -0.020110548, 0.03304521, 0.012252333, 0.013320054, 0.044550322, 0.026995132, 0.030619657, 0.011580566, 0.03638665, -0.011133127, -0.025350388}, 
  {-0.049572185, 0.024630485, -0.015723398, 0.017948652, -0.011037322, 0.037553664, -0.014457003, 0.05219808, -0.040517118, -0.05184884, 0.032194108, -0.0042104395, 0.016821649, 0.04474605, -0.028584236, 0.046515767, -0.046080958, 0.045770343, 0.025614109, 0.013833647, 0.044920884, -0.010065437, -0.025252689, -0.030022543, -0.044368666, 0.04109074, 0.04187954, 0.0411538, -0.0014561174, 0.045161232, 0.04107348, 0.003636219, 0.051446263, -0.029970225, 0.005513881, 0.024380254, -0.025332829, -0.016934842, -0.038434137, -0.038106572, -0.033284556, 0.051423702, -0.05339524, 0.0012783033, 0.04578037, -0.008531739, 0.0008377097, 0.041247904, -0.039160904, -0.01725571, 0.028999414, -0.03394673, -0.047777627, 0.0077920575, 0.034103326, -0.040842783, 0.030981861, 0.042796377, -0.043890532, -0.0501112, 0.04289924, -0.0033482888, -0.014732385, 0.046470284}, 
  {0.04495828, -0.032873843, -0.018633662, 0.05208072, 0.025525942, -0.042337846, -0.008273564, 0.032675717, 0.04902793, 0.053061217, -0.017328147, -0.007246193, -0.031365693, -0.014173222, -0.0070840456, 0.042078853, -0.010399141, -0.038905088, 0.0051262067, -0.033625316, -0.032258667, -0.02204662, -0.010087008, -0.009924215, -0.009438353, 0.04208014, -0.010029504, -0.030553715, -0.008010176, 0.0027117971, -0.015366909, -0.04396727, 0.03499482, -0.039878815, 0.009925287, -0.022962924, 0.046932343, -0.02880579, 0.0052392203, -0.0230268, -0.040742822, -0.007978003, -0.0020196466, 0.026171423, -0.032883182, -0.04243406, -0.019432163, -0.008546877, 0.020777635, -0.031103304, 0.050981443, 0.009750524, 0.037790567, 0.0030515515, 0.039230343, -0.02444747, -0.02304671, -0.03874053, -0.043463163, 0.038765024, -0.014856395, 0.05168068, 0.010272356, -0.041135043}, 
  {-0.034277663, 0.044134986, -0.04544826, 0.04918527, -0.026514983, -0.02038044, 0.002349945, -0.051268414, -0.00017921906, 0.017585874, -0.045887034, 0.0410376, -0.036907654, -0.0030466611, 0.011623013, -0.023691874, -0.019424476, -0.03475345, -0.03728331, 0.04239756, 0.0014457915, -0.04269669, 0.024869604, -0.008433619, 0.041350577, -0.0069989855, 0.013971814, -0.0116230985, 0.044288848, -0.05088711, -0.005393174, -0.05331284, -0.018491536, 0.008435946, -0.034938604, 0.026422707, -0.0022866204, 0.0033180395, -0.047780026, -0.027608737, -0.0031218212, 0.029473908, 0.038568262, -0.024334935, 0.015099016, -0.031435844, 0.025341487, 0.023970786, 0.0052489457, 0.03888414, 0.043671392, 0.024292205, 0.018239712, 0.039088916, -0.009380643, -0.008979388, -0.0448554, 0.0030845888, -0.0020754451, 0.038710445, -0.028406147, -0.0008399801, 0.0014881516, -0.0043006525}, 
  {0.043264616, -0.033412177, -0.03993859, 0.0070425244, 0.030164368, -0.052892946, -0.0029056573, 0.017757889, 0.013070505, 0.022188896, -0.0056099296, 0.021733636, -0.025053026, 0.046819564, -0.024860937, -0.05458087, -0.022016475, -0.0315853, 0.0054445444, -0.037252214, 0.04001878, 0.015484423, 0.011011775, -0.013362652, -0.045578387, -0.015941428, -0.041647077, 0.038076714, 0.0493352, -0.02828268, 0.0103291795, 0.0484046, -0.004852403, 0.037502218, -0.015598049, 0.005224103, 0.026746938, -0.0087137185, -0.027600572, 0.036519796, 0.053547632, 0.0122091975, -0.034042448, 0.02799592, -0.021558123, -0.048934117, 0.011168741, -0.04436394, -0.04458121, -0.025438653, 0.03574438, 0.024428697, -0.01408073, -0.026926098, -0.0064320527, -0.0063999426, -0.03307972, -0.023040617, 0.03630469, 0.043981627, 0.0103054, -0.029068083, -0.03396206, 8.558711e-05}, 
  {0.0007245483, 0.035746496, 0.01579259, -0.0044239243, -0.025448779, 0.0062806825, -0.0241647, -0.015265098, -0.025345987, -0.017627167, 0.013824596, -0.0015681272, 0.032007925, -0.023854217, -0.029205333, -0.011506871, 0.04930263, 0.05437069, -0.049087953, -0.04742687, -0.0038376753, -0.036629103, -0.030668866, 0.025887713, -0.029472575, 0.032283064, -0.027107185, 0.00043071024, 0.0333257, 0.017794367, 0.04353963, 0.042012777, -0.044194043, 0.03541275, -0.00039077937, -0.031221969, -0.023216698, 0.015476157, 0.02774969, -0.037119728, -0.04831988, 0.027419386, 0.05052456, 0.033213645, -0.034945987, -0.045733746, 0.007865731, 0.0016739438, -0.013852599, 0.024340404, 0.010630326, -0.024192618, 0.0040118885, -0.008703078, 0.021549942, 0.0039802175, 0.04602597, -0.0036448704, 0.04376546, 0.045459617, -0.01382642, -0.0076811532, 0.015981274, -0.022545097}, 
  {0.007965983, -0.017729687, -0.03685863, -0.022464791, -0.03569266, -0.014702986, -0.019870345, 0.03618812, 0.014535663, -0.04021518, -0.01686606, -0.0003158313, 0.038526893, 0.049135745, 0.039352905, 0.041173134, 0.0152903395, -0.051774483, -0.023312705, -0.027515505, 0.0027737566, 0.032140873, 0.020035753, -0.018834846, -0.03321122, 0.032239962, 0.03874645, 0.04596385, -0.04610872, -0.017599825, 0.03705133, -0.023981787, 0.03452101, 0.038120646, -0.044954833, 0.027188972, 0.0014668846, -0.0045251176, -0.04881736, 0.0087266, -0.048974775, -0.017709607, 0.03816428, 0.011168991, -0.01837612, -0.006301832, -0.04671302, 0.043676853, -0.04652121, -0.017635513, 0.018488584, -0.0057795485, -0.012808672, 0.01713563, 0.05184282, 0.03681698, 0.029451348, 0.009303173, -0.0124076, 0.023826282, -0.01481802, -0.035208546, -0.0050418596, -0.0026407521}, 
  {-0.027549637, -0.016719261, -0.045924112, 0.012519718, 0.011660247, -0.032702602, 0.03600255, -0.03609152, -0.05078093, -0.017508538, 0.03337298, 0.001875379, 0.039074425, 0.032286976, -0.014319441, -0.039442353, -0.032008406, -0.013769663, 0.0008675028, 0.015421693, 0.01748869, -0.033413526, 0.04163812, -0.045851443, 0.018761149, 0.037009522, -0.039317172, -0.03590965, 0.049293876, 0.023643173, 0.018514141, 0.013128232, -0.009282858, -0.026371932, 0.0201282, -0.052150223, -0.023376778, -0.036123674, -0.029545337, 0.02620638, 0.009330815, 0.033641364, 0.042440392, -0.002628644, 0.033557374, 0.04900659, -0.011927834, 0.0018262143, 0.029428193, -0.011650516, -0.014752995, -0.010905946, 0.032862213, -0.014873846, 0.0062750946, 0.0028070603, 0.025623456, 0.0025032195, -0.043549325, 0.044978015, 0.026201125, -0.04238615, 0.03126044, -0.021824813}, 
  {0.03536362, 0.0068190037, -0.045783497, 0.04855157, 0.022945905, -0.0019444826, -0.040226825, -0.019338237, -0.011560816, 0.033545636, 0.0030126392, 0.0004343665, -0.012860315, -0.013098692, 0.048634816, 0.026834182, -0.03855186, -0.024965579, -0.00059479085, 0.01656885, -0.015333528, 0.015931064, 0.035650615, 0.020707948, 0.04450229, -0.040000547, 0.052561693, -0.04714213, -0.015012356, -0.011547754, -0.038315333, -0.035248652, -0.052860912, -0.053388324, 0.009443228, -0.031175708, -0.049381536, 0.009008068, -0.045170717, 0.018978419, 0.050792344, 0.05174328, 0.033769034, 0.032200463, 0.02684394, -0.027085513, 0.004526914, 0.051620994, 0.045212228, 0.020602763, 0.008685672, -0.039966732, -0.010378905, 0.014754586, -0.015402126, -0.0023809518, -0.032265276, -0.022927536, -0.015321352, -0.023626544, -0.013471661, -0.012410988, 0.026485477, 0.033925716}, 
  {0.011793726, -0.017960446, -0.0007819319, -0.017078936, 0.028299144, 0.024681611, 0.032139808, -0.027064186, -0.031110197, 0.016411912, 0.042143937, -0.012916653, -0.03473311, -0.011624447, 0.024958545, 0.03330743, 0.044891424, -0.025473116, -0.017089095, -0.033854272, -0.030112267, 0.01424184, 0.041494906, -0.012816245, 0.045390185, 0.05138223, -0.013696516, -0.013028509, -0.038867272, -0.011805693, 0.028705906, 0.044699777, -0.030604508, -0.025474101, -0.051306736, 0.038732532, 0.04937332, 0.017389944, 0.023986222, 0.025319243, -0.011553703, 0.028498758, -0.009193826, 0.020860508, -0.040428337, 0.051421624, -0.013684564, 0.025748791, 0.0014103603, -4.087899e-06, -0.022108313, -0.0006544048, -0.022882624, 0.009554219, 0.008137285, 0.007572776, -0.016518291, -0.010526173, -0.025663523, -0.008432634, 0.023491198, 0.023492286, 0.035118647, 0.04644717}, 
  {0.0038975787, 0.03527757, 0.03231951, -0.014625733, 0.03361433, 0.016634613, -0.018239204, -0.024085408, 0.028999792, 0.04177215, -0.044337913, 0.00838916, 0.017492048, 0.045702104, 0.037014406, -0.036562778, 0.013241625, 0.007317024, 0.027875274, 0.0024154664, 0.0073722443, 0.05318831, -0.049627572, -0.039547063, 0.03937589, 0.021238072, 0.026651995, -0.052307975, -0.034087714, 0.008547186, -0.05103259, -0.015183814, 0.041055087, -0.027719665, -0.015190011, -0.046799306, -0.030125752, 0.016529331, 0.0047751083, -0.00522381, 0.016998406, -0.049224168, 0.045224782, -0.0091791535, -0.018214446, 0.053448237, 0.018532798, -0.033016913, -0.03206141, 0.018620841, -0.053220186, 0.035504438, 0.038383193, -0.021963894, -0.024912179, 0.04869253, -0.045162756, 0.026941026, -0.033502035, -0.008219993, 0.036033783, -0.012296003, -0.027712317, -0.038398735}, 
  {0.0035752126, -0.0057070386, -0.03989177, -0.029707057, -0.027440485, -0.003114914, -0.050653476, 0.031779632, 0.05082286, 0.002030635, 0.046861004, -0.053202275, -0.049678463, -0.0076292595, 0.034368474, -0.029586287, -0.03061884, 0.037981037, 0.038944088, 0.009459538, -0.012972664, 0.014556433, 0.02528685, 0.007967363, -0.016417556, -0.012672955, 0.025385752, 0.024880124, -0.02505116, -0.012969321, -0.015272396, -0.0219629, -0.0025868155, -0.02562837, -0.017493075, -0.019634735, -0.0029183968, -0.011354612, 0.010404337, -0.021069553, -0.002404827, 0.040791966, -0.014697705, -0.03367913, 0.036808208, -0.019497558, -0.027386313, -0.04869408, 0.024845062, -0.049200725, 0.009570191, 0.024997603, 0.014723573, -0.029891433, -0.040223088, 0.03367027, -0.050855987, -0.005209342, 0.026996847, 0.0025635732, 0.044960044, -0.045508243, 0.009820236, -0.010559637}, 
  {-0.044062752, -0.010866864, -0.028264541, 0.012071889, 0.008767317, 0.01081211, -0.0043532876, 0.036883153, 0.021084357, -0.043797515, -0.036749016, 0.020851806, -0.011704341, 0.0025010763, 0.0013374529, -0.053907614, -0.029219415, 0.0038712258, -0.0023863814, -0.04119333, 0.015512921, 0.020083861, 0.043136083, 0.00014295234, -0.0066027604, 0.015930459, 0.04891591, 0.021354198, -0.04689896, -0.010853176, 0.038993992, 0.015034928, 0.05175005, 0.052413467, -0.04175908, -0.028398318, -0.044475283, -0.021602506, 0.026631834, -0.003290729, -0.013509677, -0.02225824, -0.0018201906, -0.02492348, -0.045773372, -0.045374017, 0.012384592, 0.020060398, -0.04260324, 0.0076230685, 0.0049512126, -0.046898887, -0.00038650032, 0.007424392, -0.03842421, -0.044446573, -0.010120865, 0.0027218517, 0.0053238138, -0.011913952, 0.023444008, 0.01650541, -0.028330633, 0.039621077}, 
  {0.0059949667, 0.019385133, 0.0055041327, 0.038047772, -0.011538282, -0.004345379, 0.027187325, -0.026093557, -0.028186478, -0.0139214285, 0.012141636, 0.028113969, -0.030425474, -0.05239976, -0.0072701545, 0.05098054, 0.005654777, 0.040041275, 0.040272724, -0.036199003, 0.0052304016, 0.011540493, 0.023562059, -0.031111503, -0.010680265, -0.020608738, 0.029952066, -0.027881322, 0.029601647, -0.029600224, 0.008091532, 0.03940623, 0.037851736, -0.046479847, -0.029036533, 0.021777108, -0.029144917, 7.372895e-05, -0.048220187, -0.043912042, 0.02626687, -0.042030048, 0.011865386, 0.030921012, -0.043110743, 0.037033226, -0.040494602, -0.04630841, 0.029461814, -0.032629255, -0.036286578, 0.03802916, 0.051399987, 0.043053005, 0.045920752, -0.037705988, -0.019537563, 0.04041999, -0.039252054, 0.0010570256, -0.020109799, -0.042440437, 0.041172225, -0.030653186}, 
  {0.036320902, -0.0017211625, -0.020975545, 0.046507515, 0.018666895, 0.01752673, -0.037055008, 0.013332402, 0.0408457, -0.014680669, 0.021188878, -0.015835932, -0.035186537, -0.0067297136, 0.032787893, 0.0065627615, -0.02774436, -0.044515286, -0.036638528, -0.028386468, 0.046096984, -0.00803949, 0.046999697, -0.022226807, -0.052601427, -0.0123515325, -0.04667401, 0.007945607, 0.02289898, -0.044992402, 0.031507052, 0.027264943, -0.024388881, -0.02434213, 0.050220355, 0.03732094, 0.0024226909, -0.031172544, -0.04837695, 0.02166952, -0.004165184, -0.024684723, -0.032472562, -0.021892745, -0.009787138, 0.012700444, 0.033458043, 0.04923157, -0.020852288, 0.05189667, -0.032710966, 0.023282897, 0.03581509, -0.011922408, -0.04498783, -0.037197962, 0.004665094, -0.040188465, 0.017078971, -0.028834805, -0.0069874986, 0.01058311, -0.04399776, 0.0007530728}, 
  {0.023884868, 0.00473891, -0.014654395, -0.0390844, 0.039070707, 0.040976938, -0.017502265, -0.025401495, 0.008218552, 0.017922075, 0.016110672, -0.005103393, 0.022107882, -0.0057437825, -0.029796718, 0.00082400424, -0.031298056, 0.03608701, -0.023796974, 0.039583288, 0.016842213, -0.019116933, -0.022414027, 0.0028511973, 0.050515044, -0.021324227, 0.049605463, 0.026410934, 0.0050033894, 0.0045578517, 0.04959358, 0.015903626, -0.022444088, 0.023638165, 0.016173216, -0.03351222, 0.02161769, 0.028621174, -0.026329828, -0.049523152, -0.004663811, -0.008660908, -0.04383222, 0.04352012, -0.0063308035, -0.038749572, -0.006050567, 0.041114397, 0.034734614, 0.018744778, -0.05194966, -0.034165904, 0.046866566, -0.03885203, -0.03568291, 0.0029978855, -0.0043936186, -0.024232715, 0.039197154, -0.028759819, -0.0057765455, 0.05226875, -0.03620494, -0.04037372}, 
  {-0.010674882, 0.0010942701, 0.012892217, 0.024376674, -0.015401675, -0.009704804, 0.019913958, -0.014088635, 0.046545174, -0.033011865, 0.0389123, -0.007204102, 0.037445184, -0.018342387, 0.0015027344, 0.037078373, 0.023151884, 0.0077337474, -0.04785438, 0.011469322, 0.0291899, -0.0020205602, 0.042986088, -0.014292813, -0.035665806, 0.051530447, 0.030366918, 0.032490086, 0.025510466, -0.024595132, -0.016685646, -0.0027481096, -0.0009381548, 0.019253528, -0.036768716, 0.051187966, -0.048869066, -0.022600774, 0.028787678, 0.024701541, -0.021175966, -0.037480835, 0.009127197, -0.051963072, -0.03860245, -0.03499881, 0.001122616, 0.025504518, -0.030549122, -0.03596307, 0.009307339, -0.04387505, 0.044614777, -0.0132789295, -0.017386131, 0.00982244, -0.0041431854, -0.022718944, -0.027683856, 0.052449085, 0.033152003, 0.0006077493, 0.00031854704, -0.021097723}, 
  {-0.032334376, -0.037451573, -0.031025985, -0.03999624, 0.029457735, 0.018054022, 0.042130545, -0.012257871, 0.0380073, -0.0058322446, 0.010855239, -0.011641954, 0.043430634, -0.047208507, 0.027899224, -0.029897792, 0.04229033, 0.03215359, 0.029673748, 0.011107479, 0.012508137, 0.016199624, -0.007208085, 0.0051606284, 0.026099773, 0.039897308, -0.046071835, 0.04336469, 0.029464446, 0.016808147, -0.041481394, 0.03026984, -0.0066823885, 0.007782669, -0.014404524, 0.050176166, 0.015756393, -0.0020431634, -0.04631984, -0.014067144, 0.04632417, -0.012128398, 0.051308807, -0.0024780657, -0.02663767, 0.03773537, 0.012938748, 0.048636843, 0.012934144, 0.040886074, 0.039706204, 0.042308155, -0.0092866635, 0.006023546, -0.013374253, -0.030120062, 0.017444741, 0.021551974, -0.049725965, 0.009518324, -0.04980234, -0.052382227, -0.04913887, 0.012710364}, 
  {0.013691472, 0.031483307, 0.006588877, 0.024297228, -0.036463957, -0.046453904, -0.048421398, 0.022968374, -0.04242217, -0.010823688, -0.0015140143, -0.0048433538, 0.042701904, 0.040707134, -0.04968776, 0.045071166, 0.052297655, 0.016819045, -0.02524387, -0.019847536, 0.042152245, -0.0005054682, 0.014912224, -0.050612852, 0.02995715, 0.03783301, -0.049937885, 0.046275843, -0.011044735, -0.028897932, 0.031413414, 0.023120727, -0.03812382, 0.021567311, 0.011285047, -0.018975047, 0.0349292, -0.023997437, -0.022054123, -0.023018748, -0.0073664626, -0.024017753, 0.035071537, -0.03365861, -0.046268065, -0.04805614, -0.031244777, 0.030717773, 0.0011573433, 0.040519156, 0.018882507, -0.005995342, -0.050291467, 0.017659683, 0.004700352, -0.05185411, -0.045915425, -0.025494605, 0.0025878, -0.028730292, 0.010029915, -0.0013915357, 0.019406328, 0.002097599}, 
  {-0.04830019, -0.052479636, 0.046254802, 0.015770683, 0.04706877, -0.008177308, -0.010176896, -0.04530065, -0.02762355, -0.0038092232, 0.042870317, 0.025592199, 0.025467789, 0.026760004, -0.013705521, 0.037358094, -0.00050158164, 0.029123494, 0.03612052, -0.04056306, -0.003265738, -0.010248869, -0.022493247, -0.008139122, 0.048386294, 0.031201052, 0.024162998, 0.027178908, 0.043891598, 0.041923728, 0.028532047, -0.0076358155, -0.004968207, -0.04125357, -0.037422825, 0.02703589, 0.03976287, 0.037974127, 0.006212598, -0.034008157, 0.035123333, 0.05108411, -0.024561457, -0.040797617, -0.021369105, -0.037291966, -0.01381728, -0.050909687, -0.040459175, -0.048359256, -0.028980166, 0.04290847, 0.008572405, -0.04043436, -0.024682742, -0.021292591, -0.048682123, -0.00873383, -0.011257137, 0.029188074, -0.0031674423, 0.028464586, -0.0041359914, -0.025748467}, 
  {-0.004556323, -0.01633651, -0.038511872, -0.040236212, 0.047474135, 0.0030031675, 0.0415649, -0.01660463, -0.00211065, -0.03911932, -0.030108292, -0.049656462, 0.010205921, -0.009138757, -0.032539416, 0.029388916, 0.034503255, 0.01289744, -0.01424609, -0.011912705, -0.020858202, 0.045609664, -0.020603385, 0.01016811, 0.045675393, 0.023038778, 0.027058052, 0.022595474, -0.0031643184, -0.040899165, 0.013997126, 0.0036019504, 0.020913567, 0.027992908, -0.046198532, 0.015402739, -0.0049318643, -0.023337157, 0.049505252, 0.04512822, -0.013405171, 0.009262947, 0.0026890682, -0.009293338, 0.036652904, -0.0147684235, -0.01640198, -0.05081228, 0.041975264, -0.052934896, 0.032819007, -0.028039735, -0.007202438, 0.013631908, -0.009257774, -0.040875714, -0.029424526, -0.04562903, 0.050329607, 0.04398078, -0.045471825, 0.041005757, 0.035534125, 0.042719632}, 
  {-0.019628325, -0.016594522, 0.028073072, -0.034773048, -0.00294986, 0.0018185134, -0.01451758, 0.040080488, 0.044993825, 0.0110605685, -0.020899225, -0.03238851, 0.03033787, -0.038974322, 0.008621514, -0.021058852, -0.02444853, -0.0036712782, 0.015921833, -0.020925615, -0.0057443813, -0.015074447, 0.049174003, -0.008477697, -0.021487746, 0.0139902355, -0.02390689, 0.014151046, -0.02159828, 0.036527112, 0.010023665, 0.010023002, -0.0143607315, 0.024773635, -0.038959097, -0.02476699, -0.028895808, -0.0056351745, -0.014518998, 0.03766325, 0.05020927, 0.045284916, -0.002777291, -0.010655972, -0.0370836, -3.5719215e-05, -0.009350307, -0.053953163, -0.03186876, 0.0046789367, -0.0006010696, -0.038734663, 0.015096253, 0.031196002, -0.02626729, 0.017944656, -0.004201111, 0.04841271, -0.037157565, -0.014705416, -0.020740606, -0.02664259, 0.05169818, -0.030021284}, 
  {0.033539735, -0.009630566, -0.044272155, -0.03433481, 0.0031452088, -0.053016204, -0.00825869, -0.032512512, -0.052931003, 0.03306859, 0.048802823, -0.0015518761, 0.0043145726, -0.02760679, -0.008758148, 0.0037331998, -0.045696706, -0.045377243, -0.049737155, -0.016774518, -0.013858397, 0.015601739, -0.020444721, 0.026333975, -0.027646013, 0.013455659, -0.020564873, -0.041308295, -0.0057501746, -0.051244397, 0.052333888, 0.04799583, -0.011412023, -0.031186884, 0.026585514, -0.00023621091, 0.009279814, 0.024567086, -0.005398681, 0.012550008, 0.037634395, -0.014877565, 0.032054547, -0.052708764, -0.029307403, 0.008591068, -0.041318547, -0.009275974, -0.004870589, 0.037697293, 0.0372029, -0.043720324, -0.03923861, 0.002131493, 0.026252888, -0.04997924, -0.028358681, 0.01564537, -0.033092864, 0.020163044, 0.020884844, -0.048917986, 0.05061767, -0.04503989}, 
  {-0.005420494, -0.027687542, -0.03838986, 0.050670806, -0.03787302, 0.03126476, -0.002165527, 0.0002939833, -0.015459713, -0.029826263, 0.032643594, 0.010037412, -0.010843292, -0.005424358, -0.021637958, -0.014233978, -0.0072018974, 0.02361229, -0.013532078, 0.03786198, 0.00048127564, -0.022221224, 0.046989214, 0.028277881, 0.04431711, 0.0020176522, -0.027480569, 0.03418453, -0.016590474, 0.033648606, 0.024162794, 0.04465568, -0.010470455, 0.00817898, -0.004424674, 0.011544085, -0.00044307433, -0.03208672, 0.0079990765, 0.026655288, 0.0074119926, 0.03161619, 0.031511378, -0.031401698, 0.03826316, -0.045696326, 0.029228235, -0.031254284, 0.054618735, 0.029284257, -0.0157044, 0.0093231015, 0.037031986, -0.021218931, 0.0031296336, 0.0017390708, -0.005049418, -0.021440106, -0.04265839, -0.026432347, 0.036420695, -0.05236473, 0.045683477, -0.038159303}, 
  {-0.01456912, -0.001609025, 0.0028369026, 0.041886777, 0.013518461, -0.041470714, -0.003907957, 0.028134005, 0.022780584, -0.006071289, 0.04516286, -0.01232368, -0.031031635, 0.048980378, 0.028440023, 0.04996553, 0.004639422, -0.0023382583, 0.04151376, 0.02347445, -0.016259264, 0.0026349963, 0.036536865, 0.018003754, 0.026211746, -0.019748254, 0.0013565695, -0.019173257, 0.00047183564, -0.052722298, -0.036021836, -0.019634675, -0.023855949, 0.022468336, -0.031594105, 0.006950034, -0.008310382, -0.037367024, -0.051701654, 0.020463005, 0.021820748, 0.047350522, 0.043243673, 0.010505643, 0.015219792, -0.005768168, -0.017135546, -0.05239263, 0.05216049, -0.046017144, -0.013350674, -0.0041842517, -0.019776072, 0.013406671, -0.051395386, -0.012693103, 0.024376549, -0.04803948, 0.045765795, 0.008021335, 0.022563292, 0.0073931864, 0.0264731, -0.011929117}, 
  {0.017628195, -0.012612842, -0.03738767, -0.035136227, -0.04924453, 0.02012357, 0.040203378, -0.044097632, 0.04284751, 0.045030948, -0.006057696, -0.008597339, -0.05000906, -0.041103113, -0.040355235, 0.0051119793, -0.019504251, -0.01444637, 0.014832084, 0.03196607, -0.036074404, 0.0070505706, 0.019829415, -0.0018492095, 0.045680605, 0.011559349, 0.004801728, -0.018871326, -0.0502761, -0.009596692, 0.048255336, 0.035159837, 0.04554992, 0.028553482, 0.033543408, -0.021154378, -0.02579132, -0.019494286, -0.031053837, 0.006459476, 0.026506478, -0.04224844, -0.046053227, -0.024046669, -0.009904398, -0.046588928, 0.029092459, 0.04123907, 0.006967736, 0.03420385, 0.016865088, 0.03779336, -0.044667896, 0.018396134, 0.009290904, 0.017708533, -0.027013805, 0.04031444, 0.0056074294, -0.04056906, -0.0075160656, -0.017504156, -0.051570926, 0.029522208}, 
  {0.0068309424, 0.03202902, -0.0058747297, 0.024224004, 0.02203724, 0.042041074, -0.016290529, -0.028142061, 0.05416488, 0.045029726, -0.050545864, -0.0011165495, -0.04062552, 0.009222191, -0.009485831, -0.029860055, 0.006475601, -0.03216685, -0.0386576, 0.03754529, 0.0042780256, 0.045428906, -0.02605723, -0.033678617, -0.049817245, 0.0015203789, -0.045347147, 0.012443236, 0.022768166, 0.011330397, 0.032173954, -0.041572675, -0.05130706, 0.011344589, -0.008935181, -0.04230418, 0.03717907, -0.05379207, -0.0031175818, 0.016766155, 0.0063298545, 0.005675203, 0.02798957, 0.012612687, 0.03219775, -0.04070167, 0.046577886, 0.051363252, 0.0036846355, 0.049240526, 0.0385871, -0.0014381141, 0.05416791, -0.008420712, -0.021223549, 0.0015391937, -0.025641307, -0.0009678649, -0.008398554, -0.032096427, -0.0423309, -0.04980224, 0.03988783, 0.01378954}, 
  {-0.029406702, -0.008771612, -0.023486527, -0.023226155, -0.03092903, -0.035771765, -0.016410446, 0.03227457, 0.013270282, 0.023548214, -0.02032722, 0.024396002, 0.019555157, -0.014783651, 0.034380447, 0.029113593, 0.00926627, -0.007466873, 0.0031578715, 0.035534397, -0.05163387, 0.045345526, 0.004425464, -0.028203685, -0.025353229, -0.04037181, 0.021426946, 0.019209482, 0.0048297965, 0.024220861, -0.006500774, 0.01091044, 0.021131996, 0.051668346, -0.03907671, 0.044489212, -0.0057947794, -0.0515499, 0.046465207, -0.02699479, 0.013415055, 0.02894139, -0.035566777, 0.0060702325, -0.015497341, 0.045552038, 0.009891423, -0.000372504, -0.0076654516, -0.023537178, 0.011126229, 0.014589228, -0.01520834, -0.03334351, 0.04189347, -0.0040186015, -0.051717225, -0.0019576594, 0.032046266, -0.04537276, 0.04040106, 0.042346332, -0.001870256, -0.012661321}, 
  {0.0075997976, 0.040237285, -0.029249273, 0.013237998, 0.021333102, -0.052824996, -0.032571565, 0.04052134, 0.008615515, -0.035141293, 0.033877607, -0.021427684, -0.052815586, 0.04668214, -0.010654906, -0.05088182, 0.0223145, 0.00824109, -0.042005725, 0.032912087, -0.040384524, 0.026508182, -0.0048373914, 0.04977969, 0.018479317, -0.011454822, -0.043150827, 0.026643567, 0.002314399, 0.036184385, 0.0039842557, -0.011235088, -0.0467021, -0.017684996, 0.035112604, 0.018791921, 0.044599745, 0.022772836, 0.023572942, -0.04547433, -0.04367232, -0.025496965, -0.036086705, 0.041722514, -0.00068620685, -0.01989067, -0.013628561, -0.040589247, 0.0014911313, -0.0411541, 0.029228752, 0.04246481, 0.01697542, -0.016907055, -0.02678387, 0.00041882708, 0.04156948, -0.01956145, -0.017463574, 0.024760587, -0.013996737, 0.009257717, 0.042350676, 0.00846218}, 
  {-0.046319257, 0.020108715, -0.012227886, 0.04463251, 0.019454962, -0.008556954, 0.04185896, 0.037701346, -0.015405999, -0.0161196, -0.045701765, 0.002123874, 0.017832365, -0.012962316, 0.022920614, -0.032129306, 0.03857417, 0.023385976, 0.0059678145, -0.027983267, -0.013871304, 0.03763421, 0.047807604, -0.017092647, 0.017217355, 0.0064856373, -0.011833788, 0.032938395, 0.03956091, -0.013158332, 0.050945017, -0.031757426, 0.030828191, 0.05354498, -0.023365607, 0.007958153, 0.04793633, -0.010506536, -0.047232166, 0.027977943, 0.046436246, 0.017479736, -0.039282773, -0.0035615277, -0.011965677, -0.0115969125, -0.042460743, 0.013212039, 0.0031797711, -0.023236742, -0.050901085, 0.037482977, 0.0023293754, 0.022242624, -0.03300906, 0.02823006, 0.02425314, 0.025516324, 0.039766498, 0.030979395, -0.041254867, -0.021623518, 0.014120391, -0.043002486}, 
  {-0.02059452, 0.034720775, -0.022116343, -0.0065064467, 0.03144371, 0.006138098, -0.014839106, -0.04108557, 0.015453545, -0.0036667525, -0.044066213, -0.049849834, -0.050660163, 0.023749897, 0.0072017154, 0.020325007, -0.03577798, 0.025153888, -5.13483e-05, -0.03654721, 0.0053147525, 0.02684009, -0.033616297, -0.033621717, 0.0059741293, -0.022134857, -0.017079791, 0.046526443, -0.005902367, 0.020517277, 0.04758178, -0.041096058, 0.032999337, 0.0119418185, 0.031966902, -0.010071944, 0.04176702, -0.05533217, -0.040850617, 0.0027595826, -0.040942423, -0.037124213, -0.027659196, 0.03191111, 0.04909718, -0.016455159, 0.020277314, -0.022960551, 0.0026923195, -0.028362887, 0.040580332, 0.00444764, -0.0443148, 0.033397358, 0.0047039464, -0.021038737, 0.033817336, -0.0078024934, 0.0032826404, -0.043100595, 0.037376255, 0.03408774, -0.007177802, -0.039495464}, 
  {-0.040208455, -0.0017612863, 0.048914466, 0.018549211, 0.0033053313, -0.010909849, -0.031809505, -0.017984392, -0.0011242239, 0.014203623, 0.013179029, 0.028898736, 0.0010467547, -0.048465833, -0.044046447, -0.023696937, -0.04408612, 0.04944271, 0.02774741, 0.012664521, -0.030661304, 0.05228773, -0.004561634, 0.013278369, -0.03766472, -0.030218769, 0.006496763, -0.043767422, 0.047080275, -0.002981893, -0.012157942, 0.009972982, -0.030290246, -0.018589495, -0.021455677, 0.046451665, 0.00026367605, -0.020986922, 0.033489577, -0.04011264, 0.023948947, 0.020745484, 0.04887941, -0.033623185, -0.046164837, -0.052604973, -0.052354738, 0.0111756185, -0.003811127, 0.018274367, -0.012324328, 0.008724771, -0.022496417, 0.00891524, -0.015881473, -0.019816319, -0.035926227, -0.051441934, -0.038237363, 0.041108184, 0.046925228, 0.028094335, 0.052118387, -0.034242764}, 
  {-0.014742169, -0.032709397, 0.0078839, 0.02928378, -0.011465947, -0.0065829502, -0.050933957, 0.019691143, 0.041582108, 0.02979318, 0.0521333, 0.013658013, -0.01598352, -0.025911245, 0.0003281315, -0.031331517, -0.036620278, 0.0075507434, 0.019171499, 0.037302483, -0.018815849, 0.011992305, 0.024764022, -0.033389326, -0.0363753, 0.0409495, 0.029054675, -0.004469408, -0.00532482, 0.008144472, 0.02744572, -0.041639514, 0.03950715, -0.014718121, 0.033636164, 0.048462614, -0.008771206, 0.037445806, -0.034176745, -0.029624106, 0.03404124, -0.009589258, -0.052720875, 0.00531539, 0.023444626, 0.039106518, -0.04667812, -0.053037662, 0.04751905, -0.0072761364, 0.014771663, -0.014238605, 0.012654071, 0.051267106, -0.008865942, -0.03751435, -0.052772526, -0.045210686, 0.019370975, -0.004188757, -0.0011115088, -0.047440235, -0.028082969, -0.048034485}, 
  {-0.010403365, -0.015870566, 0.015542738, -0.029682511, 0.0066497065, 0.015226781, 0.0019454816, -0.02767866, -0.027475744, 0.0061356844, -0.041542646, -0.035326723, 0.02310957, 9.5317424e-05, 0.017007863, 0.0030375037, -0.0045252573, 0.048757147, -0.034661457, -0.021497974, -0.015446279, 0.04841283, 0.00212669, 0.015526477, -0.043466616, -0.042203467, -0.045288246, 0.053325765, 0.022557862, -0.020724835, -0.009525353, 0.020645184, -0.040079355, -0.03148204, 0.0060930005, -0.025835833, -0.017692922, -0.023753274, -0.028574638, -0.012022451, 0.047736604, -0.049908306, -0.027995495, -0.018379131, 0.0018687509, 0.017454002, -0.031149466, -0.047127035, 0.022376586, -0.010334017, -0.036823325, 0.028035333, -0.014901376, 0.008784738, 0.0043281377, 0.0104630515, -0.048963033, 0.053993378, -0.029730711, 0.034055453, -0.0064908955, -0.03805437, -0.037868895, 0.03781591}, 
  {-0.026574433, -0.035853088, 0.03335798, 0.032978, 0.050219998, 0.040191445, 0.022215225, 0.027100926, -0.005372473, -0.011167881, -0.047721963, -0.048793346, 0.02344125, -0.018448204, 0.0008837735, -0.043510586, -0.020192118, -0.02944403, -0.04588226, 0.031361982, -0.03978602, 0.036119957, 0.0010366961, 0.021712925, -0.020460349, -0.01456484, 0.050447464, -0.030881032, -0.032943968, -0.046096526, -0.034581166, 0.012494025, 0.007808965, -0.040672448, 0.048114445, -0.0034184796, -0.0033870263, -0.006668913, 0.0368042, -0.049131267, -0.030269822, 0.036412533, -0.019402089, 0.029717408, -0.043344796, 0.012617276, 0.01319225, -0.026925536, -0.045283124, -0.006718965, 0.018749155, 0.0003378488, 0.0298509, 0.044466827, 0.03231743, -0.041537296, 0.0064373496, -0.039011803, 0.0028267698, -0.04295822, -0.01211117, -0.041801464, -0.00067746936, -0.04201988}, 
  {0.0024309081, -0.026718304, 0.033062294, -0.049952965, -0.013763383, -0.0020525097, -0.047393974, -0.008380336, -0.00708861, 0.011885403, -0.006365368, 0.014299801, 0.02113916, 0.0039259694, -0.043822423, 0.0013402061, 0.051147074, -0.03632007, 0.014109638, -0.022075547, -0.031102454, 0.028409122, -0.029864842, 0.02820212, -0.018404387, -0.040683437, -0.040063363, 0.03825035, 0.025737306, -0.009580844, -0.0396045, -0.025208713, 0.028082266, 0.042594787, -0.037617117, 0.03355838, 0.016762007, 0.033215716, 0.0252705, 0.033657175, 0.0055361865, -0.009276012, -0.0057851444, 0.053114984, -0.013484734, 0.029364485, 0.03557134, 0.00637144, 0.020861331, 0.04556505, -0.020140415, -0.05205083, -0.03618883, -0.02145897, 0.04069143, -0.048328917, -0.039624132, 0.04435105, -0.025629349, -0.048913762, -0.023000317, -0.049893104, -0.037401818, -0.028965851}, 
  {-0.03277497, -0.05303713, 0.011936706, 0.009176014, -0.007952808, 0.02667781, 0.013954078, 0.036108166, -0.04476977, -0.006578074, 0.003787596, -0.0029670363, -0.045000132, 0.022757512, 0.030689646, -0.033654112, 0.0031059769, -0.032405496, 0.034512796, -0.035300367, -0.01748864, 0.011220521, 0.042323936, 0.036895473, -0.034981493, 0.032856222, -0.01884119, -0.017565085, 0.039829608, -0.029952198, -0.03261325, -0.027628012, -0.006907433, -0.018449182, 0.0044803265, 0.015427145, 0.017810002, -0.020055328, 0.010898083, 0.052441154, -0.016805053, 0.0031890874, 0.020910526, -0.04096645, -0.044435877, 0.038873, 0.037611682, 0.043421425, -0.051887814, -0.02026731, 0.025448015, -0.03900172, 0.0061580767, 0.021284021, 0.051025208, 0.006029907, 0.00569292, -0.017281199, 0.02117473, 0.040666085, 0.015551702, -0.02120248, -0.049974486, 0.030043418}, 
  {0.0022176444, 0.006774428, -0.01293465, 0.018923631, -0.017336452, 0.026885485, -0.046347976, 0.020469865, 0.045856353, -0.04126073, -0.02168397, 0.042992234, 0.0062526925, 0.0034932822, 0.015119238, 0.011315831, 0.052099735, 0.00756352, 0.03039679, 0.02964729, 0.02744175, 0.0011693721, 0.052892003, -0.036144786, -0.032270882, 0.034928214, -0.009419424, 0.023803337, 0.027898148, -0.0438038, 0.020791061, -0.0027220603, 0.01772896, -0.029158065, 0.027538124, -0.010144816, 0.042884998, -0.0427805, -0.009249098, 0.039120194, -0.0001440909, -0.00045316553, 0.0009473024, 0.0021130173, 0.030437833, 0.0052767466, 0.01032258, 0.0029426564, 0.03183862, 0.037957914, -0.026216634, -0.042197857, 0.03173587, -0.048245914, 0.04821951, -0.020539105, 0.048768356, -0.03924668, 0.043511335, 0.0065437984, 0.025863893, 0.029748468, 0.033088602, 0.05083425}, 
  {0.029358797, 0.050681114, -0.050953854, 0.025511412, 0.02826212, 0.036826976, 0.020660304, -0.015392495, -0.020458065, -0.0013652017, -0.043241236, -0.024860675, 0.0121987285, -0.016001258, 0.0055637066, -0.031608503, -0.045458253, -0.02249911, 0.007831681, -0.049168926, 0.0019714753, 0.038333926, -0.0014250492, -0.046658058, -0.018482426, -0.00032703104, -0.025758475, -0.03163328, -0.03375333, 0.00066683785, 0.04454361, -0.04134258, -0.046512283, -0.022977535, -0.02247226, 0.0117710745, -0.032020174, 0.04852378, 0.04476599, -0.021275962, 0.0340332, 0.022708321, -0.0026008135, -0.053059384, 0.016731398, -0.040111504, 0.001627974, 0.004950264, -0.04999117, 0.010489897, 0.010805212, 0.016474111, 0.027738288, -0.05306536, -0.03472593, 0.030417621, 0.040523604, 0.040090993, -0.008303737, -0.0018762856, -0.009146328, 0.017566884, 0.01521991, 0.042637512}, 
  {0.013735025, 0.017801018, 0.027997661, 0.049984332, 0.025713352, 0.017318863, -0.0046727764, 0.018106492, 0.041092128, 0.029928565, -0.046390764, 0.013691635, 0.0006649009, 0.0036767088, -0.002536368, 0.02081791, -0.030577224, -0.03198233, 0.015668906, 0.041896235, 0.038608626, -0.0024649734, 0.019171603, 0.04506097, 0.03624762, 0.020083057, 0.016668264, -0.00042897716, -0.00084146316, -0.01365801, -0.026314372, 0.048173837, -0.030460853, -0.02070826, 0.02069586, 0.022243645, 0.03326491, -0.0035950546, 0.0008640061, 0.041410338, -0.024979444, -0.023596358, 0.0045383, 0.05325442, -0.0045446875, 0.027835477, 0.040865313, -0.021892905, 0.038789727, 0.02027292, 0.005354756, -0.00016159374, -0.040284194, 0.043972936, 0.008132289, -0.051466715, 0.050419424, 0.039449383, 0.04688283, -0.039102804, -0.025371516, 0.023744501, -0.000672766, 0.045263167}, 
  {-0.011488574, 0.037569918, -0.015647503, 0.005169895, -0.04735569, 0.030261, -0.024280952, 0.0364638, 0.0021576018, -0.030015847, -0.007189164, -0.0063564107, 0.041247316, 0.05036164, -0.04475087, -0.0010392135, 0.024056453, 0.03323866, -0.04900475, 0.047232397, 0.016884157, -0.023760624, 0.019418556, -0.044628385, -0.037895665, -0.015375861, -0.030966466, -0.028744021, -0.009833192, 0.0055009667, -0.04453865, -0.0137761235, 0.015316178, -0.024683045, -0.039258823, 0.052319203, 0.039046273, 0.0055306028, -0.053947665, 0.017166797, -0.02531906, -0.024041144, 0.038503267, 0.031510755, 0.025601374, -0.018228682, -0.029798256, 0.014681102, -0.049774896, -0.036883853, -0.0045097168, -0.04346874, 0.037001472, -0.022861093, -0.023990862, -0.006484066, 0.008540817, 0.0025758534, -0.04167426, 0.040099554, -0.031293977, -0.04981601, 0.021014242, 0.04356318}, 
  {-0.0021402738, 0.026337665, -0.025100414, 0.00080469204, 0.020253668, 0.0050788135, -0.038067766, -0.0021078514, -0.023145823, 0.050357267, 0.0076955426, 0.03884242, 0.026988253, 0.0071668033, -0.015666008, 0.03813568, -0.011514546, 0.007902319, -0.022726534, 0.007570572, -0.0004045898, -0.052606806, 0.009682987, 0.018689897, -0.034929067, -0.039705317, -0.041713245, -0.0208867, 0.03271245, 0.0025897168, -0.030529529, -0.021889243, 0.017473003, 0.002459224, -0.018380411, -0.027391434, -0.03945409, 0.027434383, 0.006023794, 0.017270902, 0.0036775635, -0.0124638425, 0.0040760157, -0.022517584, 0.010308227, -0.048704837, 0.048606914, -0.046455774, -0.045803502, -0.03955431, -0.043156043, 0.022586126, 0.00373882, 0.022418134, -0.04682394, 0.049208853, -0.021995688, 0.02770059, 0.01986606, 0.013550821, 0.05035149, 0.0048618815, -0.0057372, 0.041985653}, 
  {-0.051671304, 0.03775333, 0.028452093, 0.033684704, -0.027696954, 0.007297598, -0.035955787, 0.032472927, 0.01165569, -0.045002047, 0.03755565, -0.041035134, 0.012964797, 0.012361531, -0.04573189, 0.0011569131, -0.023059396, -0.048678692, -0.043412343, -0.028041132, -0.038822133, 0.03980391, 0.010696873, 0.0067573064, 0.024818888, 0.018547548, -0.051225152, 0.008278971, -0.045593526, 0.04986766, -0.05333107, -0.0037335965, -0.010874868, 0.008384028, -0.04178607, 0.021707531, 0.0022419144, -0.047959834, -0.033350956, -0.016604472, -0.027808707, 0.010003398, 0.045931347, -0.025275104, 0.0045756516, -0.014029467, -0.02961528, -0.01926226, 0.02825781, -0.0471167, 0.022236021, -0.0022527676, -0.0065929214, 0.03549583, -0.043598276, -0.034570206, 0.034245946, 0.037478983, 0.04197086, -0.03647376, -0.032443512, -0.019951208, -0.014409406, -0.041710917}, 
  {0.04289382, 0.017358374, -0.017294526, -0.017945446, 0.015844444, 0.0059237485, 0.0064817714, 0.027483564, 0.0052490537, -0.02739364, -0.036783896, 0.034469917, 0.029355066, 0.05070107, -0.046129335, 0.028669927, -0.027938932, -0.03221328, 0.021684522, -0.016618652, 0.020017907, 0.0056817783, -0.016897276, -0.0020137636, -0.035513073, 0.027262202, -0.033423625, 0.013959414, 0.030972801, -0.034795843, -0.014421133, -0.026358016, -0.03171951, -0.03285831, -0.039738614, -0.03958298, 0.03871315, -0.01975598, 0.008904307, -0.040650606, 0.039166026, -0.009443248, -0.0155654615, -0.046373844, -0.030251272, -0.011571973, 0.02224331, -0.00869431, -0.03725915, -0.035401534, -0.015789814, -0.050769817, -0.030058082, -0.041830268, 0.0052282084, -0.005532429, 0.009627964, -0.0059757866, 0.014051279, 0.036490317, -0.041361813, 0.022311551, -0.045003667, -0.008136352}, 
  {0.011223074, -0.010734172, 0.04141208, 0.025831947, -0.022387827, -0.04680095, 0.008259656, -0.03960912, 0.006767562, 0.047477152, -0.040820293, -0.020193493, -0.025699658, 0.0005240335, 0.0088651795, -0.042480715, 0.027984336, -0.01301471, -0.025454992, 0.0062131053, -0.030840483, 0.0025494304, -0.034554634, 0.021839125, -0.028973835, -0.052884, 0.021777377, 0.012705682, -0.016218625, 0.0015230748, 0.035336833, -0.009473718, -0.002010818, 0.017681643, -0.025955964, -0.03856263, 0.022403328, -0.036600277, 0.023446424, -0.036891557, -0.05184799, -0.00798649, 0.030903207, 0.038806956, -0.008468421, -0.020040555, 0.03767305, 0.010848256, -0.015759109, -0.04620036, 0.0030283106, 0.0438128, 0.027224964, 0.00037176654, -0.0028761611, -0.0100702215, 0.019266056, 0.020488935, -0.02119594, 0.016902508, -0.028547902, -0.052700356, -0.028872542, -0.029337417}, 
  {0.049196865, 0.025997825, -0.007955475, 0.020717539, 0.05150113, -0.027965479, -0.019658254, -0.03364512, 0.046027277, -0.004491859, 0.017426899, 0.047717955, 0.015250201, -0.047524173, -0.029830053, 0.031179957, 0.052116726, -0.050786763, -0.01870911, 0.030399198, 0.0109058935, -0.034088235, 0.010780902, -0.0497441, -0.03446598, 0.020561231, -0.029455898, 0.049172517, 0.050598923, 0.046497274, -0.04384243, 0.050745316, 0.05190231, 0.04729761, 0.032973893, 0.04217808, -0.027688725, -0.015763568, -0.011570121, -0.027475176, -0.015474732, 0.0019685032, -0.022342041, -0.03938764, 0.03835053, 0.042647388, -0.02490705, -0.036053993, 0.03236381, 0.050629366, 0.01943414, -0.026246702, -0.03748073, 0.042890914, -0.0017287198, 0.011446081, -0.037495513, 0.045951717, -0.042067684, -0.044898514, 0.007975866, 0.030437928, -0.027444841, -0.050224844}, 
  {0.002517811, -0.04322072, 5.2558767e-05, 0.028300142, 0.038351502, 0.02363061, 0.013410884, 0.047873862, 0.050435822, 0.0050036614, -0.02110115, -0.0033972114, 0.032632418, -0.04941367, 0.015503242, -0.030528517, -0.042070918, -0.04064589, 0.05004287, 0.05000642, 0.044395577, -0.018172808, -0.024793915, -0.04400671, -0.032473933, 0.0145938145, 0.02335799, 0.041045506, 0.049629264, 0.04258943, -0.048887476, -0.050162487, -0.029680993, 0.03583402, -0.013558291, 0.0051563326, 0.027019883, -0.016871257, -0.037529357, 0.049828816, 0.008990375, 0.04989939, 0.023890274, 0.0036596477, 0.0314512, 0.010373651, -0.0020045824, 0.04482829, -0.045177627, -0.023803163, -0.047870945, 0.032432895, 0.0011786763, -0.039599366, 0.019832686, 0.008328436, 0.0010543262, -0.008035029, 0.043874245, -0.010431506, -0.02294485, -0.019302508, 0.03600247, -0.017389651}, 
  {-0.009119188, 0.005383572, -0.03217337, 0.0062169787, 0.020122783, 0.03764685, 0.034659553, 0.00047373163, -0.023008661, -0.052094616, 0.046480417, 0.019810103, -0.007501268, -0.007702174, 0.0037970813, 0.04867582, 0.033783972, 0.011427294, -0.014985473, -0.025920939, -0.030203989, 0.03655726, -0.011277981, 0.032386012, -0.013597329, -0.029069753, -0.019333903, -0.013294056, -0.0075443317, -0.029344797, -0.01379527, 0.03425673, -0.036001954, 0.013147182, -0.047271736, -0.004881867, 0.02170215, -0.018984959, 0.038946036, -0.010742437, 0.028640836, -0.0102210315, 0.02680691, -0.051612448, -0.039776064, 0.049072403, -0.043314595, -0.046688076, -0.041198757, 0.009561698, 0.022939904, -0.0057874317, -0.046801466, 0.020370033, 0.011844588, -0.047772083, -0.025613096, -0.048535123, -0.025364516, -0.014075476, 0.023982704, -0.04700213, -0.049036562, 0.032925755}, 
  {-0.0046303747, -0.045655765, 0.022905886, -0.048941515, 0.010205746, 0.024481121, -0.022440135, 0.022729062, -0.030125482, -0.010500951, -0.02941921, -0.007869391, -0.011820766, 0.0090039205, -0.02338001, 0.01904069, -0.0024922017, -0.0007972167, -0.02729594, 0.052399002, 0.05395875, 0.0024337238, -0.0142412875, 0.04048183, 0.05152074, 0.039177652, 0.023025578, -0.016783772, 0.046754986, 0.04653996, -0.02637405, 0.025501546, -0.047870636, -0.009283546, -0.043067034, 0.029694995, -0.023779005, -0.011961749, 0.029217528, -0.01321153, 0.04510175, 0.03348736, 0.0002344398, -0.0035303847, -0.017882, 0.0023535618, 0.0024203367, -0.039025594, 0.04417674, -0.051299833, 0.021315904, -0.030624148, 0.0027891677, 0.034191344, 0.022161385, 0.0301856, 0.03805858, -0.03712765, -0.03884876, -0.014873395, -0.037944518, 0.008646152, 0.008038717, 0.030352158}, 
  {0.03375408, 0.038601216, -0.026700955, -0.029453749, 0.033440627, 0.027795415, 0.015540146, 0.036527134, -0.04326685, 0.03142085, -0.021387635, -0.003551501, 0.0046469816, -0.0053248256, -0.036348145, -0.0178423, -0.033267695, 0.023304371, -0.025995504, 0.03890094, -0.0016256893, 0.0026008012, 0.008204049, 0.029067017, 0.021012545, -0.028565014, -0.052519407, -0.033865366, -0.0291279, 0.015690772, -0.03312041, 0.007716836, 0.020872278, 0.03469211, -0.038378797, -0.048722472, -0.047809538, 0.011595786, 0.016617794, -0.0009067281, 0.015955271, 0.029010767, 0.002964799, -0.049159158, -0.0025839077, 0.01730682, -0.025305549, 0.024223538, 0.024937037, -0.04055302, -0.041352864, -0.04057943, -0.02906774, 0.026954602, 0.03270734, 0.048903633, -0.012793966, -0.017797358, -0.04931923, -0.013723146, -0.03192864, -0.02211311, -0.019350689, 0.04392337}, 
  {-0.0082364315, -0.046714872, -0.028692394, -0.016752703, -0.04890614, -0.037770845, 0.039757922, -0.03323567, 0.047768462, 0.034969028, -0.04731087, -0.021158604, 0.0118010435, 0.009489947, 0.02972913, -0.054434642, -0.048271988, -0.026977612, -0.026050845, 0.048813295, -0.006642736, -0.0047112475, -0.022816107, -0.033681244, -0.014084412, -0.042832013, -0.02201257, 0.017480824, 0.010107705, 0.018876156, -0.038692076, -0.0048716357, -0.011643606, -0.046874695, -0.018809043, 0.029604377, -0.046375673, -0.024551935, 0.0056029074, 0.052223302, 0.011544849, 0.013075987, -0.026137156, 0.023309968, 0.03563631, 0.01694135, -0.016351055, 0.004723255, -0.018448139, -0.028231708, -0.030519584, 0.029640412, -0.04650524, 0.030977262, -0.016589822, -0.02709706, 0.021328894, 0.0031753934, 0.011737328, -0.04379453, -0.03824108, 0.046823055, -0.026322514, -0.051810194}, 
  {-0.014994345, 0.038756, 0.0114305, 0.002299411, -0.031277977, 0.0137336925, -0.041405585, -0.0046895524, -0.0030464088, 0.0052115032, 0.049848214, 0.026721913, 0.032053836, -0.049866866, -0.010001247, 0.019451903, -0.021020977, -0.0022430497, 0.009720438, 0.008561824, -0.030555677, -0.034367047, 0.045117766, 0.045188013, 0.014885993, 0.02352707, -0.036292806, 0.022602748, 0.045319673, 0.017357253, 0.027820123, -0.030691927, 0.024913967, -0.04179646, -0.04426162, -0.00799349, 0.0049596997, 0.024953656, 0.03696722, 0.0020713506, 0.027892292, 0.00064233225, -0.0356037, 0.008607914, 0.04157872, 0.003174714, 0.010156591, -0.033643674, -0.027323978, -0.052750077, 0.03430251, 0.049487542, -0.019213956, 0.043244664, 0.030880844, 0.036865845, 0.052210487, -0.026760882, -0.02275771, -0.025227401, 0.05230329, -0.021136267, 0.007011559, -0.03475708}, 
  {0.00069801137, 0.00801941, 0.022440355, 0.018596483, -0.023867086, -0.0024983, -0.0020732817, -0.0055311653, 0.009587463, 0.00629034, 0.05185538, -0.034068726, 0.003835548, -0.030704416, 0.020452395, 0.0022635974, -0.0026194865, -0.029546294, -0.035773344, -0.052654095, 0.050080784, -0.010273401, 0.016580062, 0.047965772, 0.02213031, -0.016036479, -0.019295938, -0.027773445, -0.041050427, -0.019056058, 0.017553633, 0.029957686, -0.009740959, 0.024206707, 0.034484405, 0.040787883, 0.0203748, 0.027151238, 0.023259623, 0.046848543, -0.0058078067, -0.006227912, -0.0313261, -0.042516235, -0.009486282, -0.030442687, 0.014037382, -0.034455232, 0.010918316, -0.050472986, 0.009104054, 0.04770419, 0.01316157, 0.0460651, -0.0063453335, -0.04042679, -0.0016761015, 0.022867894, 0.030990893, 0.046905354, 0.011053901, -0.003355591, -0.03541891, 0.0095139295}, 
  {0.005466628, 0.010331481, 0.0449756, 0.024714312, 0.051725525, -0.040565975, -0.048601042, 0.013686431, -0.032112952, -0.043030813, 0.022830091, 0.03833659, 0.017043756, 0.043174785, 0.028502941, 0.020164322, -0.021927657, 0.014358504, 0.04718844, -0.009238595, -0.04760469, 0.036323547, 0.008628375, -0.019718744, 0.008214865, -0.003507706, 0.047844097, 0.028401637, -0.04933722, -0.022054924, 0.013557632, 0.02561218, 0.049212273, 0.029958727, -0.0026742094, -0.025039287, -0.035856936, -0.046017792, -0.031172479, 0.007942034, 0.049798828, -0.028263185, -0.0137281725, -0.0270784, 0.018475665, -0.042436153, 0.024919573, -0.05146367, -0.05196076, 0.036814682, -0.018475926, 0.010530698, 0.015808756, 0.018357988, -0.05314425, -0.007868161, -0.045200355, -0.0007716877, -0.040082898, -0.022128562, 0.048672706, 0.015427478, -0.007297335, 0.044164937}, 
  {-0.024093015, 0.004181671, -0.02172982, -0.033106145, 0.039603367, 0.021219429, -0.04041931, 0.04175813, -0.033361424, -0.026447613, 0.0071760532, 0.009969591, -0.03806737, 0.0319162, 0.029557172, 0.03535356, 0.04130472, -0.019406436, -0.043410193, -0.007156975, -0.018445494, 0.018790798, -0.035459816, 0.024864232, -0.03360783, 0.010687869, 0.0187027, -0.04010077, -0.036383588, 0.010500239, 0.033003915, 0.03372074, -0.006764846, 0.032085907, 0.034813408, -0.015797151, -0.023679465, -0.02771899, 0.0050292187, 0.023042915, 0.034177005, 0.01926147, 0.053444654, -0.018436285, -0.051623408, 0.0513948, -0.015577558, -0.007902129, -0.0038960741, 0.018927034, 0.04809856, -0.005923651, 0.00080898573, -0.047446273, 0.021425905, 0.0047063264, 0.04897051, 0.04780305, -0.0056497552, 0.0039382176, -0.003804271, -0.014220987, 0.016141344, 0.02222379}, 
  {0.03459753, -0.0026294945, -0.003269668, -0.04266451, -0.038033735, -0.016028961, -0.05027938, 0.05230023, -0.044768818, -0.025223628, -0.020511808, -0.04523972, -0.040379155, -0.0251745, 0.007828014, -0.035172407, -0.048618205, 0.008208832, -0.024008464, 0.052001216, 0.0027406944, 0.0145454435, -0.029890405, -0.008484772, 0.04805038, -0.042627715, 0.019125357, 0.046724033, 0.011795276, -0.0026525783, -0.040332966, 0.0058406866, -0.050945465, -0.02717642, -0.040587146, -0.008600854, 0.02062503, -0.02313164, -0.042923868, -0.0037759724, -0.027161635, 0.00050962553, 0.014950095, -0.042714506, 0.029656023, -0.033670153, -0.0035718372, -0.013838646, -0.036020968, 0.048348337, 0.049185608, -0.027651295, -0.010002699, -0.04617493, -0.042715035, -0.020570595, -0.04420239, -0.021505108, -0.048995435, 0.011525738, 0.010303877, -0.04359836, 0.045854576, 0.015057054}, 
