#include "ap_int.h"

#define n_inputs 150528
#define n_layer1 64
#define n_layer2 32
#define n_layer3 2

void hwmm_layer1(float input[n_inputs], const float weights[n_inputs][n_layer1], float output[1][n_layer1]);
void hw_act_layer1(float input[1][n_layer1], float output[1][n_layer1]);
void hwmm_layer2(float input[1][n_layer1], const float weights[n_layer1][n_layer2], float output[1][n_layer2]);
void hw_act_layer2(float input[1][n_layer2], float output[1][n_layer2]);
void hwmm_layer3(float input[1][n_layer2], const float weights[n_layer2][n_layer3], float output[1][n_layer3]);
void hw_act_layer3(float input[1][n_layer3], int &pred);
int nn_inference(float input_img[n_inputs]);


namespace weights{

	const float layer3_weights[n_layer2][n_layer3] = {{0.16171658, -0.19899748},
			{0.11477288, 0.14259186},
			{-0.13474123, -0.03768507},
			{0.13315853, 0.40395465},
			{0.33183435, 0.27649722},
			{0.0674067, 0.21543832},
			{0.3193015, 0.16119684},
			{-0.10202197, 0.27111533},
			{-0.36028787, 0.23676457},
			{0.014097145, 0.41514885},
			{-0.15719199, -0.33305192},
			{-0.1358318, 0.37846524},
			{0.27982804, -0.076853886},
			{0.10113206, 0.3912536},
			{-0.29932305, -0.1193082},
			{0.30950075, 0.07735033},
			{-0.16049083, 0.28370762},
			{-0.20233038, -0.09073599},
			{-0.36411893, 0.066146016},
			{-0.29002264, 0.37962714},
			{0.13584964, -0.3191768},
			{-0.0714926, 0.36885327},
			{0.31982395, 0.16219392},
			{0.28013393, 0.33607638},
			{0.14222762, 0.29012233},
			{-0.29451004, 0.1080263},
			{-0.2348009, -0.42871964},
			{0.26501083, 0.3420027},
			{0.22094259, -0.3341158},
			{0.109425314, 0.41061664},
			{0.12340922, -0.27435026},
			{0.026838887, -0.29320627}};

	const float layer2_weights[n_layer1][n_layer2] = {{-0.056842912, 0.09057249, 0.23545773, 0.2506985, 0.23035485, 0.013503257, 0.2317254, 0.03694356, -0.20015928, 0.1424024, 0.2104313, 0.13179357, 0.004303138, 0.13070974, 0.07148363, -0.008357503, 0.023477448, 0.010802139, -0.030096356, 0.07521625, 0.08254149, 0.14974687, -0.17263028, 0.025990296, -0.078984894, 0.03195105, 0.020328851, -0.053472962, 0.09672919, -0.02718984, -0.20885475, -0.116378635},
			{0.19314975, -0.19483238, -0.18039851, -0.24444108, 0.21852215, -0.18261193, 0.13652648, -0.21537192, -0.14857914, -0.17364815, 0.1181482, 0.01714429, 0.18301493, 0.16112944, -0.1530411, -0.20917499, 0.18948942, -0.044668827, 0.06986675, 0.058791716, -0.15619202, 0.21911837, -0.13093545, 0.20712946, -0.20996203, 0.070816554, -0.20624313, -0.19923532, 0.09330823, 0.16922309, -0.17893097, 0.056343872},
			{-0.19169939, -0.08750864, 0.17546481, -0.17314516, 0.009883407, -0.24939607, 0.035803035, 0.19288117, 0.20292136, -0.08850933, 0.1454803, 0.023384921, 0.23779908, -0.07723123, -0.25150317, -0.012862207, -0.19210958, 0.16708438, -0.1606188, -0.21308672, 0.14366081, 0.1411294, -0.23332396, -0.031592477, -0.22291808, 0.20328763, 0.14881396, 0.22369918, -0.13063575, -0.031632073, -0.020965165, 0.24790293},
			{0.24266335, -0.26195607, -0.06158071, -0.11187607, -0.1259841, 0.14420782, 0.07556012, -0.119686544, -0.19220604, 0.06167771, -0.011667044, -0.042044695, -0.16525131, -0.0650875, -0.1309897, -0.1721938, -0.19850211, 0.15148972, -0.12330473, -0.24916844, -0.18392353, 0.16677874, -0.17276199, 0.17106143, 0.10657098, 0.18217756, 0.11713807, -0.091850735, 0.048425276, 0.20256673, 0.15538664, 0.10898458},
			{0.18349865, -0.25689697, -0.12832262, -0.06635275, -0.13628806, 0.0051202886, 0.19011253, -0.064536236, 0.19038059, 0.024276866, 0.24492633, -0.12641199, 0.06660583, 0.07337958, 0.22812885, -0.09861531, -0.24526751, -0.18486606, -0.19229944, 0.17439434, 0.17501245, -0.12722376, -0.16511843, 0.095044695, 0.028583322, 0.02914955, 0.2668375, -0.19923504, 0.25399664, -0.090130776, -0.07749725, 0.13424538},
			{-0.06494422, 0.14288957, 0.12135298, 0.23868182, 0.04182252, 0.2539712, 0.049450792, 0.18922825, -0.12712973, 0.2285298, 0.0899325, 0.21912052, -0.19576657, 0.08205453, 0.17589666, -0.11015193, -0.11497945, 0.15932035, 0.15910569, -0.17161146, -0.13484669, 0.19754672, -0.0012814307, -0.030934395, 0.15389909, -0.19440708, 0.10441828, -0.08715487, 0.049179517, -0.068090536, 0.16278167, -0.12535052},
			{-0.19456632, 0.21681274, 0.16888212, 0.16155273, -0.24036203, 0.08331497, -0.117720634, 0.13225362, -0.11388852, -0.13538988, 0.22963604, 0.041071136, 0.06875837, 0.23046052, -0.17545423, -0.051367264, 0.038944647, 0.15293588, -0.18768573, -0.19006084, -0.16364641, 0.0032018716, 0.04269911, 0.0468988, 0.045534372, -0.118292004, 0.07730772, 0.22434069, 0.061180096, 0.11090612, 0.087395, 0.040015724},
			{-0.08610737, -0.006896783, 0.25108036, 0.018544907, -0.12327277, 0.022580963, -0.16812205, 0.008428767, 0.22911733, -0.00048671316, 0.06931444, -0.05598624, 0.09043994, -0.13880815, -0.22687717, -0.12293325, 0.22845724, -0.17708571, -0.012241923, 0.01812205, 0.02463374, 0.11247684, -0.1137534, -0.19316986, 0.22366315, -0.091456875, -0.19548191, 0.19180696, -0.09196946, -0.13050169, -0.12152093, 0.012681324},
			{0.107547835, 0.03771093, 0.23102607, 0.20461984, 0.1797478, 0.2386284, -0.111208014, -0.06303451, 0.12965594, 0.013138847, 0.085941456, 0.06996837, 0.102925904, -0.20976135, -0.19044642, 0.24762325, -0.19457786, -0.012868645, -0.06488938, 0.17227523, -0.23134738, -0.022454984, -0.0966828, -0.20937228, -0.04802229, 0.08782191, -0.2320884, 0.13224559, 0.039561763, -0.06595046, -0.23291704, 0.056675825},
			{-0.17444673, -0.14989603, -0.08893932, 0.2302076, 0.1591797, -0.0946636, -0.24468656, 0.14631516, 0.24100856, -0.013888777, 0.03238777, 0.16663516, 0.14237218, 0.17225456, 0.1914327, 0.18237336, 0.05552195, 0.04159187, 0.19363417, -0.21520136, 0.1587387, 0.15691607, 0.057116713, 0.20831206, -0.07646216, 0.17449212, 0.24251005, 0.13821544, -0.050234586, -0.07278814, 0.22307685, -0.088757284},
			{-0.20961846, -0.0037147827, 0.19820593, -0.18699579, 0.116573736, -0.14540234, 0.2448861, -0.020167805, 0.0072109285, 0.022820964, -0.0917947, -0.04126059, -0.19027513, -0.23335491, -0.15382259, 0.016746458, -0.21700653, 0.1813835, -0.21168493, 0.17652313, 0.1581295, -0.035528626, 0.061937105, -0.23114718, -0.2038069, -0.20245397, -0.15192316, -0.15388857, 0.18179214, -0.048828635, 0.22778723, 0.11417803},
			{0.14695175, 0.08387553, -0.05687256, 0.023195112, 0.15471807, 0.19006795, 0.14873783, 0.0006259072, 0.20324093, -0.027299652, 0.057479635, -0.04000297, 0.11208508, 0.13983311, 0.24909598, -0.18792406, -0.121456504, -0.097410485, 0.17070015, 0.051467095, 0.14830635, -0.22632979, 0.08918574, 0.024460305, -0.18773748, -0.14687055, -0.20438571, 0.19497192, 0.021251451, 0.11389787, 0.021895384, -0.14697826},
			{-0.2086196, 0.08831634, -0.013812535, 0.22592938, -0.070556596, 0.110373914, -0.1058436, -0.0765178, -0.21087852, 0.0024562078, 0.0629923, 0.15967326, 0.10214347, 0.2328933, 0.028483506, -0.21920007, -0.06282391, -0.22627716, 0.2106059, 0.17586133, 0.030583788, -0.13898365, -0.022028746, -0.049713552, 0.079471886, -0.13841537, -0.13642074, 0.11278996, -0.19262701, 0.114969514, -0.19077216, -0.16327342},
			{-0.21003585, -0.0050113196, -0.03814455, -0.23581558, -0.045451216, 0.21595708, -0.10575953, 0.21825969, 0.21566044, 0.14065064, -0.16807874, -0.21506798, -0.00059434597, 0.053742114, 0.1899432, -0.06877898, -0.04788844, 0.12991658, -0.22193202, 0.19777392, 0.09012419, 0.034405813, 0.057433, -0.027232137, -0.016608302, -0.06881149, 0.21562867, -0.09446383, 0.033375707, -0.0632502, 0.21451071, -0.13066065},
			{-0.21910185, -0.09692741, -0.25689352, 0.12039661, 0.07524012, 0.15242364, 0.2373078, -0.1815378, -0.14412086, -0.18696657, 0.11535338, -0.0247065, 0.20878258, -0.14553525, -0.19273624, -0.015774632, 0.016136343, 0.16150747, 0.034072075, 0.040172894, 0.24567969, -0.090666816, -0.039961692, -0.030516597, -0.16896963, 0.07579777, 0.118398376, -0.17698604, -0.14197372, 0.14852466, -0.061652873, -0.1379323},
			{0.13013694, -0.112068966, 0.05832918, -0.07077044, -0.036771838, -0.07387741, 0.1951451, 0.1778198, -0.10702147, 0.04361112, -0.24116771, 0.13237943, 0.14906144, -0.023444487, -0.13284683, -0.04117794, 0.061707668, 0.039943784, 0.00019792005, -0.18697912, 0.23509708, 0.13456723, -0.17142002, -0.09866746, 0.1816227, 0.12416442, 0.05578765, 0.16115469, -0.044716176, 0.0690146, -0.22759283, 0.17453001},
			{0.009552489, 0.19836523, -0.09432359, -0.05324065, 0.051391233, 0.20425488, 0.10922638, -0.064387165, -0.13332927, 0.17107749, -0.1819004, 0.030169718, 0.035833564, -0.20254782, 0.1444158, -0.16957425, 0.080570035, -0.040221646, -0.14848016, 0.15757239, -0.08232759, 0.11606318, -0.106668815, 0.23169728, -0.07715262, 0.24372353, 0.06669521, 0.15795386, -0.15607506, 0.21454431, -0.016798807, 0.0384935},
			{-0.10259766, -0.22317849, 0.21016668, 0.08931546, -0.15856557, 0.14055657, -0.08368294, 0.17021893, 0.013837102, 0.1657093, -0.05103803, 0.109556384, -0.1434701, 0.15037367, 0.20996486, -0.11124961, -0.21945758, -0.2290024, -0.0041584675, -0.23796377, -0.011918194, -0.20264456, -0.12539442, 0.062389124, -0.0970272, 0.17379786, -0.060563758, 0.21416049, -0.19557405, -0.0059355446, -0.089298494, -0.22394727},
			{0.14081629, 0.22097708, 0.15817732, -0.21116932, -0.20853104, 0.16548504, 0.20714812, 0.07747741, 0.10655285, 0.2472382, 0.22707044, 0.16422084, 0.22108762, 0.05911797, -0.12597612, -0.0063752797, -0.15542606, -0.17798372, -0.22079736, -0.030409727, 0.18360996, 0.094626874, -0.102146514, 0.09318662, 0.06857901, -0.07124322, -0.1504264, -0.22108664, 0.062451094, -0.22142649, -0.04360717, -0.17594925},
			{0.0050400016, -0.15835837, 0.03952819, 0.17368321, 0.22122073, -0.033180244, -0.0027034918, 0.03933887, 0.15337741, 0.23653886, -0.021242175, 0.1596063, -0.058917094, 0.19851013, 0.14879608, 0.14001536, 0.14958775, 0.063154675, 0.23954786, 0.12987669, 0.23544952, -0.16687222, -0.13174197, -0.16587767, 0.12554516, 0.1375901, 0.17424548, 0.24019432, -0.09785256, 0.17048928, -0.14182276, 0.12674172},
			{0.1815567, 0.12863654, -0.012589828, -0.19521041, -0.03149588, -0.027121605, -0.055943854, -0.004189653, 0.014927832, -0.123739965, 0.055298317, 0.18350594, -0.0360067, -0.09724571, 0.23898415, 0.15433604, -0.15578765, -0.049687665, -0.06411156, -0.13241468, -0.18593492, -0.062275004, -0.029614363, -0.11306812, -0.020500628, -0.17507444, -0.23377723, 0.05426063, -0.09259473, 0.06253645, -0.0657272, -0.11526939},
			{-0.08282677, -0.15170625, 0.22015919, -0.23034598, 0.14972971, 0.17160648, -0.13555866, 0.025893578, -0.23295271, -0.1564214, -0.07039966, -0.15296, 0.16165042, -0.06539422, 0.06397259, -0.17577708, 0.2080421, -0.20558368, -0.17601664, -0.06091154, 0.039367333, -0.24494068, -0.17981797, -0.22288786, -0.08927627, 0.10778701, -0.14702804, -0.1853133, -0.071574606, -0.15053007, 0.06809654, 0.029015472},
			{-0.005244308, 0.1765775, -0.15870787, -0.023241838, 0.18135843, -0.010057555, -0.17204288, -0.25038347, -0.011563563, -0.1795757, -0.057516057, -0.16263051, -0.07254332, -0.105318785, 0.0017373032, 0.105236895, 0.11655449, 0.20077944, -0.0071309158, 0.11124443, 0.1172486, 0.01894853, -0.14200613, 0.22630641, -0.16944245, -0.16369784, -0.020703346, 0.22870381, 0.19187103, -0.1478502, 0.15025179, -0.12914944},
			{-0.024475632, 0.14821588, 0.059852045, -0.072149366, -0.12613456, -0.1679165, 0.2010064, 0.102073394, 0.24584225, 0.12387633, -0.21105765, -0.15495747, -0.21584894, 0.22701983, 0.13110597, -0.13864215, -0.085964955, -0.0052684518, -0.21187766, 0.12122629, -0.18697953, 0.11134351, 0.20016408, 0.24155568, 0.002600917, -0.06508437, -0.2142549, 0.22123688, 0.2105961, 0.00972758, 0.06551499, 0.049580958},
			{-0.15634924, 0.034566443, 0.24090558, -0.03901725, 0.14025202, -0.09334258, -0.025017094, 0.123752706, 0.1795413, 0.09178491, -0.07711289, -0.056670174, -0.047834426, 0.21844985, -0.14432938, -0.16445686, 0.12360773, -0.089411095, 0.17602012, -0.2141483, 0.007228089, -0.008377372, 0.099486604, -0.043879975, 0.023382392, -0.12479865, 0.075673684, 0.18435778, 0.11643328, -0.0648121, -0.20924033, 0.033575654},
			{-0.091896564, 0.026259948, 0.17789969, -0.0018191193, -0.012358947, -0.23470765, -0.24677566, 0.2282949, 0.22443427, 0.17695548, -0.05728004, -0.19919047, 0.19103947, -0.031499363, 0.10500483, 0.0016319654, 0.033555657, -0.19911645, 0.24017717, -0.057038505, -0.09334579, 0.099711604, -0.12838964, 0.013712714, 0.24474765, 0.016484309, -0.057654075, 0.14490552, 0.10929918, -0.167418, -0.06677784, 0.006011893},
			{0.2009569, 0.043723505, 0.017966632, -0.04323058, -0.03023044, -0.19775586, -0.21396257, 0.19326359, 0.1457821, -0.1377597, 0.014126152, -0.14265208, -0.22968042, -0.09245787, 0.053460803, 0.022988012, -0.22353375, -0.029499268, 0.051200084, 0.19848828, 0.09812742, -0.15523887, 0.2582977, -0.03052992, 0.1791822, -0.23127683, 0.07486585, 0.030666236, 0.15447448, -0.07759559, 0.0037652024, 0.20690285},
			{0.09744269, 0.1252868, -0.12579732, 0.20113158, 0.012515566, -0.25277996, 0.19986206, 0.105517, 0.008129731, -0.012974319, -0.08605477, -0.12528084, 0.11500065, -0.18605267, 0.05197252, 0.24361503, -0.09055595, -0.22240329, -0.06847629, -0.14614889, 0.2298917, -0.16014299, 0.066594675, -0.11890069, 0.11993616, 0.2022946, 0.14506042, 0.03789235, -0.22410226, 0.08907474, 0.10550264, 0.003920925},
			{0.110331, 0.108811885, 0.06729171, -0.08240049, -0.040383823, 0.06092623, 0.155096, 0.029229444, -0.073001616, 0.24015571, -0.077353925, -0.25430313, 0.20878126, 0.11348953, -0.04078044, 0.1409228, -0.21955988, -0.26135185, 0.086289495, 0.07894475, 0.18830656, -0.25279742, 0.23393117, 0.041125063, 0.22858706, 0.037475415, 0.061196957, -0.13565281, -0.20306276, -0.050185297, -0.1418275, 0.13665654},
			{-0.08057879, 0.12083269, -0.18377121, 0.24183069, -0.0110984575, 0.23404849, -0.2281836, -0.20389746, -0.1547457, 0.00023946099, -0.1151996, 0.09484818, -0.09509049, 0.00125338, 0.22700837, -0.10282728, -0.11536612, -0.12106056, -0.1786026, 0.2376036, 0.23330553, -0.087860785, -0.16926055, -0.09870175, -0.030690325, 0.08842248, 0.22759263, 0.06559928, 0.15090103, -0.2344349, 0.1458988, 0.21422699},
			{-0.13365026, 0.20202611, 0.059354495, 0.048290316, -0.16225134, -0.21319629, -0.02589084, -0.03883313, -0.10980049, -0.110830106, -0.035862394, -0.012597786, 0.13292289, 0.09273878, 0.13910449, -0.08467403, -0.03000543, 0.16286969, -0.07613282, 0.20227961, 0.23902076, -0.20038249, -0.08145776, -0.09187764, -0.15882078, 0.05202413, -0.06895525, 0.226873, 0.08801348, 0.09000418, 0.034880538, 0.015798964},
			{-0.10860042, -0.13476637, 0.0669671, -0.068467066, -0.16407536, -0.118431166, -0.06361765, -0.06752702, 0.23310117, 0.035475455, -0.21653405, -0.18845187, 0.10237828, 0.14097567, 0.21426317, 0.016398495, 0.09335227, -0.11247642, -0.103808105, -0.0845469, -0.21449836, -0.23620892, -0.1144695, 0.027076107, -0.15005276, -0.08919653, -0.11070666, -0.12501456, -0.16481315, 0.03639774, -0.085725635, -0.08657379},
			{-0.17694278, 0.24081054, 0.22340378, -0.09431876, 0.14085144, 0.15460482, 0.030128643, 0.1777486, -0.24900924, -0.15483418, -0.120189965, 0.20429817, 0.17745322, -0.029984608, 0.11641274, -0.09057077, 0.13559724, -0.20544073, 0.01178301, -0.04995548, 0.19973779, -0.13681674, -0.18545535, -0.032517415, 0.016060462, 0.017941743, 0.0019429032, 0.102452725, 0.14775476, -0.026802106, 0.079927444, -0.03157271},
			{-0.1258728, 0.055966973, 0.15394199, -0.05674622, -0.07266742, -0.053461976, 0.20086895, 0.10288339, 0.07259786, 0.027945304, -0.020392714, 0.029306483, -0.2219053, -0.16095252, 0.2123182, 0.17891085, -0.11133022, 0.21198003, -0.24186774, -0.2167412, -0.13751122, 0.17902485, -0.06326956, -0.08650821, 0.21294835, 0.1853278, 0.095011264, 0.15784861, 0.20645072, -0.063265026, -0.10608727, -0.12395573},
			{0.06903104, 0.1664355, 0.14696948, 0.08654253, 0.061405648, 0.24930452, -0.045528326, 0.1630622, 0.118781164, -0.20940857, -0.09536026, 0.040419403, -0.104621366, 0.1126316, -0.039852414, 0.14751764, -0.2194084, 0.21397746, 0.027908467, 0.23866107, -0.006007062, 0.17620298, 0.027088253, 0.20191133, 0.05973523, -0.0186073, 0.12593015, 0.20020454, -0.18129165, -0.11356456, 0.17047867, 0.12261695},
			{-0.22764766, 0.026808703, -0.07021461, -0.044718016, -0.09936676, -0.15953046, -0.03865521, 0.19252387, 0.16221996, 0.0017412892, 0.0122616645, 0.036100153, 0.013398874, -0.22013085, 0.15282384, 0.018321432, -0.17519034, 0.056503728, -0.11142215, 0.09560889, 0.22474211, 0.21537307, 0.03732398, 0.13182445, 0.14517543, 0.14884363, -0.105873995, -0.25032663, 0.18352392, 0.13174084, 0.16998617, 0.04725893},
			{0.17971985, 0.0060196463, -0.14751689, 0.20189413, -0.09047128, -0.009427638, -0.12117428, 0.1861146, 0.04086128, -0.05361026, 0.16559117, -0.21355659, 0.028197415, -0.058402162, 0.11748443, -0.01403568, -0.21496442, -0.023951042, 0.19449906, 0.15783894, 0.077804916, 0.16298957, -0.06535447, 0.08416888, 0.20021231, 0.06419682, 0.04060308, -0.04144868, 0.010527386, 0.16682307, -0.03918763, -0.19877379},
			{0.24844947, 0.19463068, 0.026830504, -0.2396573, -0.114522055, -0.15414427, 0.043032028, 0.027057707, -0.20699267, 0.16619395, -0.0062416308, -0.09932063, 0.07190889, 0.05080178, -0.083952084, 0.15282445, 0.093129374, -0.14985953, -0.2403418, -0.10198569, 0.11161237, -0.017027907, -0.08544991, 0.054992337, -0.19501135, -0.12192853, 0.24547991, 0.02772607, 0.099581264, -0.024147242, -0.04880984, 0.20927395},
			{-0.00385755, -0.020834519, -0.17964303, 0.09095146, 0.08267348, 0.092783615, 0.07191364, 0.20891045, -0.24434353, -0.17470284, -0.22572714, -0.23485124, 0.18024936, -0.08086476, 0.23968163, 0.1814483, 0.046572987, 0.16552077, -0.048123173, -0.16615184, 0.19973016, 0.21718664, -0.122487865, 0.078714356, -0.2409431, -0.09732145, 0.028494777, -0.2277096, -0.1954887, -0.18085161, -0.13680711, 0.008744145},
			{-0.19075282, -0.07629964, -0.12092483, -0.0057709445, -0.05690477, -0.22228834, 0.12382742, 0.17466241, 0.08591656, 0.021417415, -0.08270306, -0.0027387242, 0.11627271, 0.24775217, 0.21440852, -0.016740832, 0.08870451, -0.042875648, -0.14527301, 0.08462701, -0.16077833, -0.223356, 0.05457091, 0.17646997, -0.17594042, -0.042828094, 0.10661228, 0.1376396, -0.10488284, 0.19638322, -0.041483197, 0.081082925},
			{-0.22739533, -0.042982403, -0.029425219, 0.12657978, -0.045663826, 0.23704264, -0.03573001, -0.1299544, 0.1922376, -0.07792922, 0.12606299, -0.02616225, -0.06881852, -0.19930387, 0.12042727, -0.2203207, 0.15717018, -0.21726318, 0.009730035, 0.034548905, 0.07022505, 0.021566369, -0.078156725, 0.15343279, 0.106663875, 0.025696076, -0.12167929, -0.19735886, 0.20533912, -0.1819511, -0.030568635, 0.09198634},
			{0.15463471, 0.2515026, 0.23129037, 0.19577761, 0.032996546, 0.1620232, 0.0356418, -0.072956204, -0.1649196, 0.06347969, 0.12252602, 0.22680253, 0.15236767, 0.066874504, -0.16549547, 0.08889728, 0.10535755, 0.21892886, 0.15124457, 0.24397439, 0.21087484, -0.19935739, -0.17119046, 0.22395858, 0.05306684, 9.161961e-05, -0.078263186, -0.21591575, -0.18518753, 0.16426735, -0.07240616, 0.16269925},
			{-0.024227537, 0.20191132, -0.20546156, -0.031060928, 0.1896755, 0.15324104, -0.17903455, -0.07721614, 0.19801745, 0.015242627, -0.04709722, -0.20433259, 0.036284324, 0.22157088, -0.20958325, -0.049097594, 0.07792701, 0.022403121, -0.10292884, -0.01025957, -0.020887591, 0.1276941, -0.07715041, -0.04442664, 0.033033848, -0.15427199, -0.066276506, -0.21162112, -0.17315455, 0.007953963, 0.17455024, 0.13131517},
			{-0.20291853, 0.055706315, 0.03352687, 0.20084198, 0.21517697, -0.13355817, 0.116465665, 0.17287308, 0.10062386, -0.16632888, 0.19989313, 0.002927911, -0.16418912, -0.20731713, 0.052533366, 0.069183774, 0.023722442, -0.062881164, 0.03745548, -0.11723302, 0.22873099, 0.05453197, 0.26575467, -0.2496132, -0.10776577, 0.11620852, 0.0015014192, -0.112165086, 0.22155385, -0.15193896, 0.016064666, 0.24916193},
			{0.121773764, 0.08086069, -0.16455086, 0.05310842, -0.11294679, 0.016339572, 0.16408281, -0.21330635, 0.123435766, -0.17564914, 0.05000476, 0.012653629, -0.12566438, 0.20189597, -0.18573113, -0.19681782, 0.22715041, -0.16078418, 0.0423747, -0.16597727, 0.07007, -0.118999265, 0.10646155, -0.08857265, -0.011467411, 0.22585995, 0.12506048, -0.15710248, 0.06682278, -0.21383065, 0.09894734, 0.23010083},
			{0.014299499, 0.21221372, -0.19816522, 0.21444085, 0.20992306, -0.11005289, -0.17064, 0.12848711, -0.18906128, -0.22200495, 0.124872774, -0.0745343, 0.00027256264, 0.10015116, 0.13842756, 0.16461343, 0.14185052, -0.18525183, -0.12424629, -0.19451728, -0.037285525, -0.20195979, 0.23354042, 0.095166795, 0.2525106, 0.04368919, -0.049424123, 0.15664507, -0.13374303, -0.19083166, -0.17221542, -0.082222745},
			{-0.129903, -0.11946058, -0.1388201, 0.2491851, -0.14743134, 0.24012645, -0.042836424, 0.17736429, 0.2413146, -0.22444291, -0.09313541, 0.20834433, -0.07204027, 0.20715305, -0.1439788, 0.12333403, 0.1954548, 0.24749054, 0.027367456, -0.2042246, -0.044014283, 0.10068915, -0.084350936, 0.038170997, -0.1283816, -0.12925142, -0.19865948, 0.017548056, 0.2118033, -0.14464283, 0.08050714, 0.2191718},
			{-0.013164206, 0.1836442, -0.1290292, 0.11985287, -0.092701755, -0.07119317, -0.15486889, 0.011284231, -0.171598, 0.20212477, -0.15456207, 0.14502153, -0.19925466, 0.14346118, 0.17656057, -0.013805557, -0.12909117, 0.012671292, -0.2293955, 0.03375408, 0.056719866, 0.16442327, 0.011656743, 0.22270216, -0.062354367, 0.24824746, 0.07229714, -0.19510224, 0.20321816, 0.16352311, -0.16453764, -0.15276587},
			{-0.0879315, 0.17434463, -0.23172857, 0.04095567, 0.012316569, -0.10032887, -9.876788e-05, 0.00877237, 0.07010123, -0.16371498, -0.10804127, -0.11884958, 0.040381927, 0.13995963, 0.17426802, 0.121670395, -0.018669682, -0.20505594, -0.22712572, 0.15795468, 0.18421225, 0.061540317, 0.06953099, 0.24144794, -0.12823619, -0.17152876, -0.14324711, -0.10514484, -0.16886699, 0.06537014, 0.099811256, -0.018819807},
			{0.24116309, -0.08029708, 0.13437471, 0.16233508, 0.034449622, 0.024410028, -0.22589687, 0.18078037, 0.06984699, -0.0025959888, 0.16317792, -0.21233396, 0.16033575, -0.12613207, -0.09050084, 0.17013356, 0.168812, 0.043498274, -0.22187492, 0.018092105, 0.033458922, 0.122305, -0.049825706, -0.24726585, -0.055836555, -0.18918714, -0.20894817, -0.08362842, -0.015678111, -0.22298044, 0.03440332, -0.06168933},
			{-0.18088202, -0.06608387, 0.081785046, -0.16545631, 0.0734817, 0.12562598, 0.044079058, 0.20008862, 0.15265201, -0.18560308, -0.2301815, -0.05118662, -0.028498024, -0.13817503, 0.20191687, 0.2057823, -0.022426607, 0.03535874, 0.08775956, 0.0030284373, -0.17077345, 0.2008585, -0.10460917, 0.22659838, -0.013509455, -0.22426184, -0.22856523, -0.12728092, -0.14494659, -0.027462397, -0.10388372, -0.05742822},
			{-0.23392566, -0.057920344, -0.1607658, -0.13435589, -0.12606412, -0.10983224, -0.056772288, 0.20867084, 0.03752045, 0.061418332, 0.12575673, 0.21573652, -0.24028511, -0.1385503, -0.16085981, -0.18060043, 0.025311058, 0.20848937, -0.21494679, 0.13358523, -0.23985535, 0.17508021, 0.029033517, -0.20138812, 0.1758004, 0.24088278, 0.14244843, 0.0009990664, 0.12719926, 0.018963018, 0.15259233, -0.21914},
			{-0.10354885, 0.16535167, 0.017487617, -0.1364315, 0.18193658, -0.12707886, 0.06861778, -0.050319828, -0.05765546, -0.14158683, 0.21577063, -0.25329614, -0.03537667, -0.17644988, -0.12111139, 0.20828135, -0.06865323, 0.051246732, 0.17123024, 0.13533959, 0.04057482, -0.13829611, 0.119836904, 0.16626117, -0.23922832, 0.20248337, 0.15614548, 0.038569234, 0.1445378, -0.23435883, -0.103803925, 0.24721469},
			{0.126389, -0.10818464, 0.24156144, -0.002894287, -0.030845692, -0.0073174494, -0.17454356, 0.23802641, 0.06547829, 0.036249824, -0.052151173, 0.12296296, -0.15696546, -0.13920125, 0.08943929, 0.040087175, -0.21159762, -0.12732962, 0.054128364, 0.024391029, 0.112441525, -0.10684789, -0.022385353, -0.018236186, -0.0046381503, 0.005829057, 0.050852463, 0.048025005, -0.010305727, -0.17138802, -0.10503716, -0.15904905},
			{-0.19427717, -0.0055822222, 0.23709999, -0.22811235, 0.18205005, -0.21154583, 0.10156698, 0.17275697, -0.24386688, -0.08460292, 0.16346319, -0.16683878, -0.12044335, -0.20159338, 0.1066663, 0.15288395, 0.036329314, 0.14707214, 0.17852981, -0.062120732, 0.069928855, -0.013561326, -0.059897553, -0.17465878, -0.10076647, 0.077748515, -0.20249143, 0.20579971, 0.0126105, 0.12811263, -0.10932632, -0.08965537},
			{-0.13240737, 0.07436696, 0.0416618, -0.23055619, 0.028551573, -0.043038767, 0.2236611, 0.011092448, -0.17361213, -0.11197593, 0.12885623, -0.08847928, -0.07393271, 0.21673161, -0.22448179, -0.0831194, -0.18540095, -0.14436251, 0.035424724, -0.2512338, 0.1982525, 0.108000234, 0.17779031, 0.09004382, -0.14476956, -0.015893038, -0.21538343, -0.20137806, 0.23037249, -0.23406912, 0.13599955, -0.10565614},
			{0.19024876, -0.13113762, -0.026242705, 0.08335438, 0.022949822, -0.03207781, 0.12195201, -0.2542052, -0.18192585, -0.16763207, 0.18295178, 0.12206506, 0.0038452775, 0.037472684, -0.08374, -0.2272639, 0.011690247, 0.07881818, -0.15873693, 0.04148889, -0.10346231, 0.1300221, 0.120107196, -0.07414179, 0.19064517, 0.0516123, -0.09529502, -0.0446922, -0.044388916, -0.09972385, -0.06050462, 0.25463265},
			{0.14775479, -0.22703071, 0.21459106, -0.15353854, 0.123633295, 0.12481953, 0.16793498, -0.02796004, -0.15485293, -0.11859134, 0.26584253, 0.09368083, -0.23071346, -0.015923718, 0.18812546, 0.0011887394, -0.11549099, -0.123791635, 0.1689773, -0.12198585, 0.11995049, -0.24702103, 0.012923304, -0.030420387, -0.21473102, -0.09393871, -0.11999355, 0.15133813, 0.088102475, 0.031868234, 0.14105913, -0.22094402},
			{-0.052710734, 0.13318403, 0.21313056, -0.025555428, -0.035137326, 0.20893836, -0.12418574, 0.14116119, 0.11897227, -0.19035023, 0.12375065, 0.10423149, 0.18491966, 0.061375543, -0.11591019, 0.12877674, 0.19001825, -0.08229237, 0.08365044, -0.088164754, -0.07253624, -0.11154935, 0.032545563, -0.22621962, -0.18234384, -0.18701626, 0.16682398, 0.2265072, -0.044365868, -0.019151995, 1.523594e-05, -0.12379587},
			{-0.00018139329, 0.07598836, -0.028956482, -0.20422171, -0.0755141, -0.041343313, 0.16866918, 0.019636441, -0.02709927, -0.005137547, 0.015764961, 0.17513245, -0.19609691, 0.09619261, -0.19539565, -0.17485404, -0.20108138, 0.19364338, -0.19113047, -0.13884239, 0.12119833, 0.16874255, 0.107453346, 0.1893389, 0.17392917, -0.24824041, 0.08857564, 0.03678813, 0.10070779, -0.13305664, 0.247506, -0.09080546},
			{-0.19744124, 0.2322667, 0.1021462, 0.14872226, -0.18493135, -0.082668014, 0.23085038, 0.00072732556, 0.1061834, -0.10789547, 0.042945974, 0.09190498, -0.18690711, -0.23251228, -0.0429856, -0.16118716, 0.19406052, -0.16983472, 0.23754798, 0.24083717, 0.2250271, -0.22467999, 0.19773264, 0.24152961, 0.1422481, 0.068704516, 0.02782563, 0.10810941, 0.042996723, -0.15301235, 0.20675647, -0.21859708},
			{-0.18276052, -0.18830521, -0.07403076, -0.15812126, -0.05310111, -0.16511227, 0.082399674, 0.0019095818, 0.017465279, 0.19515117, 0.12747388, 0.23021667, 0.05087025, -0.0022081973, -0.082073495, 0.0034633859, -0.084141694, -0.1439833, 0.04094612, -0.19967385, -0.1694702, 0.07405043, -0.0706828, -0.04499273, -0.0708346, 0.099056706, 0.03374374, 0.1890987, -0.03636386, 0.07652992, 0.22207318, 0.15286323},
			{-0.15729798, 0.21669304, -0.14828706, 0.17670803, -0.025506144, -0.119135894, 0.0943223, -0.04280491, 0.23071653, 0.07242929, 0.22470331, -0.07304184, 0.121493965, -0.08358089, 0.24881937, 0.14795479, 0.15567292, -0.19760442, -0.20971194, 0.0061149774, -0.24035443, 0.22150715, -0.19864601, 0.20414321, 0.04311827, 0.04955735, 0.018478096, 0.19613235, 0.009386494, 0.14460315, 0.070026144, -0.1270104},
			{0.2279428, 0.050517753, -0.0016998562, 0.012245022, 0.20156048, 0.18804343, 0.21152912, -0.09668765, -0.049635507, -0.24623466, -0.0015767321, -0.026617391, 0.044583376, -0.17895003, -0.24672112, 0.15829703, -0.212634, -0.076034866, -0.15986075, -0.12764159, -0.050640613, -0.2015782, -0.021376561, 0.09625637, -0.036927365, -0.16554925, 0.059304677, -0.21130204, 0.096557096, 0.07480056, 0.12146222, -0.22719356}};

	const float layer1_weights[n_inputs][n_layer1] = {{0.021735042, 0.023218961, -0.050848607, -0.02081782, -0.0259831, -0.023310412, -0.02177799, -0.05071876, -0.045051176, 0.05146504, -0.01114633, -0.024262337, 0.052646607, -0.018933412, -0.019484915, 0.052256767, -0.0439195, 0.014791595, -0.023248844, 0.0022769107, 0.041065373, -0.03821713, -0.039734136, -0.041086294, 0.0017665979, -0.012802516, -0.013715428, -0.010596406, 0.01698916, 0.040935006, -0.047924113, 0.00047241666, -0.017186495, 0.02459871, 0.04344604, 0.023464981, -0.031946614, -0.052061144, 0.042843495, -0.026930327, 0.034329172, -0.02802285, -0.008835606, -0.02960578, 0.053772416, 0.044005733, 0.029641537, -0.022657286, -0.05262049, 0.04180628, -0.03625344, -0.015574655, 0.037241526, -0.030156437, 0.024571933, -0.013375368, 0.0025863678, 0.04641345, 0.047172554, 0.036842488, 0.022234935, 0.045952085, -0.016810395, -0.048101265},
			{-0.01025221, -0.05340172, -0.016605552, 0.004724703, 0.009212456, -0.035938554, 0.025210114, -0.004516266, 0.045813728, 0.024101553, 0.03017978, 0.005541439, 0.0014384141, -0.016148929, -0.05042196, -0.0101000685, 0.036912564, 0.01876189, 0.03860868, -0.026166568, -0.040787082, 0.03278529, -0.029163348, -0.023612844, 0.04376416, 0.018422715, -0.020882463, -0.010885946, 0.0370804, 0.034235273, 0.03219741, -0.039944265, -0.029449463, -0.02460025, -0.049288314, 0.014025084, 0.04579529, 0.046707485, -0.027963225, -0.044907536, -0.013314527, 0.05044892, -0.0072349375, 0.04619058, -0.044230543, -0.010683389, 0.027584229, 0.0076471223, -0.039483882, -0.050122935, -0.052109487, 0.022061566, 0.050303254, -0.024505898, 0.04710473, -0.027552063, 0.007108384, -0.0023669745, 0.0056934534, -0.0036172818, 0.020684429, -0.005789631, 0.0055314843, -0.025238717},
			{-0.0042143813, 0.032187756, 0.017357653, 0.041829586, -0.014322302, 0.015041059, -0.010231826, 0.012563244, 0.03336898, -0.036573492, 0.035179067, 0.0076063704, -0.050962694, 0.029375287, -0.029385874, -0.04334887, -0.009192879, 0.00097261084, 0.04794804, -0.025254255, 0.019242298, -0.048631255, -0.029583802, 0.022828618, 0.017734991, 0.000577914, 0.016044712, 0.00044640468, 0.005194526, 0.034007788, 0.033834383, 0.008334597, 0.048095584, 0.005137148, -0.02624076, 0.022948725, 0.0052124574, -0.009495377, -0.02774699, -0.041602805, 0.028533954, 0.03589927, 0.030399319, 0.01755913, -0.023103535, -0.008598838, 0.032961305, 0.021401796, 0.01781857, -0.026375532, 0.024561428, -0.03709109, 0.006450725, 0.050876874, 0.049952988, -0.04043346, 0.029471016, 0.0015146004, -0.05283084, 0.026722802, -0.044696305, 0.017607963, -0.016430886, 0.051446795},
			{-0.044894338, 0.03650844, -0.045751687, 0.010668142, -0.016046865, 0.016798906, -0.02872936, 0.0453088, -0.043655712, -0.0030243648, 0.05372844, 0.039626095, -0.002998084, -0.024529038, -0.009487963, -0.027445719, -0.031026479, -0.035579193, -0.0181501, 0.050013345, 0.02372557, -0.016061462, 0.047339648, -0.008399061, -0.033203326, 0.01377825, -0.004903432, -0.051602285, 0.021023804, -0.030336708, -0.009090034, -0.018045198, -0.040637013, 0.004772941, 0.008293109, 0.021487897, -0.0116113555, -0.049756516, 0.008882128, 0.010120918, -0.022760527, -0.008865788, -0.022503264, 0.05137962, -0.013310232, -0.00555948, 0.006627622, -0.037921943, 0.049951717, -0.01894357, 0.034570493, -0.028528573, -0.024986627, -0.01120162, -0.01757022, 0.0056616683, -0.023307614, 0.033055536, 0.011761733, 0.0017236529, 0.0013939741, 0.028045774, -0.04626274, -0.015013957},
			{-0.048259865, 0.010344562, -0.044455, -0.031299654, -0.0051630517, 0.015909713, 0.017511949, 0.0133246705, -0.02457715, -0.026366897, 0.05216964, 0.002637291, -0.025248423, -0.008486422, -0.020756103, 0.02269557, -0.019240586, -0.037291046, 0.032221023, -0.007081942, -0.023408843, 0.016294086, -0.021240493, -0.004602137, 0.02750208, -0.0059412844, -0.021436352, 0.053994875, -0.030847065, 0.04672645, -0.028769428, 0.045097034, 0.0019518139, 0.006219146, 0.04023442, 0.03058256, 0.033073395, -0.02274278, -0.016319318, -0.016721692, -0.042751405, -0.03658951, 0.008579482, -0.033560418, -0.0011621859, 0.052726295, 0.04920567, 0.050835826, -0.03989621, -0.036918536, -0.017826531, -0.03016458, 0.02207559, -0.00875415, 0.0015969169, 0.015902452, 0.031302743, 0.044044137, 0.016903711, -0.03727744, -0.045873117, 0.013792345, 0.014771313, 0.046499405},
			{0.049990956, -0.04424916, -0.007942641, 0.028248137, -0.04112653, 0.036307774, 0.03355521, 0.0016826158, -0.04784272, -0.012186167, 0.048131462, 0.0209926, -0.026950262, -0.035936765, -0.032167416, -0.016050804, 0.023134207, -0.0144791575, -0.027190737, -0.05039618, 0.047493298, -0.011797739, 0.0003180395, -0.010297379, 0.02458795, -0.03863726, -0.004725769, 0.050297245, 0.034747064, 0.019246815, -0.030827193, 0.03506546, -0.00023576492, 0.05258418, -0.016573407, -0.0053069405, 0.044530004, 0.011122137, -0.025595427, -0.012820908, 0.007802561, 0.052967973, -0.0008343048, -0.04483769, 0.008955616, -0.02161214, 0.039993685, -0.0029161081, 0.023700504, -0.0045300853, -0.01932134, 0.02312304, -0.032493178, -0.007978097, -0.014777427, -0.033530522, -0.05210613, 0.03070277, -0.005969451, 0.04719229, -0.02752216, 0.020866727, 0.042162314, -0.036921863},
			{-0.038580686, -0.034460656, 0.045987148, -0.03752759, 0.0003667015, -0.023046594, 0.031221736, 0.0068643694, -0.011545384, -0.04139899, -0.014220231, -0.04851546, 0.0048828954, 0.025852177, -0.0005420322, -0.009971082, 0.018278562, -0.01785227, -0.037645392, -0.0019338741, -0.0020569786, -0.009591595, -0.035167597, -0.020953894, -0.01912834, 0.0473232, 0.030356575, -0.046279017, 0.047092166, -0.040445548, 0.008292749, 0.050111502, -0.03292441, 0.002607199, -0.012133157, -0.017740726, 0.005011601, 0.01399442, -0.036585838, 0.037443794, -0.02589013, 0.020619309, -0.041950613, 0.03468541, 0.019661443, -0.030340906, 0.0118292505, 0.019530311, 0.0046573784, 0.025002912, -0.024094202, -0.0035261065, -0.026921682, 0.008411419, -0.044313706, -0.02709698, 0.024019603, 0.024283046, 0.035720333, -0.03290635, -0.03323328, 0.009490762, 0.04932774, 0.0012470834},
			{0.034450542, 0.039773818, 0.0045822887, 0.03387687, 0.032087065, -0.04508619, 0.009919948, -0.049359523, -0.0044572074, 0.029781515, -0.028213296, 0.051899396, -0.023163043, -0.00546569, 0.03304964, 0.049592253, 0.005995581, -0.009995869, 0.008593096, 0.051013604, 0.0040777465, 0.034985244, -0.029710485, -0.047494404, -0.0016554204, -0.010680556, -0.006096095, 0.03598283, 0.018407414, 0.038399577, 0.04128241, 0.010857003, -0.035814323, 0.0041075046, 0.019590447, 0.03496089, 0.020017767, 0.021350972, 0.03725487, -0.007963368, -0.024550479, -0.007326309, -0.0046310965, 0.050099194, -0.03035399, 0.03193385, -0.02285857, -0.009612168, -0.00350085, -0.04981414, 0.015722418, -0.022659384, 0.026946971, -0.039096955, 0.007093218, 0.032617986, -0.012648995, -0.010163997, -0.052831788, 0.03146985, 0.044935822, -0.012768906, -0.053108174, -0.00071709097},
			{0.049273625, -0.029074632, -0.026728233, -0.043421153, -0.040259708, -0.017660307, -0.04435344, -0.050457966, 0.0016634972, -0.026649123, 0.0039063743, -0.0036625473, 0.03374638, -0.018956535, 0.0345153, -0.04985292, 0.009980004, -0.0020475737, 0.003077791, -0.020780675, 0.05165694, -0.022563793, 0.0060669957, -0.03885701, -0.017678782, -0.031526677, 0.04049948, 0.049579836, 0.04253464, -0.014338439, 0.044389185, -0.049392823, -0.0054058805, 0.023330033, -0.040398978, 0.047116295, 0.05105414, -0.027857555, 0.04220681, -0.045746826, -0.028539084, 0.019773467, -0.007873384, 0.008044315, -0.00046154964, 0.050561566, 0.01071717, 0.0052603525, -0.008682448, 0.048389506, -0.005710974, -0.052195583, 0.007636385, 0.026615055, 0.024301143, -0.04160804, 0.039250433, -0.008457866, 0.024104068, 0.022172801, -0.010999958, 0.051385876, 0.04464669, -0.03685242},
			{0.010500333, -0.0040211775, -0.020328287, 0.050267767, 0.031140503, 0.02800302, 0.02301215, 0.010738748, 0.05084761, 0.027615916, 0.03260798, -0.052025285, 0.049355518, 0.0038072097, 0.042609956, -0.037168145, 0.026343988, 0.02108216, -0.00016584338, 0.0225882, -0.014671214, 0.030260555, -0.032676768, 0.029673753, 0.023103978, -0.042337403, 0.029979164, 0.04752178, -0.016956786, -0.03833458, 0.028554564, 0.048671257, -0.048281122, 0.044597954, -0.013294434, 0.003934785, -0.04018924, 0.012633601, -0.052116435, 0.026214242, 0.04738115, -0.030536303, -0.012562302, 0.02199178, 0.037433658, 0.010170789, -0.04491265, -0.043792054, 0.024426749, -0.013663794, 0.012521412, 0.03130904, 0.013686326, -0.03808539, 0.019854216, -0.015507185, 0.041922953, -0.04836093, 0.03969271, -0.0339536, -0.01455891, 0.020524392, -0.00079482165, 0.017981542},
			{-0.022330727, -0.01853372, -0.045278918, 0.051365156, -0.038737375, 0.041031353, -0.035442878, -0.045168646, 0.029225212, 0.047863398, 0.052141793, 0.013729828, 0.03461761, -0.034821924, 0.020606557, 0.041101262, 0.001459217, 0.014008469, 0.032985665, -0.01216105, 0.04982484, -0.00048817895, -0.02133211, 0.016567959, 0.04820147, 0.046370707, -0.049021576, 0.048645873, 0.03202198, -0.04505367, 0.0052446984, 0.00207155, 0.031959698, -0.033846505, 0.03923254, 0.014833823, -0.042046502, 0.038063336, 0.016321095, -0.03417921, 0.042577036, 0.025416728, -0.011504011, 0.007321735, 0.020412868, 0.006557962, 0.033343233, 0.015104654, 0.045617215, -0.024114132, -0.0072604977, -0.028822016, -0.04614419, -0.0031398544, -0.033566635, 0.035932496, 0.027234368, -0.040960994, -0.039267592, 0.024358917, -0.031511754, 0.008161309, 0.03431624, -0.05207832},
			{0.04477537, -0.017663417, -0.04695008, 0.047268253, -0.047318652, 0.033294942, -0.03193974, -0.051238026, -0.026447468, -0.032062836, 0.051666044, -0.0007648779, 0.051922727, 0.00061538897, -0.051461574, -0.03277798, -0.027985092, 0.049579456, 0.0424272, -0.04768399, -0.013975583, 0.03540843, -0.018985761, -0.034314685, 0.031758692, 0.015558655, 0.031884033, 0.028741015, -0.02519951, -0.04685959, -0.035144795, -0.02564152, 0.03894198, -0.04127975, 0.010098002, 0.0023428714, 0.042571418, 0.03772947, 0.019695668, -0.0050783036, 0.01597166, -0.03063465, 0.026928315, -0.013835478, -0.017383073, -0.0514195, 0.0044275704, -0.021565398, 0.031588506, 0.023803256, 0.04767749, 0.024986219, -0.053188346, 0.021847473, -0.03151368, -0.046397664, -0.024736708, 0.023895387, 0.037332248, -0.027503323, 0.026350604, -0.029284654, 0.05296167, 0.034272283},
			{-0.006383575, 0.042838912, 0.0133276, -0.0058087655, -0.04889748, 0.026396342, 0.0026074192, 0.037877478, 0.039186504, 0.020811072, 0.011046609, 0.00059723464, -0.017883757, 0.02861977, -0.012573951, -0.027201181, -0.039873663, 0.05032142, 0.049988624, -0.04294636, 0.042409837, 0.047867138, 0.04430104, -0.0019449915, -0.049166333, 0.01286992, -0.052431885, 0.009948283, -0.008347551, -0.046131145, 0.032732654, -0.0341607, -0.043895002, -0.03037319, -0.0027160302, -0.048043706, 0.05346862, 0.02351396, -0.047593694, -0.028715942, -0.015783371, 0.04255451, 0.04516871, 0.020648066, 0.033206765, -0.0367869, -0.027236184, 0.032414217, -0.028695812, -0.04519044, 0.049654815, 0.040878136, -0.0105306115, 0.023709266, -0.02394957, 0.028384922, 0.028065162, -0.0059880773, -0.013232415, 0.023432322, 0.05119776, 0.039754707, -0.038545676, -0.041398466},
			{0.01914178, -0.051774826, -0.02902785, -0.021047564, -0.020745462, 0.030114902, -0.042476818, -0.01426635, 0.044063568, 0.026623512, 0.03134956, 0.021223744, -0.008063226, -0.02202369, -0.033663247, -0.00800589, -0.018735537, 0.04864316, 0.02311998, -0.038494617, -0.04047536, 0.023483949, 0.04492191, -0.018840376, -0.043873947, 0.0023845441, -0.029916361, 0.0020606113, 0.04761588, 0.00053766236, 0.0373985, 0.012580794, -0.025694694, 0.041639827, -0.0015258578, -0.046025164, 0.022708734, 0.05267995, 0.007124417, 0.02562883, 0.029660411, -0.039675716, 0.032239523, -0.018647365, -0.034468215, 0.034842607, 0.04189222, -0.010614848, -0.052963715, 0.05205695, -0.03927705, 0.024120178, -0.036954097, 0.028570892, -0.034029055, 0.0502376, -0.005791172, 0.010309212, -0.019374013, 0.051083885, 0.047965597, -0.039955102, -0.04280176, 0.0028107746},
			{0.015354331, -0.004726494, -0.051199753, 0.006525869, -0.03705015, -0.017720222, 0.0025962377, 0.040751122, 0.005003302, 0.006360808, -0.015542738, -0.020011552, -0.007897605, 0.0029577985, 0.0012714962, 0.02430837, 0.009897638, -0.027366599, 0.038651705, 0.031072564, -0.035909552, 0.015329454, 0.04156563, -0.0075577213, 0.017473787, 0.041481562, -0.01089656, 0.025074577, -0.04831976, 0.0024001456, 0.008909967, 0.027983824, -0.05289287, -0.031657416, 0.009990294, 0.047877666, 0.050309017, 0.032891892, 0.02389487, -0.0021372945, 0.050050728, 0.04136511, 0.0018862137, 0.0041461177, 0.004992601, 0.043927215, 0.04546023, -0.040595736, 0.0064096944, -0.027901093, -0.040972065, -0.043182857, 0.0020167814, -0.01640879, -0.019159667, -0.010344296, 0.0072090263, -0.008946931, -0.044333193, 0.020919764, -0.0060375393, -0.052382607, 0.032210276, -0.020702183},
			{0.039775707, -0.011341589, -0.044990674, 0.031459093, -0.025518952, -0.048497494, -0.0060126157, 0.042601153, 0.008471849, -0.04981733, -0.002710169, -0.035921272, 0.021468256, -0.025936505, 0.046151824, -0.012997893, -0.003098444, -0.020967579, 0.01739294, 0.01782171, -0.027099743, -0.052438706, -0.037145417, 0.027240342, 0.0006601264, -0.041511003, -0.019127697, -0.009237962, 0.001284986, -0.01402568, -0.0015098352, -0.0063368008, 0.031178592, 0.04069078, -0.007914067, 0.03642403, -0.047893245, -0.026460087, 0.03448895, -0.033239644, -0.042291384, -0.04913779, -0.017103821, -0.011698229, 0.018812532, -0.030053627, 0.008429484, 0.051369037, 0.038530767, -0.052987576, 0.0003172242, -0.045862406, 0.0006406482, -0.012074729, -0.020790463, 0.0017137554, -0.025840491, 0.038822595, 0.021719174, -0.020666167, -0.039682925, 0.013738455, 0.006408433, 0.042206727},
			{0.003285794, 0.028623471, -0.05249175, -0.027216537, -0.004718389, -0.051882144, 0.013080062, -0.029161833, -0.045505043, -0.004556224, 0.04848427, -0.030904785, -0.04136637, 0.023849683, -0.0101853125, -0.0060651377, -0.04907737, -0.043910895, -0.03857224, 0.018268134, -0.024085004, -0.034853686, -0.00786359, -0.021819776, -0.024551302, -0.034368407, 0.035221912, -0.049615953, -0.04809997, 0.015367188, 0.046199463, -0.04308201, 0.014782457, -0.0047457376, 0.018046647, 0.04354311, 0.0050101485, -0.0089730695, 0.034412995, 0.030487912, -0.031595595, 0.015524247, 0.024658844, -0.004096236, 0.028675608, -0.0452843, -0.03658523, 0.007370682, 0.029854495, 0.04532265, 0.008035974, 0.007469927, 0.048717942, 0.007926259, -0.021071913, -0.046511758, -0.03207269, -0.022651887, -0.03555231, -0.042019192, 0.025410844, -0.021105869, -0.042695753, 0.012474713},
			{-0.0024788612, 0.007064429, -0.008178823, -0.031142902, -0.014026692, 0.029759245, 0.012486184, 0.041914325, 0.015376282, 0.03076361, 0.02759473, 0.03500423, -0.029235847, 0.042533536, -0.043767456, 0.025312567, -0.016188832, 0.043131303, 0.016769152, -0.0134747205, -0.031580545, 0.022452598, -0.0021703679, 0.042783372, 0.009891245, 0.048892494, -0.029045518, -0.033634502, -0.015317998, 0.03043988, -0.017164664, 0.002564765, 0.01488651, 0.047594998, 0.012521013, 0.0194068, -0.024425006, 0.0118396655, -0.055374816, 0.01417875, 0.02763376, 0.025838679, -0.0015803631, 0.0066559627, 0.031258114, 0.0100150695, 0.03457373, -0.0073226234, 0.00851983, 0.025154537, -0.011962286, 0.0007900399, -0.04148565, -0.03964937, -0.034614276, -0.045715377, -0.04412865, -0.012218327, 0.042526726, -0.03868485, 0.023868985, 0.049138658, -0.038338367, -0.04701312},
			{0.036604956, 0.013252461, -0.029774204, -0.026261361, 0.01577458, -0.049094748, 0.0029657292, -0.03709567, -0.044849098, 0.027206518, -0.039571516, 0.036789443, -0.02643211, -0.04243913, 0.0012582875, -0.021644006, -0.012212759, 0.0031235153, 0.0068950774, 0.031354114, 0.038046587, -0.044644434, 0.017729783, 0.0058797044, 0.043849736, -0.045146987, -0.01906784, -0.035288095, -0.039926764, -0.028323483, 0.020596705, -0.0011044441, 0.04838359, 0.04946045, 0.04773305, 0.038294252, 0.024110394, -0.018091183, 0.010724442, -0.011769589, 0.017069705, 0.026007494, -0.04829396, -0.045558996, -0.024209898, -0.03160723, 0.0276688, -0.023671046, 0.018006792, -0.008186779, -0.039954826, 0.007908576, 0.014272926, -0.004958929, 0.019029861, -0.02335705, 0.0145100495, -0.006042957, -0.014695533, -0.04925313, 0.020000348, -0.042842228, 0.015819019, 0.040710222},
			{-0.0060689673, -0.030727716, -0.0058420724, -0.04147543, 0.04711947, 0.022140455, -0.038643535, -0.04216725, 0.014891253, -0.0135364765, 0.0035581691, -0.050809857, -0.03558404, -0.034273412, -0.02995741, -0.020820098, 0.028534908, -0.05328322, -0.040911596, 0.007955759, 0.030817145, -0.025770873, -0.03680452, 0.00786479, 0.028441025, 0.03315882, 0.05123453, 0.020458339, 0.024662811, 0.014930133, 0.0032263615, -0.0075355535, -0.020480696, -0.052930746, -0.04715943, -0.006053164, -0.01918131, -0.02807886, -0.021157634, -0.032834306, -0.051259935, 0.03370473, -0.012599555, -0.029004417, 0.017461836, 0.019687349, -0.050226856, -0.0037077228, -0.023151992, 0.01747445, -0.03032997, 0.034947302, 0.0018306854, -0.0014981709, 0.052932348, 0.036683403, 0.018556487, 0.0406342, 0.036692057, 0.020995019, -0.05150882, -0.018010672, 0.004701266, 0.022315873},
			{-0.04230232, 0.024267117, -0.048184037, -0.050446924, 0.02032894, 0.04068166, 0.037141215, -0.04165271, 0.026063127, 0.04739025, 0.05133143, -0.036536317, 0.0025819463, -0.014113825, 0.03314954, -0.023101645, 0.046716448, 0.054394934, -0.014700196, 0.009048483, 0.006033566, 0.017243028, 0.049777754, -0.04180275, 0.010025676, -0.033834126, -0.028313909, 0.024377268, -0.02046471, 0.045444448, -0.014573999, 0.046070144, 0.04285824, -0.013902202, -0.01866431, 0.04170962, -0.026458597, 0.021128025, -0.016495008, 0.01824894, -0.015830634, 0.041456018, 0.025519261, -0.037028342, 0.003775271, -0.025661306, -0.04870144, 0.025338141, 0.014800138, 0.0084267175, 0.011959621, 0.022687925, 0.026392234, 0.047897536, -0.018120646, 0.04012292, 0.019227466, 0.031601522, -0.028896965, -0.028221361, -0.0134562645, -0.017243126, 0.014224781, 0.006504713},
			{0.048905462, -0.039381616, 0.007033512, 0.031248625, -0.046917982, -0.022531824, -0.05131923, -0.050999865, 0.0361407, 0.024039133, -0.031802464, -0.049219064, -0.05329519, 0.03439795, -0.05009509, -0.013456399, 0.0009603413, 0.009114776, 0.026863702, -0.011844314, 0.0027314955, 0.039064948, -0.019377353, -0.034989122, -0.040658332, -0.0062846504, -0.053073525, -0.040179893, -0.050519746, -0.03177115, 0.034820948, 0.05032245, -0.011479642, -0.009381846, 0.031173015, -0.022173667, -0.034233853, 0.04584909, 0.005249591, 0.02374604, 0.046051033, 0.03911247, 0.033613194, 0.052126344, -0.008581693, 0.040422644, 0.042182446, 0.029611813, -0.021493426, 0.029630005, -0.0066178343, 0.05224595, 0.022159694, 0.008295048, 0.039486937, 0.04957065, -0.045247596, -0.0014160972, 0.03563364, -0.040500905, -0.05231516, 0.00087973394, 0.009252367, -0.050708573},
			{0.038265787, -0.030876739, -0.0335788, -0.047965303, -0.046810236, -0.027906856, -0.037089724, -0.021798244, -0.0075880433, 0.038328826, 0.010613341, 0.0025234236, -0.028712014, 0.02294288, -0.042676263, -0.037112832, -0.020883339, 0.033116277, -0.0032671008, -0.032793943, -0.023432275, 0.038224325, -0.012289828, -0.041902352, 0.04626483, 0.024397478, 0.034050375, 0.026663747, 0.040687494, -0.035396982, 0.008100539, -0.03288346, -0.027167905, 0.017224131, -0.0073794415, 0.024977306, 0.014291209, 0.03718882, -0.01798569, -0.008165005, 0.04432173, -0.019542309, 0.020134408, 0.051445644, 0.008140133, 0.03740869, 0.0028126817, -0.028026791, 0.047143005, 0.0414998, 0.031265534, -0.011205153, -0.019761318, -0.050421692, 0.0043033077, -0.016478388, -0.009716387, 0.053191625, 0.027388183, -0.050896153, -0.00041417454, 0.048221204, -0.051749893, -0.0094057005},
			{-0.021418499, -0.05152232, 0.025370834, -0.036057536, 0.012545575, -0.009253784, 0.025271568, -0.0031423082, 0.011662525, -0.02890002, 0.050762482, -0.034014396, -0.030232698, -0.022025345, -0.045216877, -0.0053030094, -0.018225405, 0.013150807, 0.026370833, 0.013127001, 0.011627079, -0.025905844, 0.049340963, -0.026641972, -0.0050555156, -0.04094801, -0.033944774, -0.004416416, -0.019781848, -0.033472266, -0.04254824, -0.036597054, -0.047353346, -0.04412941, -0.031941485, 0.008015701, -0.0347116, -0.0047623473, -0.041457884, -0.040103912, -0.03058763, -0.03745976, 0.0053191166, -0.020709265, 0.021352619, -0.032887258, -0.034642432, -0.03820305, -0.041145135, 0.018072918, -0.022743162, -0.05358007, -0.036878776, -0.042771064, -0.029590188, -0.04566674, -0.05114225, -0.03519105, -0.03826805, 0.030142069, -0.05440357, -0.017803073, 0.041012127, 0.040435623},
			{-0.022730662, 0.029039346, -0.036482196, -0.04242988, -0.043890722, 0.029400252, 0.035878405, -0.026231928, -0.048469584, 0.03493308, 0.01591621, -0.025635917, -0.0068069776, -0.04954354, 0.025816986, -0.001333833, -0.03274144, -0.05153663, 0.009951036, 0.022202112, 0.0286671, -0.02077415, 0.013986966, 0.053638782, 0.015492772, -0.009838265, 0.050934356, 0.045942847, -0.022277985, -0.04381035, -0.051480792, -0.004229288, 0.033665705, 0.050391283, 0.035446145, 0.019370535, -0.039917495, 0.024316577, -0.012607342, 0.044366725, 0.04224648, 0.012355121, -0.043680955, -0.009981125, 0.023283882, 0.040325616, 0.039309263, 0.050609253, 0.025344053, 0.011571211, 0.026642062, -0.008285133, -0.023919411, 0.030753804, -0.007665058, -0.013099935, 0.05107131, -0.035394292, 0.04908359, 0.005437524, -0.019198915, 0.011552224, 0.03197849, -0.0042442917},
			{-0.003959003, 0.010384876, 0.01031676, -0.00036547525, -0.01973721, 0.017217847, -0.032774284, -0.008601681, 0.0065112915, 0.0144127235, -0.017427623, -0.04343659, 0.03511048, 0.052278668, -0.027193664, 0.048200477, 0.03882695, -0.048107427, -0.025321346, 0.029731372, -0.052635223, 0.0047175917, -0.027606886, 0.051009662, -0.015681924, 0.027873747, 0.0350827, 0.034504235, 0.0043915436, -0.000561432, -0.036134634, 0.00205207, -0.03384991, 0.03172045, 0.009776693, 0.03674608, 0.011673676, 0.050743915, 0.040058937, -0.019458175, -0.05252046, 0.016185587, -0.040674552, -0.037880786, 0.03323204, 0.04816132, 0.034518465, 0.040483013, -0.036211614, -0.038187083, -0.035205726, -0.029039377, 0.028864281, -0.0051749703, -0.045516323, -0.05347277, 0.03817495, -0.040724114, -0.0075484845, 0.012049042, 0.0056389584, -0.052080896, -0.010253392, -0.047684915},
			{0.020800382, -0.01663926, -0.042256624, -0.042904798, 0.0015444625, 0.039518125, -0.01965854, 0.041830428, -0.020367324, -0.032286555, 0.029749941, 0.052133072, -0.04576009, -0.04292048, 0.03926167, 0.013027173, 0.015701292, -0.020862013, 0.01313853, 0.0075135897, 0.030010147, -0.021117592, -0.00937601, 0.013243722, 0.003562097, -0.017943608, 0.030736407, -0.010092743, -0.011757728, 3.3693323e-05, -0.053057913, -0.016879419, -0.027522508, 0.019658795, -0.013826267, -0.001181931, 0.038311336, -0.0260178, 0.007849944, 0.007925165, -0.017262664, -0.0012205064, 0.024282264, -0.03535515, -0.007890217, 0.008450419, -0.03327484, -0.021617321, -0.034635976, -0.045652654, -0.041338243, 0.034570854, -0.046348922, 0.013055701, -0.026286282, 0.035981447, -0.0208649, -0.04619098, 0.03795236, 0.032548733, 0.0014995337, 0.03557594, 0.013732449, -0.021081066},
			{0.023052247, 0.04666274, -0.045022096, 0.041591883, -0.0046048327, 0.018816924, -0.01873548, -0.0017235894, 0.027628183, -0.014741754, -0.03719556, -0.05167123, -0.03877533, -0.009223955, -0.006134919, 0.02696768, -0.016201308, -0.042511813, -0.030298555, -0.0218212, 0.03498457, -0.019073887, 0.015647154, 0.011349927, -0.04123323, -0.0051646144, -0.029094592, -0.028846795, 0.04222122, -0.031662084, -0.043699045, -0.016172646, 0.041426938, 0.0016005159, 0.006712914, 0.016855694, -0.053182036, -0.021857964, -0.02951184, -0.0075232354, -0.030180212, 0.015235707, -0.013621541, 0.00022910691, -0.04777125, 0.045134585, 0.011335112, 0.047228355, 0.010980727, -0.011781455, 0.021637004, -0.040307406, 0.034206305, -0.04783224, -0.03798567, 0.00088098337, -0.020417316, -0.031220457, 0.0066231214, -0.038961064, 0.042273596, -0.050139822, -0.010981352, 0.03836947},
			{0.019488009, -0.029787319, 0.029882105, 0.0393254, 0.008644542, -0.0025896642, -0.028036874, -0.013604509, 0.01714138, -0.037372388, -0.05017626, -0.045267325, 0.04320824, -0.020847404, 0.018770825, 0.04123807, -0.051402204, 0.05089934, -0.012839602, 0.04027323, 0.004615431, -0.0017686664, 0.041492604, 0.039919402, 0.04235021, -0.016179787, 0.025047908, -0.022351567, 0.04245715, -0.017982349, 0.030839996, 0.024164347, 0.022477204, 0.008695804, -0.008602632, -0.0052139144, 0.03798868, -0.018274812, 0.038478836, -0.027594153, 0.0064077894, 0.037150487, 0.05082061, 0.02839364, -0.016489506, -0.014364376, -0.015144448, 0.04145742, 0.035614334, -0.034084976, -0.00775835, 0.030945, -0.007572703, -0.048203364, 0.043785434, 0.0062011136, 0.024110787, -0.020899415, 0.0005421829, 0.031554263, 0.04513389, -0.010952736, -0.044505782, -0.003810293},
			{-0.044998668, -0.01670858, -0.027479202, -0.014898075, 0.031564575, -0.023341468, -0.019980542, 0.00164211, -0.047073, -0.0037167526, -0.04164544, 0.028850518, 0.04079649, -0.0061500217, 0.0322857, -0.033693235, 0.03432238, 0.051945895, -0.038529944, -0.022872237, -0.013635215, 0.018775351, -0.028714657, -0.036697928, 0.02443124, 0.04975995, -0.038369983, -0.026795749, 0.011950138, 0.017182011, 0.011991528, -0.045280706, -0.04047827, -0.042825393, -0.03525635, -0.026439132, -0.0152382655, -0.0032145283, 0.018996062, 0.028447486, -0.019495301, -0.045280773, 0.044841334, 0.017384581, 0.0013680494, -0.03879412, 0.009047968, 0.03204033, 0.005128494, 0.018279713, 0.028397104, 0.04161956, -0.020996315, 0.020822866, -0.027698942, -0.051672425, -0.043055214, -0.0011504367, 0.03404426, -0.030083204, 0.023004932, -0.019906523, 0.0076797805, -0.04569636},
			{0.020584555, 0.0349129, -0.014294413, 0.020025587, -0.022409946, -0.044281203, -0.010421637, -0.03349783, -0.009691346, -0.037662182, 0.0055079167, -0.03736242, 0.008849516, 0.029756503, 0.0035073431, 0.009663079, -0.016927006, -0.024764339, -0.046468385, -0.04072758, -0.02557835, -0.014840026, 0.03508777, 0.03672536, -0.018969383, 0.007256758, -0.041268393, 0.025513189, -0.009882507, 0.03571995, 0.0244713, 0.045644473, 0.051286537, -0.050633166, 0.04759899, 0.008631378, 0.031432807, -0.04123875, -0.050017156, 0.03418727, 0.026068935, -0.027433164, -0.05369379, 0.03635363, 0.0055853706, -0.033927813, 0.021925006, 0.026706323, -0.009230442, -0.02696051, -0.0233134, -0.00046983088, -0.036760762, 0.0075593446, 0.020314878, 0.028645286, -0.0046885824, -0.02463596, -0.0409927, 0.0044939057, 0.05092459, -0.044858605, -0.03555416, -0.023737341},
			{-0.012579084, 0.028060505, -0.006965218, -0.025416514, 0.016991608, -0.014445323, -0.04282368, 0.011718909, -0.051001288, -0.005046324, 0.04160023, -0.04185975, -0.040137105, 0.039843537, 0.015284829, -0.044378597, 0.019021539, 0.02888091, -0.05379116, -0.016874742, 0.01288929, -0.03784006, -0.011542216, 0.009862728, -0.019949276, 0.03166065, -0.050277293, 0.002021108, 0.0052015935, -0.04940312, -0.049534865, 0.0072258348, -0.039765716, 0.010572267, 0.00912908, 0.047835954, 0.0255282, 0.0049360185, 0.004957713, 0.042852513, 0.039739553, -0.020351382, 0.04828796, 0.02065952, 0.025055736, -0.026738804, 0.033647466, 0.03448165, -0.03628087, -0.039762437, -0.05183012, 0.041015726, 0.022617767, 0.022162065, 0.030234452, -0.030551748, 0.00472687, 0.04771532, -0.008943352, -0.026020821, -0.006726456, -0.027288398, -0.043532643, 0.048512407},
			{0.0051006847, -0.009723695, 0.042904135, 0.024864255, -0.028730841, 0.030602975, -0.02831294, 0.0041928827, -0.022656683, 0.011216895, 0.029674489, -0.032851603, -0.04691777, 0.03937193, -0.04993392, -0.01646202, -0.045713708, 0.024930693, -0.03590499, 0.0057171346, -0.018717477, 0.04731639, 0.034078795, -0.002678215, -0.012991477, 0.0437268, 0.0137242805, -0.021895407, -0.024994535, -0.04384025, 0.044000085, 0.0030320988, 0.042719547, -0.013484162, 0.045058854, -0.015574877, -0.036784623, 0.040330514, -0.0033766825, 0.0306865, 0.035324827, -0.029137762, -0.032424334, -0.015809083, -0.04750636, 0.03502406, -0.028911144, -0.036877975, -0.051906284, -0.014817917, -0.03146248, -0.012762031, -0.03722294, -0.0009962842, 0.027837642, 0.037064426, 0.006655867, 0.0059105246, 0.030562054, -0.050043397, -0.003654176, 0.04326689, 0.021754872, 0.009728726},
			{0.017294731, -0.013372235, 0.015543981, 0.018712305, -0.0055986405, 0.04545416, -0.012372802, -0.025511552, -0.046248812, -0.0058135, 0.03730324, 0.04995959, -0.051044192, -0.049962416, -0.012253984, 0.016225485, 0.0025453784, 0.051944625, -0.02466666, 0.0450551, 0.04935257, -0.0076320176, -0.022617035, -0.02786745, -0.016326422, -0.026342692, 0.0093487, 0.048289943, -0.042130236, 0.052114435, -0.045096844, -0.010303981, 0.016633408, -0.0024231065, -0.02679781, 0.03966872, -0.0075455694, 0.017499147, 0.051629156, -0.02240449, 0.0044288123, 0.007426867, 0.05248338, -0.044226117, -0.0036023653, 0.02340394, -0.04290605, -0.012999693, 0.05034785, 0.01414357, -0.026763082, -0.0065095215, -0.04381886, -0.007197824, -0.034611557, -0.009397656, -0.026028404, -0.029983584, -0.046600856, -0.02873705, 0.039188076, -0.049048398, -0.039017133, 0.04686826},
			{-0.009310339, -0.025411714, 0.013273151, 0.024589079, -0.045125023, 0.0076859123, -0.033133607, -0.019609513, 0.02486365, -0.008693095, -0.039098445, 0.020727633, -0.0372708, 0.0041618417, 0.05065444, 0.023172239, 0.04750078, -0.03365932, -0.052651607, -0.026651386, 0.014421821, 0.04046385, -0.044592213, 0.014381809, 0.027090134, -0.009685141, 0.05123639, 0.01800914, 0.030141525, -0.038678963, -0.04461808, -0.010139114, -0.0056808125, -0.015908958, -0.047893852, -0.022438683, -0.016936405, -0.038713977, 0.020125855, -0.04646004, -0.02226244, 0.026851958, 0.047081247, 0.04402144, -0.0089853145, -0.049931433, -0.044294816, -0.03201965, 0.03296365, -0.049496002, 0.047481515, -0.0172709, 0.009483484, 0.0123816095, 0.045528952, -0.018927364, -0.052506812, -0.052082043, 0.016210176, -0.051452283, 0.015529422, 0.026255947, -0.009952876, -0.004917376},
			{0.024901956, 0.009242986, 0.04925878, -0.012625192, -0.029400386, -0.046609327, -0.0033023153, -0.041207615, -0.0029488464, -0.04767927, -0.010725423, 0.03217678, -0.050301794, -0.026321018, 0.048185207, -0.05067474, -0.027277151, -0.009011241, -0.028226243, 0.036437776, 0.016146038, -0.009151441, -0.041712597, 0.0029813142, -0.009254096, 0.035738304, -0.02142862, 0.042940382, 0.029452162, 6.883001e-05, 0.04883513, 0.045781177, 0.021410191, 0.017897442, 0.01205573, -0.035166033, -0.0011057062, 0.021117305, 0.01720259, -0.02640067, -0.02888824, 0.033346463, -0.04802863, -0.03986824, -0.01722955, 0.002373736, 0.03280603, 0.014364434, -0.021979254, -0.049734432, -0.033133037, 0.012303228, 0.030751312, 0.05100653, -0.04692155, -0.029557265, 0.034977436, -0.025191104, -0.033100568, -0.02495115, -0.021291511, -0.051342487, 0.029005188, -0.020343311},
			{-0.047066513, 0.027497819, 0.035227578, -0.040414263, -0.0010552069, -0.013735031, -0.033151045, 0.0032873552, -0.039708268, -0.010043166, -0.030063936, 0.032161158, -0.02700266, 0.016602878, 0.0048957784, 0.02714958, -0.016379958, -0.025149455, 0.03316765, 0.049186744, 0.032998294, 0.052386902, -0.036703695, -0.023062829, -0.002897101, 0.04977426, 0.022787664, -0.011140861, -0.043162275, -0.04143026, 0.044201713, -0.013966304, -0.004050373, -0.030180389, 0.01306218, -0.024236148, -0.03400344, 0.0030321546, 0.035410993, 0.032297947, 0.014616944, -0.010872851, -0.016955072, -0.009939277, 0.0033892866, -0.023984667, 0.01939324, -0.008815977, -0.017291082, 0.030265635, 0.018630696, -0.022716286, -0.021749368, -0.028119355, -0.032906614, 0.0039875875, -0.029030718, -0.049525145, 0.0008495932, 0.016699083, 0.0009875011, 0.031443935, -0.044935998, 0.030730298},
			{0.0009230213, 0.015450784, -0.05282442, -0.0085232, -0.035157654, -0.048246875, -0.043096293, 0.028398447, -0.05083345, -0.0283684, 0.037136953, 0.032769714, -0.03590949, -0.023080928, -0.0022524074, -0.045747243, -0.030907005, 0.011261883, -0.03235364, -0.031661414, 0.033784993, -0.04201793, 0.022297174, 0.0025399867, 0.02088768, 0.018594077, -0.049486056, 0.0028247044, 0.025686722, -0.033042446, 0.029795073, -0.050998442, -0.04883734, 0.0060712798, 0.0094270045, -0.03690846, 0.0064070504, -0.034481373, 0.04221691, -0.05257105, -0.044384632, 0.026734686, -0.03411482, -0.023097044, 0.015736341, 0.0326028, 0.027122185, 0.017291514, -0.0060459953, 0.011329566, 0.002177782, -0.027218422, 0.05176149, 0.008690476, -0.016114095, -0.005250962, -0.018062565, 0.027203595, -0.031246822, 0.019862603, 0.029560281, -0.0020280152, -0.027180398, -0.021990875},
			{-0.022705717, 0.0324451, 0.032565664, -0.044481147, 0.044041906, 0.045725584, -0.015617368, -0.01171617, -0.002075088, 0.022258703, -0.043520506, -0.04064422, -0.018596541, -0.0069832643, 0.020026186, 0.027907807, -0.034833558, 0.05242402, 0.044164103, 0.028039863, -0.038506463, -0.028181856, 0.03579086, 0.015524127, 0.018811304, 0.052056465, -0.027134666, 0.005645538, -0.029563881, -0.017906027, 0.0023172058, -0.03239471, 0.008613801, 0.011259487, -0.03796984, -0.0066569266, -0.013521317, -0.041451056, 0.043918256, 0.0063779233, -0.019447912, -0.0014522597, 0.025198042, -0.010404104, -0.00030487543, -0.025119135, 0.03270496, 0.03895963, -0.03167551, -0.03318772, -0.02758241, 0.037517842, -0.04812259, -0.01589806, -0.02614095, 0.034743212, -0.01882229, 0.0113475295, -0.029050171, 0.020316884, -0.0079072025, 0.020612122, 0.009071884, -0.040807746},
			{0.026589142, -0.044037413, 0.0046910536, -0.047394767, -0.021943416, -0.019652043, 0.036554106, -0.047717266, 0.04927471, -0.03239491, -0.001053423, -0.03106063, -0.045623556, 0.046084296, -0.02224724, -0.024405126, 0.011210363, 0.017511174, -0.0006124288, -0.014558999, 0.015695477, -0.014244479, -0.013870459, 0.0230267, 0.010506816, 0.001870109, 0.03472778, -0.025196008, -0.025517741, -0.008044134, -0.040659416, 0.053109877, 0.01015822, -0.036024366, -0.03437305, -0.039630637, -0.017829727, -0.037928108, -0.03462353, -0.029041959, -0.018393058, -0.042256773, 0.041670937, -0.032937117, 0.010761901, -0.0016781525, -0.028952625, -0.027534558, 0.005686031, -0.0029354738, -0.010703351, -0.029343799, -0.009125419, -0.0021184094, 0.018532291, 0.018411389, 0.0068749427, 0.01704108, 0.05083694, 0.023103938, 0.0029473584, -0.00264468, -0.010026846, 0.03344338},
			{-0.049438193, -0.033126038, 0.026472988, 0.01778075, 0.0144449705, -0.018995749, -0.02671893, -0.04521824, -0.052757353, -0.012685482, 0.02745071, -0.024966484, -0.0011371439, 0.024597295, -0.0026909455, 4.798996e-05, 0.0070476304, -0.043981623, 0.022851204, 0.006702917, -0.028652426, 0.0065237377, -0.026339233, -0.016939223, -0.016664058, 0.017171156, 0.037756845, 0.03502991, -0.0020466584, -0.024070548, -0.048149336, -0.013232872, -0.027455514, -0.016748881, 0.01599473, 0.034603406, 0.053333156, -0.010386291, -0.016808705, -0.01582227, 0.02186799, -0.047538187, -0.025589515, 0.02934761, 0.026019037, 0.0080366675, 0.04588718, -0.0095228935, -0.04215314, 0.052534062, 0.0019742793, 0.04336159, -0.021939367, 0.002896282, 0.038795143, -0.019434744, -0.0053320085, 0.0020457918, 0.0121292835, 0.029894082, -0.04490271, 0.017471034, 0.045749396, -0.036909025},
			{-0.007085466, 0.032783482, 0.006424187, 0.051800516, -0.045551695, 0.043247286, 0.044101104, 0.009236464, 0.032877553, 0.049938977, 0.002783411, 0.010049386, 0.051698886, 0.042778514, 0.0177462, 0.015806206, -0.028167155, -0.034721017, -0.022627158, 0.0114990035, -0.006324913, -0.026492696, -0.035437312, -0.009351945, -0.009332174, 0.013977644, -0.007901952, 0.01650515, 0.025735514, -0.028077533, -0.018827528, 0.015876917, 0.007868335, 0.0050856234, -0.038450126, -0.022801764, -0.039816003, -0.018106516, -0.037946187, 0.012117388, -0.031240813, 0.020218173, -0.045639273, -0.0427506, -0.025093757, -0.04744377, -0.0332095, 0.028649218, -0.04877791, 0.05219977, -0.033317648, -0.041187603, -0.041191857, -0.006741664, -0.014085796, 0.012060328, 0.0021818841, -0.03199096, 0.028282302, 0.042856332, 0.0010305058, 0.030918716, 0.046791065, 0.0074038994},
			{0.0037429684, -0.008719249, -0.04841059, 0.043029655, -0.042078104, 0.03507398, -0.046334356, -0.039150614, 0.026128087, -0.02947263, 0.036075484, -0.0053731855, 0.03669751, 0.051680278, -0.028114451, -0.010379947, 0.01993799, -0.024002796, -0.042510465, 0.023263333, -0.019957097, 0.045205627, -0.042666417, -0.022096686, -0.008712865, -0.030135345, -0.0068923705, -0.014654551, -0.0068210056, 0.009750391, -0.037981316, -0.023268964, -0.0036816509, 0.024390252, 0.03549127, -0.031298406, -0.010598281, -0.0076884474, -0.018415485, 0.030100333, 0.035311528, 0.051639184, 0.04983638, -0.041381232, 0.049840137, -0.03416589, 0.045109507, -0.0125326775, -0.042116433, -0.024085283, 0.0016551227, -0.038293123, 0.03323904, 0.011867875, -0.045862354, -0.011247993, 0.01594911, -0.019398745, 0.01783477, 0.050151065, -0.0019095785, -0.021649925, -0.02601632, 0.032327596},
			{-0.040800456, 0.031461887, 0.0045037703, 0.009124398, -0.0016129869, 0.0095631685, 0.013019247, -0.0044412627, -0.045403257, 0.030484578, 0.023307983, -0.040397238, 0.013304685, -0.030023618, -0.018071616, -0.011848424, -0.00831901, -0.021506054, -0.042483363, -0.044059444, -0.021062417, -0.006630821, -0.019433506, -0.042506944, 0.031138923, -0.01975794, -0.020800253, -0.033395227, 0.022372022, 0.03166494, 0.027044581, -0.02077966, 0.03075497, -0.05251448, 0.009355104, 0.044775136, -0.008010232, -0.018034687, 0.028151905, -0.0050512287, -0.023871515, 0.030218003, 0.03804628, -0.042639572, 0.020118278, 0.043073546, -0.019745817, -0.04495568, -0.048664562, -0.008468184, 0.02408282, -0.04053709, 0.00870239, 0.019468943, -0.046084367, 0.012393503, -0.019588701, -0.014556962, -0.042965345, 0.011166259, -0.026985118, -0.04688194, 0.0037588936, -0.00957306},
			{-0.051274166, 0.02233812, 0.003985491, -0.011871292, -0.025740147, 0.048884936, 0.016539047, 0.050831262, -0.021554407, -0.018573906, 0.05118487, 0.0066892146, -0.031330507, 0.0039990013, -0.05026682, -0.0029110082, 0.0055159163, -0.050396148, -0.013563165, 0.0052131605, -0.032987177, -0.012332031, 0.04574495, -0.020087697, 0.0077742874, -0.049878642, 0.050719995, -0.015491823, -0.027849818, -0.046735436, 0.010219335, 0.017668968, 0.033445638, -0.026298458, 0.031217355, 0.038842846, 0.048621338, -0.0018483016, 0.016571555, 0.023452904, 0.03543074, -0.008640066, 0.012597525, 0.029823788, 0.0076955166, -0.012790886, -0.019354371, 0.033277012, -0.029504845, 0.029791905, -0.053175572, -0.03777961, 0.05358082, -0.037118576, 0.033925146, -0.0046123024, -0.05132843, 0.01300313, 0.028607426, 0.0106799705, 0.010270879, -0.026987165, 0.023795692, 0.009869152},
			{-0.016577266, 0.0031137448, -0.040721443, -0.0063075186, -0.002328108, -0.0274697, -0.03305044, -0.051999297, 0.046253987, -0.035492186, -0.040522557, -0.046913616, -0.0028244108, -0.019470084, 0.005709904, 0.006588655, -0.021554545, 0.034880906, -0.017236685, -0.010945202, -0.02940687, 0.013955021, 0.026669098, 0.006247432, 0.044721026, -0.022872366, -0.031434175, -0.021082655, -0.030861733, -0.027805649, 0.02200008, 0.039772626, 0.045631826, -0.027084008, 0.04928663, 0.0063987733, 0.019031188, -0.02166755, 0.03005767, -0.012148071, -0.02209611, -0.0014355893, -0.019482626, -0.03193781, 0.049554177, -0.014099085, -0.018822258, 0.027830167, -0.006500328, 0.013706605, 0.010515141, -0.0047010956, 0.035695907, 0.0044704336, 0.008670797, -0.03251783, -0.006248282, -0.015955362, 0.035537284, 0.005123395, -0.026776597, 0.020992076, 0.018910602, -0.048026543},
			{-0.038730424, 0.032712836, 0.016798131, 0.021713503, -0.015114071, -0.0021460254, -0.030723829, 0.02637614, 0.030392354, 0.0019997405, 0.011072431, 0.0238339, 0.04025227, -0.011457412, 0.04350868, -0.016883258, -0.016279647, -0.046226863, -0.041626398, -0.026185168, 0.050527588, -0.011691876, -0.0044949637, 0.018255455, 0.030843789, -0.04491574, 0.043661226, -0.030366817, 0.019431291, -0.024426073, 0.020467982, -0.032166615, -0.05065504, 0.040882412, -0.050706595, -0.008759712, 0.026888274, -0.013878615, -0.035793316, 0.012191484, 0.031856764, -0.025537426, -0.01768928, -0.0074287825, -0.03404447, 0.008121338, 0.015706863, -0.0022281336, 0.018988444, 0.044817258, 0.036545634, -0.039074983, 0.010624116, -0.039922845, -0.009742486, -0.0064778877, -0.045655776, -0.017390585, -0.04126202, 0.019525358, 0.022816267, -0.0074343123, -0.031381693, 0.04073891},
			{-0.033615626, 0.01794752, -0.039944004, -0.004735942, -0.010254517, -0.031219486, -0.046663683, 0.011070105, 0.0063160313, 0.0069902493, 0.028793652, 0.0040875445, 0.040094916, -0.04824482, 0.00940975, -0.028228503, 0.03384408, 0.0089825895, -0.006977125, 0.050800547, -0.0153843155, -0.038970154, -0.047278717, 0.006490448, -0.00050096697, -0.006880501, -0.026173308, 0.010558668, -0.026184047, 0.015498106, -0.014429121, -0.039086614, -0.04580934, -0.036900055, -0.011746956, 0.0052514733, 0.033527054, 0.036132153, -0.023025988, -0.046358828, -0.024033625, 0.0045919274, -0.023984816, 0.0005292764, 0.044776924, -0.013847903, -0.00023781673, -0.029726198, -0.026810259, -0.019970238, 0.0010317295, 0.006501012, -0.043612927, -0.037235253, -0.05010443, -0.04435531, -0.00445268, -0.04686055, -0.048920568, 0.023756724, 0.043131232, -0.023560677, 0.004829256, 0.0180537},
			{0.011371759, 0.023996044, -0.010130442, -0.04771371, 0.05016264, -0.0030266887, -0.048226878, -0.034760773, 0.033629116, -0.04092159, 0.0020585991, 0.035131585, 0.04791747, -0.00882262, -0.02546002, -0.019944599, -0.03578706, -0.04380614, -0.022590367, 0.025269698, -0.03774481, -0.048386212, 0.013420615, 0.024039539, 0.032550093, 0.027346257, 0.0283704, -0.00971173, -0.04157823, -0.023997853, -0.04043265, -0.022601563, 0.04209175, -0.01543847, -0.050300594, -0.04564622, -0.033110023, -0.010159413, 0.043191634, 0.021678567, -0.031396918, 0.032012872, 0.051828496, 0.048492175, -0.035296872, -0.0075488966, 0.0038764381, -0.023545025, 0.04166117, -5.5340435e-05, -0.016681612, 0.044307597, 0.04944285, 0.020115541, -0.047187906, -0.01362418, 0.02887613, 0.044625025, 0.029303899, -0.02572066, -0.05032459, 0.03515101, 0.024215428, 0.025739016},
			{-0.020084906, 0.004733101, 0.027020734, -0.006590893, -0.02010907, 0.03242654, -0.03399631, 0.037515946, -0.0011868745, 0.030751185, -0.04487845, 0.024556112, -0.011510055, 0.0028097162, -0.040586654, -0.008809121, 0.043863572, 0.002342257, -0.02576735, -0.0017702626, -0.02636316, 0.04077751, -0.05127204, -0.023433477, 0.013705965, 0.04088426, 0.03931637, 0.033171583, -0.032255374, 0.009548397, -0.027817855, -0.010113738, -0.007997045, 0.042077165, 0.043222494, -0.033828575, -0.0030259027, 0.02147856, -0.039204445, -0.02853086, -0.031703677, -0.043391168, -0.016598225, -0.0253479, 0.011512016, 0.0030948592, -0.0027972308, -0.03754145, 0.015290726, -0.037842263, 0.0066030105, 0.036540467, -0.046054464, -0.0028074456, -0.038835008, 0.036503024, 0.041139282, -0.03492191, -0.007058082, 0.010254133, 0.042933356, -0.05223938, -0.03308262, -0.010832034},
			{0.03976899, 0.039535575, -0.03425524, -0.0027922408, -0.04255742, 0.0071441564, -0.048713166, 0.044102952, 0.021540763, -0.031426705, 0.035108875, 0.032441933, 0.04733297, -0.043166284, -0.04353469, 0.016444325, -0.03745806, 0.050160076, -0.020748507, -0.047788873, 0.049541917, 0.022650272, -0.011863569, 0.00050918164, 0.033631038, -0.015955841, 0.013904881, -0.043131337, -0.03082312, -0.025187701, 0.0070506567, 0.0037594887, -0.036014084, 0.038038544, 0.033781253, -0.038287766, -0.04294391, 0.029664265, -0.028545568, 0.01650704, -0.0053054835, 0.03104168, 0.026870567, 0.04909359, -0.024531953, 0.009899086, 0.006928953, 0.04334988, 0.0089562135, 0.039864875, -0.02547375, 0.0264479, -0.02457176, 0.014518597, 0.046849065, 0.007470078, 0.023823686, -0.029808668, -0.050503682, -0.01109729, -0.017421039, -0.039158214, 0.030289667, 0.026589707},
			{-0.022308344, -0.046365995, 0.013015769, -0.044142768, 0.039436307, 0.039340768, 0.017677205, -0.0056378273, 0.014582281, 0.023514915, 0.041670334, -0.008646372, -0.028154567, -0.05029251, -0.023526514, -0.015963688, -0.007524618, -0.008033631, -0.012677669, -0.0074317423, 0.013075118, 0.047459807, 0.01622965, -0.051381946, 0.046528846, -0.041603517, 0.020625753, 0.03641134, 0.024191627, -0.05194785, 0.048718363, -0.019608948, -0.04701876, 0.045553442, 0.025146347, -0.036158223, -0.033584714, 0.053372707, 0.004189472, -0.0527463, 0.0044079665, -0.0030492314, -0.041220244, 0.04099661, -0.040793885, -0.0052783573, 0.018143376, 0.0062433337, 0.013707595, 0.009162097, -0.038540464, -0.0050482736, 0.015398294, -0.022878727, -0.025857426, 0.0029546784, 0.0030580303, 0.023318721, -0.031397425, 0.0067524523, -0.010899492, -0.0438447, 0.014680376, 0.038299814},
			{-0.010721279, 0.007867275, 0.011099515, 0.044950362, 0.041253615, 0.040815927, -0.0327442, -0.010351466, -0.033034205, -0.019958435, -0.0012420453, -0.030963648, -0.042843957, 0.014667417, 0.04908555, -0.04801347, -0.01303722, 0.017329097, -0.010896392, -0.010249704, 0.00044462766, 0.0065320292, 0.040149834, 0.03917123, 0.049581483, -0.03827121, 0.0448133, 0.022601455, -0.004460293, 0.044965062, 0.021445248, 0.02055657, 0.029121803, -0.036409035, 0.049807046, 0.015674628, 0.04667722, -0.018395081, -0.0069385623, 0.03749201, 0.030704051, 0.051420946, -0.052575946, 0.04598851, 0.029274639, 0.03781499, -0.047242537, -0.024541672, -0.005038019, -0.011117344, 0.03077306, 0.012403649, 0.019200508, 0.011170181, 0.0393966, -0.04589067, -0.041890636, 0.04689578, 0.05006641, 0.035089742, 0.0122878775, -0.050800096, 0.0047444976, 0.003843073},
			{0.024283085, 0.029767657, -0.027447207, 0.042923443, 0.024987465, -0.038112752, -0.044030264, 0.019255975, -0.017194236, 0.01354266, -0.016466217, 0.034861248, 0.049967814, -0.043434113, -0.0501671, 0.009121058, 0.050867528, 0.043930255, -0.044132404, 0.022821756, 0.009932205, -0.018732436, -0.02359293, 0.0006239552, -0.048710074, 0.052969526, 0.03322934, -0.051056083, -0.048778243, 0.021197181, 0.046322286, 0.008922043, -0.019813815, -0.0055790436, -0.034869015, -0.038422506, -0.007546702, 0.016481258, -0.018204905, -0.031377144, 0.010611915, 0.0057579954, -0.0112254545, -0.018940601, -0.03937612, 0.010253942, -0.02116892, -0.045066375, 0.037585624, -0.042251788, -0.05146598, -0.03457479, 0.012615282, -0.035157844, 0.03934203, 0.028246088, -0.016436914, -0.02572798, 0.04892561, 0.0069600255, 0.022072166, -0.019776054, -0.006037748, 0.019702412},
			{0.013928339, -0.013377617, 0.0038132493, -0.01620419, 0.0056771007, -0.019982943, 0.052486375, 0.009407672, -0.037585367, 0.00935787, 0.028291758, 0.0072528822, 0.012688752, 0.050738778, 0.047233254, -0.039976165, 0.047961436, 0.04601693, -0.004779014, -0.0101546, -0.001605695, 0.0011259146, 0.009967376, 0.04731621, 0.043287203, -0.0281469, 0.04548355, -0.04345889, 0.009425752, -0.01990101, 0.0127100535, -0.015627153, 0.051120207, 0.0017136544, -0.017163256, 0.006393137, 0.044933535, 0.05434514, -0.0022480392, -0.026531868, -0.030911546, 0.035480138, -0.03557957, 0.042783495, -0.04082036, -0.05350912, -0.028946798, 0.031402253, -0.03363974, -0.019558758, -0.0093701165, 0.006181811, 0.014257317, -0.03558723, 0.013752831, 0.002495171, -0.02649307, -0.0064579686, -0.008374177, 0.053768136, 0.051551413, -0.0067507625, -0.02820777, 0.029076656},
			{-0.03521488, -0.04277568, -0.03416577, 0.051408276, -0.032123413, -0.02106162, -0.031173984, 0.0124055175, 0.020686632, -0.05078445, 0.049320064, -0.053413868, -0.013050695, -0.024451893, -0.014689764, 0.040539954, -0.045736007, 0.022095809, 0.047709662, 0.044686817, -0.017498994, 0.015739724, -0.026102794, 0.015361894, 0.03647451, 0.03792938, 0.0040977784, 0.0149334865, 0.024773657, -0.032694995, 0.006277467, -0.017550604, -0.005711998, -0.037484232, -0.027587399, 0.01047886, -0.009255486, 0.034750912, -0.049335085, 0.003764613, -0.027913947, -0.01877372, -0.026069786, -0.03826241, 0.03559758, 0.020164069, -0.03673727, 0.0034922566, 0.04903562, -0.029731242, -0.007411647, -0.026270958, 0.034850627, 0.03045018, 0.0010357335, -0.027588313, 0.02212997, -0.0020929435, 0.00505778, 0.0039798142, 0.010194355, 0.0368879, 0.021870267, 0.021427784},
			{0.013009101, 0.033391986, 0.048109822, -0.013142849, 0.03126656, 0.041941483, -0.032709282, -0.009592832, 0.01594885, 0.0057462174, 0.02621, -0.0050590443, -0.007368669, 0.05122691, 0.019538881, -0.03223286, 0.0068872613, -0.017040819, 0.026249152, -0.045870304, -0.02990418, -0.032031164, -0.0070507894, 0.052304793, 0.03008686, -0.015537911, 0.022921849, -0.04299394, -0.036553927, -0.032247826, -0.050514918, 0.03214278, 0.004172415, -0.015158551, -0.016491286, -0.042581998, -0.041559756, 0.040832683, 0.03284535, 0.014514748, 0.051705066, 0.04268321, 0.038288843, -0.041337576, 0.03019968, 0.032790877, 0.008811951, -0.047270842, -0.033591446, 0.0172707, -0.02434795, -0.03154324, 0.014483701, 0.021418214, 0.048283912, -0.03850041, 0.023636522, -0.049631663, -0.013701567, 0.019074764, -0.05023629, -0.032606572, -0.04623899, -0.01504901},
			{-0.04187409, -0.037119616, -0.004241747, 0.024155786, -0.029290097, 0.022571176, 0.01079101, -0.03924172, 0.040515445, 0.025782708, -0.009709962, 0.011313397, 0.014705126, -0.00839832, 0.0033587194, -0.019616868, -0.01693843, -0.034778487, 0.021951478, 0.040647235, 0.025663247, -0.028590895, 0.034459047, -0.0015137877, 0.011776697, 0.013558157, 0.01314906, -0.052224763, -0.020630654, 0.02747742, -0.023806948, -0.048156824, -0.0042592436, 0.01572122, 0.050353646, -0.019590639, 0.031400338, -0.042455807, 0.0228544, 0.050820183, 0.00088616775, 0.05114448, 0.048871472, -0.0005161674, -0.018521424, -0.037982985, 0.018901218, -0.03194348, -0.024096396, 0.050932646, -0.044973116, -0.029256253, -0.0023787776, -0.013901856, 0.02735539, -0.016015477, 0.048007417, -0.0461391, -0.05298972, -0.0015584679, -0.0036473176, 0.049744103, -0.018433478, 0.011992997},
			{0.028722074, -0.054447524, 0.028115066, -0.008677367, 0.0026215152, 0.049013134, -0.0027952325, 0.007008748, 0.010362567, 0.0077000936, 0.009840501, 0.009576936, -0.011390451, 0.043147452, -0.011248817, 0.023331229, -0.013159302, -0.044103134, 0.02302744, 0.038654007, -0.015084498, 0.035907663, 0.0013321682, -0.017931676, 0.040237598, 0.032420814, -0.02523569, -0.017760837, 0.022991199, 0.046182405, -0.0110639585, 0.011208833, 0.014143263, -0.02121069, 0.041322697, -0.039666694, -0.009180781, -0.05269271, 0.010020171, 0.026388744, -0.007906294, 0.03206238, 0.010221595, -0.04914779, 0.035243858, -0.02336719, -0.032007825, 0.019530144, -0.045070205, 0.03682781, 0.025091924, -0.04874532, -0.0037487338, -0.04835872, 0.035045993, -0.027328499, 0.033316, -0.0016113553, 0.035260543, -0.021560615, 0.020467045, -0.011871108, 0.036170553, 0.047833215},
			{0.017742725, 0.029593308, -0.017361771, 0.0340074, 0.008880794, -0.046719316, 0.019194182, 0.0014662464, -0.03310912, -0.024900952, -0.046806194, -0.02269973, 0.031010827, -0.020478444, 0.039116044, 0.023203582, 0.035361603, 0.039953414, -0.046593323, 0.02291873, -0.04766125, -0.0148473, -0.049706955, -0.03852569, 0.037523523, 0.051223025, -0.05280514, 0.018387811, 0.041199904, -0.021210259, 0.00951184, 0.02510645, 0.025675498, -0.04992055, -0.05118808, 0.034193896, -0.033787496, -0.0032242986, -0.03152545, -0.022693297, -0.041975398, 0.016649302, 0.05155592, -0.034079615, 0.00087104656, 0.014807439, 0.01367563, -0.046549726, 0.0049240184, -0.039542116, -0.047204215, 0.002084287, -0.043151986, -0.05101964, 0.021962695, 0.025751175, -0.036070094, -0.03207427, -0.049468853, 0.008010544, -0.021843746, 0.048101556, 0.022374844, -0.048648376},
			{0.036956813, 0.02087688, 0.026934557, -0.011591584, 0.03653538, -0.02633706, -0.011760268, -0.01429072, 0.0030358818, 0.020696545, 0.039623965, 0.016317867, 0.045126013, 0.037657753, -0.03073108, 0.048795573, 0.034744497, 0.025318457, -0.0058524394, -0.033106282, -0.0483838, 0.051544704, -0.03415154, 0.035459444, -0.034084167, -0.010930227, 0.04810758, -0.036527455, -0.026430678, 0.0028240494, -0.04334024, -0.023097841, -0.026106687, 0.024761096, -0.05050385, 0.03162998, -0.0455662, -0.014893682, -0.019658964, 0.016456813, -0.014778008, 0.05239174, -0.040458947, -0.04895992, 0.050199997, -0.008981065, 0.033264346, -0.049114197, 0.042893402, -0.023889141, 0.010095271, -0.041489776, -0.022323677, 0.032444093, 0.05263994, 0.000778039, 0.021181462, 0.010659022, -0.04710315, 0.0013077884, -0.022331107, 0.036520433, -0.030118113, -0.021079602},
			{0.0005403029, 0.051642906, 0.008066435, -0.053199954, 0.0018889046, -0.018861974, -0.002685239, -0.04397883, -0.024337765, -0.046495304, -0.02108393, 0.014244881, 0.04133249, -0.049088567, -0.030672187, -0.02208865, 0.026642006, 0.034662843, 0.014921445, -0.020863732, 0.03293674, -0.03643211, -0.04915115, 0.022526361, 0.049748037, 0.015233472, -0.024875995, -0.022548478, -0.008865874, -0.0148143405, 0.037144054, 0.008533861, 0.048584342, 0.010391389, 0.012147292, -0.031490155, -0.013454733, -0.016438317, -0.024740634, 0.0007406835, 0.03804967, -0.003039159, -0.04209516, -0.013939784, 0.006817247, -0.0011608967, 0.013186848, -0.007158678, 0.00015191102, -0.047781557, -0.01693155, 0.01081928, 0.021113908, -0.028259577, -0.04433144, 0.039279904, 0.018901689, -0.007222613, -0.008180573, 0.011131233, 0.039706126, -0.0047931946, -0.044744976, -0.0092723435},
			{-0.01583533, -0.050204992, -0.03358984, -0.03240604, -0.006779735, -0.048631113, 0.040762674, -0.036964644, 0.006001877, 0.0498244, -0.034879416, -0.024060464, -0.039225485, 0.0024991154, 0.0017197332, 0.04128508, -0.0003739467, 0.00035419426, -0.02196697, 0.013634503, -0.046190847, -0.022743296, -0.01902285, 0.049270917, 0.051533666, 0.020331435, -0.005506048, 0.051453695, 0.03268167, 0.0112581765, -0.041008823, 0.026154246, 0.049131226, -0.029877162, 0.04201769, 0.0034573271, -0.014335949, 0.014796358, 0.030863386, -0.009058376, 0.011251203, 0.014505755, -0.035568886, -0.032253645, 0.051701218, -0.050024126, -0.024110531, 0.019713556, -0.037513297, 0.01716452, 0.00954886, 0.029886762, 0.038826454, -0.03479857, -0.010665747, -0.046009988, -0.04966411, -0.0018162604, 0.03245463, -0.03556008, -0.0032012407, -0.008633975, -0.029440919, 0.0315246},
			{0.005115128, 0.037246626, -0.0009468413, -0.010672542, 0.030680567, -0.024194822, -0.049709074, -0.037082348, -0.021090535, -0.026266329, 0.024966432, 0.01167115, -0.012651229, -0.04175109, -0.019987335, 0.04337594, -0.029868584, -0.04754704, 0.03099721, -0.051188193, 0.029713854, -0.0024067785, 0.04104043, 0.01582668, 0.0008172071, 0.05025211, 0.02431906, -0.047082234, 0.03722302, 0.036824245, -0.034608744, -0.027043302, 0.0021928966, 0.009483257, -0.038084257, -0.029983478, -0.0062927, -0.033627376, 0.03363071, 0.04121048, 0.029107206, 0.040468737, -0.017156972, -0.012703982, -0.017769342, -0.0066329255, -0.02241595, 0.0021879668, 0.012881786, -0.045785956, -0.02534465, 0.013253, 0.02035683, 0.030669605, 0.048660513, 0.03168451, -0.034226354, -0.022156578, 0.03635266, -0.049994223, 0.0108148325, 0.0373157, 0.0020397126, -0.015739132},
			{-0.014822857, -0.022114003, 0.010132036, -0.009273609, 0.016281921, -0.04824979, -0.024478095, -0.046067886, 0.047854666, 0.0056834454, 0.018358994, 0.011174366, 0.035087153, 0.015872216, 0.015513628, -0.04682667, 0.0076766554, 0.027406566, -0.018854747, 0.0050978228, 0.0069376356, -0.009574974, -0.013190315, -0.025979884, 0.043412115, 0.045864828, 0.024374576, -0.045092404, 0.013751271, -0.04934792, 0.037054244, 0.008875955, -0.026625033, -0.040359735, -0.03553334, 0.0031284322, -0.016681656, 0.037907742, 0.022930851, -0.039261244, 0.029837193, 0.05174598, 0.0004980903, -0.030696599, -0.045276858, 0.025433363, 0.020725153, 0.05160012, -0.022036722, 0.049824648, -0.024744356, -0.041983776, 0.02927733, -0.022968736, 0.045368876, -0.02177405, -0.017499803, -0.0034364397, -0.007231948, -0.04143086, -0.020412514, 0.028493602, -0.007927779, -0.023880636},
			{-0.016318815, 0.039374903, 0.0066463873, -0.009799943, 0.018938184, -0.004013757, -0.014821997, 0.049254674, -0.044439487, 0.027276043, -0.04273156, -0.007904156, -0.0035519693, -0.03048056, -0.03248252, -0.038008418, -0.038052462, 0.010237205, 0.00043812403, -0.025009042, -0.011431178, -0.025006242, 0.05311629, 0.027076753, 0.01789538, -0.018934775, 0.0129840905, -0.047791094, 0.0012831122, 0.0058065685, 0.04003538, -0.05046573, 0.030513816, 0.02221088, -0.028983405, -0.05278, -0.008704972, 0.04401809, -0.030421183, 0.017780218, -0.026101263, 0.038846876, 0.05129884, 0.033150952, 0.029752668, -0.017790943, 0.0242766, 0.046255846, -0.017596768, -0.028632555, -0.011360352, -0.03650852, 0.011480338, -0.022138052, 0.044184934, 0.04947106, -0.013571813, 0.0034216475, -0.021814473, -0.049094718, -0.0017644304, 0.04132942, -0.0013798196, 0.027884707},
			{0.034903098, 0.03516895, -0.024466172, -0.016457057, 0.029844755, 0.046576124, -0.0046222974, -0.0015611876, -0.024697958, -0.031893704, 0.04330963, 0.0033262155, -0.011690836, -0.022681292, -0.013611858, -0.0008163069, 0.0041606394, 0.041950546, -0.022108097, -0.039028615, 0.0054003336, 0.03233047, 0.014926911, 0.0023353365, 0.030125437, 9.633358e-05, -0.003314267, 0.03958061, 0.015251855, -0.033699933, 0.014511199, -0.037127763, -0.001260158, 0.037920516, -0.021684771, -0.010730447, -0.010540748, 0.023934983, 0.009872396, 0.0045138123, -0.042209122, 0.005622364, -0.038831692, -0.052597497, -0.0074988683, 0.037547503, -0.014559626, -0.004784131, -0.027609525, -0.039532073, 0.031694047, 0.046026386, 0.05217882, -0.04639828, -0.01309367, -0.010278678, 0.035458405, 0.021392575, -0.0073687984, 0.016703123, -0.031171685, -0.03902304, -0.040600307, 0.03007632},
			{0.011455245, -0.024030095, -0.051253676, -0.031363163, -0.0011395178, -0.01859809, -0.011544348, 0.00268274, 0.009533917, -0.015228373, -0.043315094, 0.025753085, -0.036417644, 0.012325057, 0.045762613, -0.0409129, -0.051020276, -0.01841666, 0.035351176, -0.00759762, 0.04615544, 0.010163374, -0.03129215, -0.02356364, 0.014142944, -0.042874828, -0.008083461, 0.035866965, 0.007323346, 0.042460203, -0.04350715, -0.03700768, -0.020365164, 0.0028384079, 0.016185757, 0.011243926, -0.047257643, 0.030708464, 0.014426682, 0.052387808, -0.037127797, -0.030466335, -0.021350084, -0.014291111, -0.019977296, -0.042936843, -0.019746222, -0.04387938, 0.010096805, -0.050105833, 0.04050396, 0.010455821, 0.019768817, 0.03791972, -0.04509053, -0.031373743, 0.017922381, -0.0028545854, -0.00927514, 0.048323203, 0.03174188, -0.027573869, 0.032070592, -0.052060876},
			{-0.014602536, -0.009076889, -0.04500445, 0.017755954, 0.048704013, -0.046161786, -0.05239593, 0.048953757, 0.008106876, -0.034809753, 0.05384329, 0.024983015, -0.052193422, -0.050764244, 0.036135286, 0.0047444226, -0.03418683, -0.0034119696, -0.03757458, 0.042957284, 0.0048087803, 0.0094286, 0.051704112, 0.030582873, -0.033773325, -0.0019497654, -0.01992414, 0.014188078, -0.013846076, -0.015950583, -0.0007251145, 0.029973574, 0.045482926, -0.039644253, 0.0449395, 0.04090873, -0.019412298, 0.014522343, -0.019924093, -0.030081244, -0.00023993367, -0.053424504, 0.014668127, 0.053720832, 0.053029563, -0.04520114, -0.037546284, 0.020999184, 0.013680795, -0.014151954, -0.005169966, -0.03267331, 0.02436867, -0.013551175, 0.042478975, 0.018559316, -0.03508292, 0.0004513252, 0.03940083, 0.014375346, -0.052140884, -0.041136026, 0.03493511, -0.02364036},
			{-0.04125135, 0.01660031, 0.0368838, -0.014487622, 0.027902102, 0.043905932, -0.011888554, 0.030939521, -0.02073039, -0.0024473963, -0.0060869195, -0.047768973, 0.027435621, 0.004897837, -0.042943586, 0.026294887, -0.035925407, 0.01931358, 0.011727384, -0.020188969, -0.025153633, -0.02214754, -0.0099206325, 0.009750824, -0.00068558595, 0.0495733, -0.03440246, -0.010526907, 0.048703972, -0.017606338, 0.04105465, 0.038834408, -0.048039444, -0.035281286, -0.032228168, -0.05159402, 0.048775792, -0.05210654, -0.006905238, -0.03083106, -0.03862286, 0.041339718, 0.052684374, -0.019096408, -0.012173682, -0.048173912, -0.02558149, 0.0027354178, 0.006476038, 0.0085487, 0.0017101979, 0.04456045, 0.040442884, 0.0058808727, -0.05364872, -0.00025118887, -0.043486908, -0.014277487, 0.05324789, 0.009039378, 0.0049986313, -0.033260565, 0.015423846, -0.04800964},
			{0.042569112, -0.0320528, -0.04174194, -0.016970532, -0.038902245, -0.039125998, -0.01601498, -0.0013934961, -0.05071645, 0.019067824, 0.03694127, -0.03409939, -0.03398415, 0.04456461, -0.035983328, 0.021562647, -0.051586714, -0.014999915, -0.032517042, 0.027586926, 0.037660297, -0.019925114, 0.037212383, 0.027404532, -0.037732337, -0.0075100237, -0.005241913, 0.012029076, 0.005008425, -0.030069625, 0.0034079861, 0.006007367, 0.037948046, -0.018204438, -0.041460447, 0.008146726, 0.045676697, -0.017384877, 0.03134656, 0.0025757514, 0.020046575, 0.045904245, 0.040451225, 0.0039362777, -0.0433106, -0.023710607, 0.027612818, 0.0041601206, -0.019762352, 0.003590122, 0.014046774, -0.04292407, 0.032269433, 0.047719494, 0.044660643, 0.023230342, 0.00022592027, -0.009468504, 0.009406369, -0.050389063, -0.045001753, -0.0334666, 0.034561813, -0.031929},
			{0.0029359597, 0.025649708, -0.008010713, 0.009438351, -0.045695566, -0.011557403, 0.00089860515, 0.013458844, 0.033343967, -0.03910324, 0.030934023, -0.05181565, -0.02678562, 0.036346786, -0.048838567, -0.005893678, -0.047704615, 0.037226222, 0.04229846, -0.02833601, -0.030994646, -0.014858308, 0.010770993, -0.026598241, -0.04141612, -0.021744994, -0.023473183, 0.0062944377, 0.050446536, -0.0028118992, 0.03779474, 0.038132023, -0.022927469, -0.025077656, 0.049233474, -0.039730515, -0.005018341, -0.050741192, 0.012159126, 0.020891363, 0.048585434, -0.0037386182, 0.004323686, -0.044078913, 0.009847401, 0.017044691, -0.027754491, 0.037915103, 0.03080156, 0.015604084, -0.037953164, -0.0075018546, 0.03306809, 0.014903429, 0.019016078, 0.002827449, -0.0029110753, 0.0351949, -0.03560035, 0.015296446, 0.026594212, 0.048917413, 0.028620612, 0.028252834},
			{0.04532493, 0.05186437, -0.04447438, 0.029158492, -0.047779147, 0.0016266601, -0.016221022, 0.0025627722, 0.008291677, -0.033529747, 0.01669667, 0.018700652, -0.04015105, -0.01984399, -0.037098132, -0.015759418, 0.030331675, -0.052892815, 0.03597708, -0.033914994, 0.041818663, -0.0074499105, 0.051859953, -0.05095152, 0.05208039, 0.032892935, -0.04867177, -0.034148376, -0.024171008, 0.009908837, 0.04644986, 0.020597273, -0.0023548894, -0.010970471, -0.04433039, 0.014893161, -0.030054709, 0.036864106, 0.019279137, -0.04598883, -0.039689913, -0.0074489694, 0.05076656, -0.047027305, -0.02181919, -0.0136586465, 0.02097747, -0.022299135, 0.027920147, 0.04734086, -0.031690683, -0.0023595232, -0.051404797, 0.041759953, 0.0044451905, 0.011098733, 0.005540198, 0.051239226, 0.015664354, -0.011086905, -0.0013947714, 0.01135169, -0.028910749, 0.03655077},
			{-0.01672657, -0.031174142, -0.026351478, -0.027460553, -0.004225367, 0.044160396, 0.017758293, 0.004311655, -0.03119006, -0.0452705, 0.043649886, -0.045606207, -0.008748145, -0.002018995, 0.009142626, -0.009099972, -0.013777641, -0.02552754, 0.017950045, 0.024958543, -0.019539857, -0.027269093, -0.019401161, -0.020019531, -0.011091754, -0.01080377, 0.021182196, -0.025541054, -0.016299613, 0.05045301, -0.02047624, 0.049537793, -0.037273142, 0.021925716, 0.005183426, -0.027502175, 0.002646739, -0.0062244707, 0.029508723, 0.033528883, -0.053574473, 0.046981636, -0.045015566, -0.027645323, 0.051206242, 0.030323528, 0.042143267, 0.050677925, 0.017067134, 0.037547834, 0.00417331, -0.01080694, -0.049991403, -0.03874033, 0.018423876, 0.05157874, -0.053774603, 0.04362512, 0.0025943788, -0.008080848, 0.015398001, 0.016720913, -0.03380397, 0.004263351},
			{0.04709069, -0.026798815, 0.032686252, -0.04686438, 0.017351389, 0.04242621, -0.03229068, 0.047580726, -0.041583862, -0.017198242, -0.037594307, -0.0036231538, 0.02845352, 0.0077740485, 0.0075742016, -0.053061873, 0.023144199, -0.050079603, 0.041626845, -0.015715603, 0.025226917, -0.003291959, -0.017076261, -0.011804889, 0.03198532, 0.010776135, 0.020749178, -0.0059364927, -0.033484932, -0.01872056, -0.037203047, -0.031324342, 0.041815404, -0.030741349, -0.05144252, 0.04741084, 0.04028806, 0.037087113, -0.041819487, -0.049394667, 0.044325404, -0.017212002, 0.038003802, 0.04792035, -0.041554872, -0.02954942, -0.010877656, -0.015960112, 0.038894095, -0.014462746, 0.018942261, 0.04838133, -0.020556448, 0.04253266, -0.04335788, 0.032948077, 0.006585466, -0.04769183, 0.040382892, 0.011856292, 0.0038794691, -0.018280437, -0.05022477, -0.027378311},
			{0.04249303, -0.030539796, -0.041241303, -0.03301236, 0.04959668, -0.0453746, 0.030173717, -0.009333037, -0.041758087, 0.0019742378, -0.04089963, 0.0059041437, 0.031269915, -0.028442945, 0.022814738, -0.033886194, -0.0047611836, -0.050071303, 0.01671054, 0.015500786, 0.010139091, 0.0018489365, 0.02205575, 0.0027269188, 0.010875305, -0.05190735, -0.033542857, -0.034018338, 0.04288744, -0.040913515, 0.044030238, 0.03726853, 0.031234587, -0.042136505, 0.039629407, 0.008620226, 0.033487827, -0.047170755, 0.039763242, -0.00086048106, 0.034672536, 0.0326503, 0.05126177, 0.037980977, 0.0093442155, -0.023942335, -0.027254818, 0.013697276, -0.040030673, -0.014950961, 0.013295597, 0.033348806, -0.011596141, -0.029836679, -0.025136748, -0.017990837, 0.044628955, 0.012359035, -0.051121127, 0.021262623, 0.03089908, 0.050958052, 0.009408976, 0.041919816},
			{-0.019221852, -0.049549203, 0.005107555, 0.02792158, -0.0024298376, 0.041524984, -0.017133823, 0.046627447, -0.026112173, 0.02535154, 0.02196675, -0.026594238, -0.022332925, -0.0068980185, -0.04465415, 0.02737682, -0.04897419, 0.016252702, 0.03743823, 0.047077753, 0.034152664, 0.013561353, -0.010511746, -0.012216536, 0.04729963, 0.0470592, 0.005066661, 0.046750825, 0.017545816, -0.027095258, 0.04768073, 0.05092306, -0.05013585, 0.025369246, 0.03642803, 0.0049313256, 0.004421419, 0.057478733, 0.048302706, 0.051343914, -0.023445992, 0.051593605, -0.027812455, -0.017417865, 0.03769666, 0.04403018, 0.0026418956, 0.041825235, 0.032975405, 0.026811376, -0.0512768, 0.0050031687, -0.020107586, -0.051704127, -0.0012156921, 0.04568165, -0.02342935, -0.012919503, -0.049920104, 0.01997487, 0.012304918, -0.008405209, -0.0046679974, 0.03459343},
			{0.03861797, -0.007012952, 0.03930163, -0.014589355, 0.04390991, 0.0068582674, 0.02106125, -0.02566651, -0.009866554, -0.04530142, -0.0062398943, 0.041041736, 0.05048204, -0.0010739022, 0.05151125, 0.030125367, 0.0032696838, -0.014480045, -0.04945926, 0.01129486, -0.03635092, -0.023395421, 0.00697395, 0.02784752, 0.03354159, -0.033034552, -0.044965237, -0.040444512, 0.0041679344, -0.018798502, -0.05270204, -0.019411204, -0.033205714, -0.053328887, -0.020258432, 0.016980942, 0.020999935, 0.043271784, 0.001398943, 0.042294096, 0.0014955064, -0.03381294, -0.021938816, 0.014713931, 0.0469407, -0.051939975, -0.038363125, -0.0151072, -0.00670352, -0.0021010928, -0.0030158896, 0.03614139, 0.022835517, 0.029284198, -0.003573095, -0.048299536, 0.04156927, 0.04720172, 0.03322511, -0.026921628, 0.01289377, 0.005246789, 0.022584079, -0.042896297},
			{-0.029741103, 0.0024808822, 0.0036211845, -0.002993422, 0.022667738, 0.0475079, -0.035237577, -0.019430954, 0.021228958, -0.00069495174, 0.045946304, 0.048444685, 0.032982726, -0.049465433, -0.029259885, -0.05322642, -0.041121967, 0.018373216, 0.021755055, 0.01669026, -0.048681512, -0.0009767575, -0.0045341915, 0.0030668066, 0.003306428, 0.01678725, 0.032673214, 0.018130532, 0.03370067, -0.048176184, -0.03396986, -0.041810792, -0.025996916, 0.05031487, 0.01807943, -0.03446018, -0.04817606, -0.020528343, -0.00060728576, -0.042246457, 0.027434843, 0.0018730278, -0.043384656, -0.011389958, -0.04473191, 0.040303882, 0.025187707, -0.0013211635, 0.014034095, -0.024002198, 0.040757816, 0.036504824, -0.030959085, -0.0027882739, 0.022996154, 0.042363703, -0.026941404, 0.017875612, 0.045932695, -0.05368755, 0.007308064, -0.0041093747, -0.008475921, -0.045236785},
			{-0.038964763, 0.020116521, -0.008241056, 0.0015850746, 0.039991178, -0.012337235, -0.042298082, -0.033910226, -0.009673339, -0.011496594, 0.029556667, -0.018913174, -0.025584165, -0.0122105405, 0.021369344, -0.033952594, 0.017779183, 0.03234718, 0.00357088, 0.0040221857, 0.03327244, -0.01569443, -0.02816447, -0.051400024, 0.050107263, 0.00947118, 0.01064611, 0.022809843, -0.02285477, -0.0149867, -0.03848458, 0.0031112328, -0.0045367028, -0.052797023, 0.039444264, -0.038232308, -0.042773772, 0.026065327, 0.035369143, -0.053395074, 0.02013002, -0.042006217, 0.0020008036, 0.030849185, -0.00066191563, 0.038214356, 0.040434543, 0.0015266057, 0.051768884, -0.03284278, 0.050481144, -0.025825351, -0.04133877, -0.015868938, 0.0054789893, -0.0069955084, -0.0348817, 0.00034338594, 0.033387583, -0.0039003917, 0.0036002863, 0.016243776, -0.039885446, -0.002056772},
			{0.006518531, -0.042938408, 0.001208679, -0.00667458, 0.015311564, -0.031725127, -0.022157295, 0.00054668606, -0.007242727, -0.03605636, 0.035541873, -0.03924395, -0.01613724, -0.020222116, -0.039650355, -0.0033485452, 0.035119537, 0.018903872, -0.052386075, -0.013752744, 0.022217466, -0.014269264, 0.029335575, -0.02827669, 0.017612405, -0.024392646, 0.008239704, 0.044221237, 0.010639549, -0.025580265, -0.0198288, 0.022260705, 0.019123094, 0.009352272, -0.053413138, 0.01618553, 0.03147452, -0.032872263, -0.009359716, 0.04924071, -0.052207153, -0.016364926, -0.05110699, 0.039139487, 0.028310098, 0.014714311, -0.045835797, 0.033137996, 0.029751299, 0.0107653, -0.0124047585, -0.0038839518, 0.05193534, 0.022852426, -0.0024469986, 0.05211496, 0.00966862, -0.00876397, 0.0024626746, -0.051945228, -0.008800319, 0.016132284, 0.02452394, 0.04083047},
			{0.011463796, -0.041904755, -0.033330075, 0.045463458, 0.040892508, 0.022323215, -0.025113422, -0.04257441, 0.050601732, 0.027551632, 0.017706828, 0.0065548024, -0.039116964, -0.035731476, -0.05115195, -0.035725303, 0.028202107, -0.009044891, -0.042904697, 0.00863124, 0.02554366, 0.042110547, 0.015897293, 0.04084028, 0.03290415, 0.032129187, 0.016999938, -0.0074758967, 0.012497728, -0.03310169, 0.04504055, 0.012809217, -0.02009941, -0.048719835, -0.014629397, -0.009821437, 0.027570482, -0.009290643, -0.050975148, -0.0036914318, -0.02599274, -0.006506474, -0.03855602, 0.049578354, -0.004868783, -0.031663228, 0.01617485, -0.028180882, 0.036108468, -0.041726075, -0.033875015, 0.023280196, 0.02195971, -0.015354175, 0.03945082, 0.02971249, -0.005389064, 0.03394863, -0.026573963, -0.021238152, 0.03719768, 0.026026525, -0.007978874, 0.008039539},
			{0.04124195, -0.0028683674, -0.04513035, -0.030953951, -0.013623519, -0.038481645, -0.05075253, 0.0073662265, 0.027807927, -0.00022863018, -0.041226786, -0.04030172, -0.02242163, -0.01680459, 0.041976593, 0.03642936, 0.006454323, -0.03861356, -0.051249787, -0.04964601, 0.035484653, 0.026146643, -0.022619558, -0.029982746, 0.05076576, -0.0038145224, 0.030027118, -0.034739487, -0.005582672, 0.0071054352, 0.043634824, -0.008182547, 0.00301086, -0.047680043, -0.02092693, 0.04723997, -0.0021632565, 0.049100768, 0.029059732, 0.039447837, -0.04191247, 0.015660567, -0.0026153012, -0.03277951, 0.043977227, 0.012438844, -0.025098806, 0.01963759, 0.051870156, -0.027702415, -0.020731784, -0.036615945, 0.021102529, 0.01396939, 0.052291058, -0.035675846, -0.02493125, 0.03922504, 0.0065771407, -0.036402162, -0.05152767, -0.009250345, 0.020661796, 0.03625115},
